Language model created by QuickLM on Thu Jan  9 20:16:45 EST 2014
Copyright (c) 1996-2000
Carnegie Mellon University and Alexander I. Rudnicky

This model based on a corpus of 13725 sentences and 144 words
The (fixed) discount mass is 0.5


\data\
ngram 1=144
ngram 2=324
ngram 3=204

\1-grams:
-0.7788 </s> -0.3010
-0.7788 <s> -0.2216
-2.9163 ? -0.2220
-2.9120 上课 -0.2213
-2.9163 不 -0.2220
-2.9163 不想 -0.2220
-2.9120 不用 -0.2220
-2.9163 不用了 -0.2220
-2.9163 习题课 -0.2220
-2.9163 云计算 -0.2220
-2.9035 交叉信息院 -0.2206
-2.9163 人工智能 -0.2220
-2.8993 什么 -0.2200
-4.9163 伯利克利 -0.3004
-2.9163 伯里克利 -0.2220
-2.9163 何丽 -0.2220
-2.9163 信息理论 -0.2220
-2.9163 兼职教授 -0.2220
-2.9163 冯建华 -0.2220
-2.9163 凝聚态物理 -0.2220
-2.9163 分布式系统 -0.2220
-2.9163 分布式计算 -0.2220
-2.9163 助理教授 -0.2220
-2.9163 助理研究员 -0.2220
-2.9163 华强胜 -0.2220
-2.9163 博弈论 -0.2220
-2.9163 压缩感知 -0.2220
-2.9163 吴建平 -0.2220
-2.9163 吴浩铮 -0.2220
-2.9120 哪些 -0.2213
-2.9163 唐平中 -0.2220
-2.9163 图形学 -0.2220
-2.9163 在线学习与优化 -0.2220
-2.9163 多主体系统 -0.2220
-2.9163 大数据 -0.2220
-2.9163 好 -0.2220
-2.9120 好的 -0.2220
-2.9120 姚期智 -0.2213
-2.9077 姚班 -0.2213
-2.9163 孙麓岩 -0.2220
-2.9163 宋祎璞 -0.2220
-2.9163 密码协议 -0.2220
-2.9163 密码学基础 -0.2220
-2.9163 密码的基础学 -0.2220
-2.9120 对 -0.2220
-2.9163 尹璋琦 -0.2220
-2.9035 帕帕 -0.2205
-2.9163 常秀英 -0.2220
-2.9163 廉茶铉 -0.2220
-2.9163 张静宁 -0.2220
-2.9163 徐佳 -0.2220
-2.9163 徐葳 -0.2220
-2.9163 德梅洛 -0.2220
-2.8993 怎么样 -0.2213
-2.9163 想 -0.2220
-2.9163 挖掘 -0.2220
-2.9163 操作系统 -0.2220
-2.9163 数据中心网络 -0.2220
-2.9163 数据库 -0.2220
-2.9120 时候 -0.2213
-2.9120 时间 -0.2213
-2.8993 是 -0.2207
-4.9163 是的 -0.2220
-4.4392 是谁 -0.3004
-2.9163 智能电网 -0.2220
-2.9163 曾坚阳 -0.2220
-2.9120 有 -0.2213
-4.9163 有哪些 -0.2220
-2.9163 朱利欧 -0.2220
-2.9163 朱诗亮 -0.2220
-2.9163 机制设计 -0.2220
-2.9120 机器学习 -0.2220
-2.9163 机器翻译 -0.2220
-2.8993 李建 -0.2205
-2.9163 李志远 -0.2220
-2.9163 杨升浩 -0.2220
-2.9163 杰拉尔 -0.2220
-2.9163 楊偉豪 -0.2220
-2.9163 没有 -0.2220
-2.9163 清华学堂 -0.2220
-2.9163 清华学堂102 -0.2220
-2.9163 清华学堂112 -0.2220
-2.9163 清华学堂117 -0.2220
-2.9163 温子刚 -0.2220
-2.9163 激子动力学 -0.2220
-2.9163 物理学基本问题 -0.2220
-2.9163 王子贺 -0.2220
-2.9163 王永才 -0.2220
-2.8910 王立威 -0.2205
-2.9163 王跃宣 -0.2220
-2.9163 电子商务 -0.2220
-2.8710 的 -0.2175
-2.9120 目标 -0.2213
-2.9120 研究方向 -0.2213
-2.9163 程设 -0.2220
-2.9163 算了 -0.2220
-2.9163 算了吧 -0.2220
-2.9163 算法分析 -0.2220
-2.9077 算法设计 -0.2220
-2.9163 算法设计与分析 -0.2220
-2.9163 系统监控与调试 -0.2220
-2.9163 统计力学 -0.2220
-2.9163 网络科学 -0.2220
-2.9163 网络编码 -0.2220
-2.9163 翁文康 -0.2220
-2.9163 胡事民 -0.2220
-2.9163 自然语言 -0.2220
-2.9163 自然语言处理 -0.2220
-2.9163 计入门 -0.2220
-2.9163 计算复杂性 -0.2220
-2.9163 计算学习理论 -0.2220
-2.9120 计算机入门 -0.2213
-2.9163 计算机图形学 -0.2220
-2.9163 计算机应用数学 -0.2220
-2.9163 计算理论 -0.2220
-2.9163 计算生物学 -0.2220
-2.9163 计算经济学 -0.2220
-2.9163 许荣 -0.2220
-2.9163 论证复杂性 -0.2220
-2.9035 请问 -0.2200
-2.9077 课 -0.2213
-2.9035 课程 -0.2213
-2.9163 谁 -0.2220
-4.4392 谁是 -0.2994
-2.9163 谈亦东 -0.2220
-2.9120 谢谢 -0.2220
-2.9163 通讯复杂性 -0.2220
-2.9163 逻辑和组合论 -0.2220
-2.9163 郑波 -0.2220
-2.9163 量子信息 -0.2220
-2.9163 量子信息理论 -0.2220
-2.9163 量子信息科学 -0.2220
-2.9163 量子光学 -0.2220
-2.9163 量子多体理论 -0.2220
-2.9163 量子计算 -0.2220
-2.9163 金奇奂 -0.2220
-2.9163 陈卫 -0.2220
-2.9163 陈渝 -0.2220
-2.9163 随机学习 -0.2220
-2.9163 随机网络优化 -0.2220
-2.9163 顾麦然 -0.2220
-2.9163 马雄峰 -0.2220
-2.9163 黄隆波 -0.2220
-2.8594 ？ -0.2220

\2-grams:
-2.4385 <s> ? 0.0000
-2.4385 <s> 上课 -0.0043
-2.4385 <s> 不 0.0000
-2.4385 <s> 不想 0.0000
-2.4342 <s> 不用 0.0000
-2.4385 <s> 不用了 0.0000
-2.4385 <s> 习题课 0.0000
-2.4385 <s> 云计算 0.0000
-2.4257 <s> 交叉信息院 0.0000
-2.4385 <s> 人工智能 0.0000
-2.4342 <s> 什么 -0.0124
-4.4385 <s> 伯利克利 0.0000
-2.4385 <s> 伯里克利 0.0000
-2.4385 <s> 何丽 0.0000
-2.4385 <s> 信息理论 0.0000
-2.4385 <s> 兼职教授 0.0000
-2.4385 <s> 冯建华 0.0000
-2.4385 <s> 凝聚态物理 0.0000
-2.4385 <s> 分布式系统 0.0000
-2.4385 <s> 分布式计算 0.0000
-2.4385 <s> 助理教授 0.0000
-2.4385 <s> 助理研究员 0.0000
-2.4385 <s> 华强胜 0.0000
-2.4385 <s> 博弈论 0.0000
-2.4385 <s> 压缩感知 0.0000
-2.4385 <s> 吴建平 0.0000
-2.4385 <s> 吴浩铮 0.0000
-2.4385 <s> 哪些 -0.0043
-2.4385 <s> 唐平中 0.0000
-2.4385 <s> 图形学 0.0000
-2.4385 <s> 在线学习与优化 0.0000
-2.4385 <s> 多主体系统 0.0000
-2.4385 <s> 大数据 0.0000
-2.4385 <s> 好 0.0000
-2.4342 <s> 好的 0.0000
-2.4342 <s> 姚期智 0.0000
-2.4342 <s> 姚班 0.0000
-2.4385 <s> 孙麓岩 0.0000
-2.4385 <s> 宋祎璞 0.0000
-2.4385 <s> 密码协议 0.0000
-2.4385 <s> 密码学基础 0.0000
-2.4385 <s> 密码的基础学 0.0000
-2.4342 <s> 对 0.0000
-2.4385 <s> 尹璋琦 0.0000
-2.4342 <s> 帕帕 -0.0084
-2.4385 <s> 常秀英 0.0000
-2.4385 <s> 廉茶铉 0.0000
-2.4385 <s> 张静宁 0.0000
-2.4385 <s> 徐佳 0.0000
-2.4385 <s> 徐葳 0.0000
-2.4385 <s> 德梅洛 0.0000
-2.4385 <s> 怎么样 -0.0164
-2.4385 <s> 想 0.0000
-2.4385 <s> 挖掘 0.0000
-2.4385 <s> 操作系统 0.0000
-2.4385 <s> 数据中心网络 0.0000
-2.4385 <s> 数据库 0.0000
-2.4385 <s> 时候 -0.0043
-2.4385 <s> 时间 -0.0043
-2.4385 <s> 是 -0.0164
-4.4385 <s> 是的 0.0000
-2.4385 <s> 智能电网 0.0000
-2.4385 <s> 曾坚阳 0.0000
-2.4385 <s> 有 -0.0043
-2.4385 <s> 朱利欧 0.0000
-2.4385 <s> 朱诗亮 0.0000
-2.4385 <s> 机制设计 0.0000
-2.4385 <s> 机器学习 0.0000
-2.4385 <s> 机器翻译 0.0000
-2.4299 <s> 李建 -0.0083
-2.4385 <s> 李志远 0.0000
-2.4385 <s> 杨升浩 0.0000
-2.4385 <s> 杰拉尔 0.0000
-2.4385 <s> 楊偉豪 0.0000
-2.4385 <s> 没有 0.0000
-2.4385 <s> 清华学堂 0.0000
-2.4385 <s> 清华学堂102 0.0000
-2.4385 <s> 清华学堂112 0.0000
-2.4385 <s> 清华学堂117 0.0000
-2.4385 <s> 温子刚 0.0000
-2.4385 <s> 激子动力学 0.0000
-2.4385 <s> 物理学基本问题 0.0000
-2.4385 <s> 王子贺 0.0000
-2.4385 <s> 王永才 0.0000
-2.4215 <s> 王立威 -0.0081
-2.4385 <s> 王跃宣 0.0000
-2.4385 <s> 电子商务 0.0000
-2.4385 <s> 的 -0.0410
-2.4385 <s> 目标 -0.0043
-2.4385 <s> 研究方向 -0.0043
-2.4385 <s> 程设 0.0000
-2.4385 <s> 算了 0.0000
-2.4385 <s> 算了吧 0.0000
-2.4385 <s> 算法分析 0.0000
-2.4385 <s> 算法设计 0.0000
-2.4385 <s> 算法设计与分析 0.0000
-2.4385 <s> 系统监控与调试 0.0000
-2.4385 <s> 统计力学 0.0000
-2.4385 <s> 网络科学 0.0000
-2.4385 <s> 网络编码 0.0000
-2.4385 <s> 翁文康 0.0000
-2.4385 <s> 胡事民 0.0000
-2.4385 <s> 自然语言 0.0000
-2.4385 <s> 自然语言处理 0.0000
-2.4385 <s> 计入门 0.0000
-2.4385 <s> 计算复杂性 0.0000
-2.4385 <s> 计算学习理论 0.0000
-2.4385 <s> 计算机入门 -0.0043
-2.4385 <s> 计算机图形学 0.0000
-2.4385 <s> 计算机应用数学 0.0000
-2.4385 <s> 计算理论 0.0000
-2.4385 <s> 计算生物学 0.0000
-2.4385 <s> 计算经济学 0.0000
-2.4385 <s> 许荣 0.0000
-2.4385 <s> 论证复杂性 0.0000
-2.4257 <s> 请问 0.0000
-2.4385 <s> 课 -0.0084
-2.4385 <s> 课程 -0.0125
-2.4385 <s> 谁 0.0000
-3.9614 <s> 谁是 0.0000
-2.4385 <s> 谈亦东 0.0000
-2.4342 <s> 谢谢 0.0000
-2.4385 <s> 通讯复杂性 0.0000
-2.4385 <s> 逻辑和组合论 0.0000
-2.4385 <s> 郑波 0.0000
-2.4385 <s> 量子信息 0.0000
-2.4385 <s> 量子信息理论 0.0000
-2.4385 <s> 量子信息科学 0.0000
-2.4385 <s> 量子光学 0.0000
-2.4385 <s> 量子多体理论 0.0000
-2.4385 <s> 量子计算 0.0000
-2.4385 <s> 金奇奂 0.0000
-2.4385 <s> 陈卫 0.0000
-2.4385 <s> 陈渝 0.0000
-2.4385 <s> 随机学习 0.0000
-2.4385 <s> 随机网络优化 0.0000
-2.4385 <s> 顾麦然 0.0000
-2.4385 <s> 马雄峰 0.0000
-2.4385 <s> 黄隆波 0.0000
-2.4385 <s> ？ 0.0000
-0.3010 ? </s> -0.3010
-0.3054 上课 </s> -0.3010
-2.3054 上课 时间 -0.2989
-0.3010 不 </s> -0.3010
-0.3010 不想 </s> -0.3010
-0.3010 不用 </s> -0.3010
-0.3010 不用了 </s> -0.3010
-0.3010 习题课 </s> -0.3010
-0.3010 云计算 </s> -0.3010
-0.3139 交叉信息院 </s> -0.3010
-2.3139 交叉信息院 是 -0.2947
-2.0128 交叉信息院 的 -0.2971
-0.3010 人工智能 </s> -0.3010
-0.3181 什么 </s> -0.3010
-2.3181 什么 时候 -0.2989
-2.3181 什么 是 -0.2989
-2.0170 什么 ？ 0.0000
-0.3010 伯利克利 的 -0.2971
-0.3010 伯里克利 </s> -0.3010
-0.3010 何丽 </s> -0.3010
-0.3010 信息理论 </s> -0.3010
-0.3010 兼职教授 </s> -0.3010
-0.3010 冯建华 </s> -0.3010
-0.3010 凝聚态物理 </s> -0.3010
-0.3010 分布式系统 </s> -0.3010
-0.3010 分布式计算 </s> -0.3010
-0.3010 助理教授 </s> -0.3010
-0.3010 助理研究员 </s> -0.3010
-0.3010 华强胜 </s> -0.3010
-0.3010 博弈论 </s> -0.3010
-0.3010 压缩感知 </s> -0.3010
-0.3010 吴建平 </s> -0.3010
-0.3010 吴浩铮 </s> -0.3010
-0.3054 哪些 </s> -0.3010
-2.3054 哪些 ？ 0.0000
-0.3010 唐平中 </s> -0.3010
-0.3010 图形学 </s> -0.3010
-0.3010 在线学习与优化 </s> -0.3010
-0.3010 多主体系统 </s> -0.3010
-0.3010 大数据 </s> -0.3010
-0.3010 好 </s> -0.3010
-0.3010 好的 </s> -0.3010
-0.3054 姚期智 </s> -0.3010
-2.3054 姚期智 的 -0.2991
-0.3053 姚班 </s> -0.3010
-2.3096 姚班 的 -0.2951
-0.3010 孙麓岩 </s> -0.3010
-0.3010 宋祎璞 </s> -0.3010
-0.3010 密码协议 </s> -0.3010
-0.3010 密码学基础 </s> -0.3010
-0.3010 密码的基础学 </s> -0.3010
-0.3010 对 </s> -0.3010
-0.3010 尹璋琦 </s> -0.3010
-0.3139 帕帕 </s> -0.3010
-2.3139 帕帕 是谁 0.0000
-2.3139 帕帕 的 -0.2971
-2.3139 帕帕 ？ 0.0000
-0.3010 常秀英 </s> -0.3010
-0.3010 廉茶铉 </s> -0.3010
-0.3010 张静宁 </s> -0.3010
-0.3010 徐佳 </s> -0.3010
-0.3010 徐葳 </s> -0.3010
-0.3010 德梅洛 </s> -0.3010
-0.3181 怎么样 </s> -0.3010
-1.7160 怎么样 ？ 0.0000
-0.3010 想 </s> -0.3010
-0.3010 挖掘 </s> -0.3010
-0.3010 操作系统 </s> -0.3010
-0.3010 数据中心网络 </s> -0.3010
-0.3010 数据库 </s> -0.3010
-0.3054 时候 </s> -0.3010
-2.3054 时候 ？ 0.0000
-0.3054 时间 </s> -0.3010
-2.3054 时间 是 -0.2947
-0.3181 是 </s> -0.3010
-1.8409 是 什么 -0.2947
-2.3181 是 姚班 -0.0042
-0.3010 是的 </s> -0.3010
-0.3010 是谁 ？ 0.0000
-0.3010 智能电网 </s> -0.3010
-0.3010 曾坚阳 </s> -0.3010
-0.3054 有 </s> -0.3010
-2.3054 有 哪些 -0.2989
-0.3010 有哪些 </s> -0.3010
-0.3010 朱利欧 </s> -0.3010
-0.3010 朱诗亮 </s> -0.3010
-0.3010 机制设计 </s> -0.3010
-0.3010 机器学习 </s> -0.3010
-0.3010 机器翻译 </s> -0.3010
-0.3181 李建 </s> -0.3010
-2.3181 李建 是谁 0.0000
-2.0170 李建 的 -0.2911
-2.3181 李建 ？ 0.0000
-0.3010 李志远 </s> -0.3010
-0.3010 杨升浩 </s> -0.3010
-0.3010 杰拉尔 </s> -0.3010
-0.3010 楊偉豪 </s> -0.3010
-0.3010 没有 </s> -0.3010
-0.3010 清华学堂 </s> -0.3010
-0.3010 清华学堂102 </s> -0.3010
-0.3010 清华学堂112 </s> -0.3010
-0.3010 清华学堂117 </s> -0.3010
-0.3010 温子刚 </s> -0.3010
-0.3010 激子动力学 </s> -0.3010
-0.3010 物理学基本问题 </s> -0.3010
-0.3010 王子贺 </s> -0.3010
-0.3010 王永才 </s> -0.3010
-0.3220 王立威 </s> -0.3010
-2.3263 王立威 是谁 0.0000
-1.8492 王立威 的 -0.2891
-2.3263 王立威 ？ 0.0000
-0.3010 王跃宣 </s> -0.3010
-0.3010 电子商务 </s> -0.3010
-0.3464 的 </s> -0.3010
-2.3464 的 机器学习 0.0000
-2.3464 的 目标 -0.2989
-2.3464 的 研究方向 -0.2989
-2.0453 的 算法设计 0.0000
-2.3464 的 计算机入门 -0.2989
-2.0453 的 课 -0.2968
-1.8692 的 课程 -0.2947
-0.3054 目标 </s> -0.3010
-2.3054 目标 是 -0.2947
-0.3054 研究方向 </s> -0.3010
-2.3054 研究方向 有 -0.2989
-0.3010 程设 </s> -0.3010
-0.3010 算了 </s> -0.3010
-0.3010 算了吧 </s> -0.3010
-0.3010 算法分析 </s> -0.3010
-0.3010 算法设计 </s> -0.3010
-0.3010 算法设计与分析 </s> -0.3010
-0.3010 系统监控与调试 </s> -0.3010
-0.3010 统计力学 </s> -0.3010
-0.3010 网络科学 </s> -0.3010
-0.3010 网络编码 </s> -0.3010
-0.3010 翁文康 </s> -0.3010
-0.3010 胡事民 </s> -0.3010
-0.3010 自然语言 </s> -0.3010
-0.3010 自然语言处理 </s> -0.3010
-0.3010 计入门 </s> -0.3010
-0.3010 计算复杂性 </s> -0.3010
-0.3010 计算学习理论 </s> -0.3010
-0.3054 计算机入门 </s> -0.3010
-2.3054 计算机入门 上课 -0.2989
-0.3010 计算机图形学 </s> -0.3010
-0.3010 计算机应用数学 </s> -0.3010
-0.3010 计算理论 </s> -0.3010
-0.3010 计算生物学 </s> -0.3010
-0.3010 计算经济学 </s> -0.3010
-0.3010 许荣 </s> -0.3010
-0.3010 论证复杂性 </s> -0.3010
-0.3139 请问 </s> -0.3010
-2.3139 请问 帕帕 -0.2989
-2.3139 请问 李建 -0.2989
-2.3139 请问 王立威 -0.2990
-0.3096 课 </s> -0.3010
-2.0086 课 怎么样 -0.2926
-0.3139 课程 </s> -0.3010
-2.0128 课程 怎么样 -0.2926
-2.3139 课程 有哪些 0.0000
-0.3010 谁 </s> -0.3010
-0.7782 谁是 帕帕 -0.2989
-0.7782 谁是 李建 -0.2989
-0.7782 谁是 王立威 -0.2990
-0.3010 谈亦东 </s> -0.3010
-0.3010 谢谢 </s> -0.3010
-0.3010 通讯复杂性 </s> -0.3010
-0.3010 逻辑和组合论 </s> -0.3010
-0.3010 郑波 </s> -0.3010
-0.3010 量子信息 </s> -0.3010
-0.3010 量子信息理论 </s> -0.3010
-0.3010 量子信息科学 </s> -0.3010
-0.3010 量子光学 </s> -0.3010
-0.3010 量子多体理论 </s> -0.3010
-0.3010 量子计算 </s> -0.3010
-0.3010 金奇奂 </s> -0.3010
-0.3010 陈卫 </s> -0.3010
-0.3010 陈渝 </s> -0.3010
-0.3010 随机学习 </s> -0.3010
-0.3010 随机网络优化 </s> -0.3010
-0.3010 顾麦然 </s> -0.3010
-0.3010 马雄峰 </s> -0.3010
-0.3010 黄隆波 </s> -0.3010
-0.3010 ？ </s> -0.3010

\3-grams:
-0.3010 <s> ? </s>
-0.3010 <s> 上课 </s>
-0.3010 <s> 不 </s>
-0.3010 <s> 不想 </s>
-0.3010 <s> 不用 </s>
-0.3010 <s> 不用了 </s>
-0.3010 <s> 习题课 </s>
-0.3010 <s> 云计算 </s>
-0.3139 <s> 交叉信息院 </s>
-2.3139 <s> 交叉信息院 是
-2.0128 <s> 交叉信息院 的
-0.3010 <s> 人工智能 </s>
-0.3054 <s> 什么 </s>
-2.3054 <s> 什么 是
-0.3010 <s> 伯利克利 的
-0.3010 <s> 伯里克利 </s>
-0.3010 <s> 何丽 </s>
-0.3010 <s> 信息理论 </s>
-0.3010 <s> 兼职教授 </s>
-0.3010 <s> 冯建华 </s>
-0.3010 <s> 凝聚态物理 </s>
-0.3010 <s> 分布式系统 </s>
-0.3010 <s> 分布式计算 </s>
-0.3010 <s> 助理教授 </s>
-0.3010 <s> 助理研究员 </s>
-0.3010 <s> 华强胜 </s>
-0.3010 <s> 博弈论 </s>
-0.3010 <s> 压缩感知 </s>
-0.3010 <s> 吴建平 </s>
-0.3010 <s> 吴浩铮 </s>
-0.3010 <s> 哪些 </s>
-0.3010 <s> 唐平中 </s>
-0.3010 <s> 图形学 </s>
-0.3010 <s> 在线学习与优化 </s>
-0.3010 <s> 多主体系统 </s>
-0.3010 <s> 大数据 </s>
-0.3010 <s> 好 </s>
-0.3010 <s> 好的 </s>
-0.3054 <s> 姚期智 </s>
-2.3054 <s> 姚期智 的
-0.3054 <s> 姚班 </s>
-2.3054 <s> 姚班 的
-0.3010 <s> 孙麓岩 </s>
-0.3010 <s> 宋祎璞 </s>
-0.3010 <s> 密码协议 </s>
-0.3010 <s> 密码学基础 </s>
-0.3010 <s> 密码的基础学 </s>
-0.3010 <s> 对 </s>
-0.3010 <s> 尹璋琦 </s>
-0.3054 <s> 帕帕 </s>
-2.3054 <s> 帕帕 的
-0.3010 <s> 常秀英 </s>
-0.3010 <s> 廉茶铉 </s>
-0.3010 <s> 张静宁 </s>
-0.3010 <s> 徐佳 </s>
-0.3010 <s> 徐葳 </s>
-0.3010 <s> 德梅洛 </s>
-0.3010 <s> 怎么样 </s>
-0.3010 <s> 想 </s>
-0.3010 <s> 挖掘 </s>
-0.3010 <s> 操作系统 </s>
-0.3010 <s> 数据中心网络 </s>
-0.3010 <s> 数据库 </s>
-0.3010 <s> 时候 </s>
-0.3010 <s> 时间 </s>
-0.3010 <s> 是 </s>
-0.3010 <s> 是的 </s>
-0.3010 <s> 智能电网 </s>
-0.3010 <s> 曾坚阳 </s>
-0.3010 <s> 有 </s>
-0.3010 <s> 朱利欧 </s>
-0.3010 <s> 朱诗亮 </s>
-0.3010 <s> 机制设计 </s>
-0.3010 <s> 机器学习 </s>
-0.3010 <s> 机器翻译 </s>
-0.3096 <s> 李建 </s>
-2.0086 <s> 李建 的
-0.3010 <s> 李志远 </s>
-0.3010 <s> 杨升浩 </s>
-0.3010 <s> 杰拉尔 </s>
-0.3010 <s> 楊偉豪 </s>
-0.3010 <s> 没有 </s>
-0.3010 <s> 清华学堂 </s>
-0.3010 <s> 清华学堂102 </s>
-0.3010 <s> 清华学堂112 </s>
-0.3010 <s> 清华学堂117 </s>
-0.3010 <s> 温子刚 </s>
-0.3010 <s> 激子动力学 </s>
-0.3010 <s> 物理学基本问题 </s>
-0.3010 <s> 王子贺 </s>
-0.3010 <s> 王永才 </s>
-0.3137 <s> 王立威 </s>
-1.8409 <s> 王立威 的
-0.3010 <s> 王跃宣 </s>
-0.3010 <s> 电子商务 </s>
-0.3010 <s> 的 </s>
-0.3010 <s> 目标 </s>
-0.3010 <s> 研究方向 </s>
-0.3010 <s> 程设 </s>
-0.3010 <s> 算了 </s>
-0.3010 <s> 算了吧 </s>
-0.3010 <s> 算法分析 </s>
-0.3010 <s> 算法设计 </s>
-0.3010 <s> 算法设计与分析 </s>
-0.3010 <s> 系统监控与调试 </s>
-0.3010 <s> 统计力学 </s>
-0.3010 <s> 网络科学 </s>
-0.3010 <s> 网络编码 </s>
-0.3010 <s> 翁文康 </s>
-0.3010 <s> 胡事民 </s>
-0.3010 <s> 自然语言 </s>
-0.3010 <s> 自然语言处理 </s>
-0.3010 <s> 计入门 </s>
-0.3010 <s> 计算复杂性 </s>
-0.3010 <s> 计算学习理论 </s>
-0.3010 <s> 计算机入门 </s>
-0.3010 <s> 计算机图形学 </s>
-0.3010 <s> 计算机应用数学 </s>
-0.3010 <s> 计算理论 </s>
-0.3010 <s> 计算生物学 </s>
-0.3010 <s> 计算经济学 </s>
-0.3010 <s> 许荣 </s>
-0.3010 <s> 论证复杂性 </s>
-0.3139 <s> 请问 </s>
-2.3139 <s> 请问 帕帕
-2.3139 <s> 请问 李建
-2.3139 <s> 请问 王立威
-0.3010 <s> 课 </s>
-0.3010 <s> 课程 </s>
-0.3010 <s> 谁 </s>
-0.7782 <s> 谁是 帕帕
-0.7782 <s> 谁是 李建
-0.7782 <s> 谁是 王立威
-0.3010 <s> 谈亦东 </s>
-0.3010 <s> 谢谢 </s>
-0.3010 <s> 通讯复杂性 </s>
-0.3010 <s> 逻辑和组合论 </s>
-0.3010 <s> 郑波 </s>
-0.3010 <s> 量子信息 </s>
-0.3010 <s> 量子信息理论 </s>
-0.3010 <s> 量子信息科学 </s>
-0.3010 <s> 量子光学 </s>
-0.3010 <s> 量子多体理论 </s>
-0.3010 <s> 量子计算 </s>
-0.3010 <s> 金奇奂 </s>
-0.3010 <s> 陈卫 </s>
-0.3010 <s> 陈渝 </s>
-0.3010 <s> 随机学习 </s>
-0.3010 <s> 随机网络优化 </s>
-0.3010 <s> 顾麦然 </s>
-0.3010 <s> 马雄峰 </s>
-0.3010 <s> 黄隆波 </s>
-0.3010 <s> ？ </s>
-0.3010 上课 时间 是
-0.3010 交叉信息院 是 什么
-0.6021 交叉信息院 的 目标
-0.6021 交叉信息院 的 研究方向
-0.3010 什么 时候 ？
-0.3010 什么 是 姚班
-0.3010 什么 ？ </s>
-0.3010 伯利克利 的 算法设计
-0.3010 哪些 ？ </s>
-0.3010 姚期智 的 计算机入门
-0.3010 姚班 的 课程
-0.3010 帕帕 是谁 ？
-0.3010 帕帕 的 算法设计
-0.3010 帕帕 ？ </s>
-0.3010 怎么样 ？ </s>
-0.3010 时候 ？ </s>
-0.3010 时间 是 什么
-0.7782 是 什么 时候
-0.4771 是 什么 ？
-0.3010 是 姚班 </s>
-0.3010 是谁 ？ </s>
-0.3010 有 哪些 ？
-0.3010 李建 是谁 ？
-0.6021 李建 的 课
-0.6021 李建 的 课程
-0.3010 李建 ？ </s>
-0.3010 王立威 是谁 ？
-0.7782 王立威 的 机器学习
-0.7782 王立威 的 课
-0.7782 王立威 的 课程
-0.3010 王立威 ？ </s>
-0.3010 的 机器学习 </s>
-0.3010 的 目标 是
-0.3010 的 研究方向 有
-0.3010 的 算法设计 </s>
-0.3010 的 计算机入门 上课
-0.3010 的 课 怎么样
-0.4771 的 课程 怎么样
-0.7782 的 课程 有哪些
-0.3010 目标 是 什么
-0.3010 研究方向 有 哪些
-0.3010 计算机入门 上课 时间
-0.3010 请问 帕帕 是谁
-0.3010 请问 李建 是谁
-0.3010 请问 王立威 是谁
-0.3010 课 怎么样 ？
-0.3010 课程 怎么样 ？
-0.3010 课程 有哪些 </s>
-0.3010 谁是 帕帕 ？
-0.3010 谁是 李建 ？
-0.3010 谁是 王立威 ？

\end\
