Language model created by QuickLM on Thu Jan  9 12:13:57 EST 2014
Copyright (c) 1996-2000
Carnegie Mellon University and Alexander I. Rudnicky

This model based on a corpus of 20563 sentences and 1311 words
The (fixed) discount mass is 0.5


\data\
ngram 1=1311
ngram 2=2651
ngram 3=1358

\1-grams:
-0.7785 </s> -0.3010
-0.7785 <s> -0.2217
-3.0916 ? -0.2219
-4.3135 一 -0.2219
-4.7906 一个 -0.2219
-4.7906 一些 -0.2219
-4.7906 一份 -0.2219
-5.0916 一并 -0.2219
-5.0916 一律 -0.2219
-5.0916 一种 -0.2219
-5.0916 一等奖 -0.2219
-5.0916 一经 -0.2219
-5.0916 一致性 -0.2219
-4.7906 一般 -0.2219
-5.0916 一门 -0.2219
-4.3135 三 -0.2219
-5.0916 三名 -0.2219
-5.0916 三学 -0.2219
-4.7906 三年 -0.2219
-5.0916 三种 -0.2219
-4.1374 上 -0.2219
-5.0916 上个世纪 -0.2219
-4.6145 上午 -0.2219
-4.7906 上报 -0.2219
-3.6145 上海 -0.2219
-5.0916 上网 -0.2219
-3.0873 上课 -0.2215
-4.7906 上述 -0.2219
-4.6145 下午 -0.2219
-5.0916 下发 -0.2219
-4.4895 下载 -0.2219
-5.0916 下达 -0.2219
-3.7299 不 -0.2219
-4.7906 不予 -0.2219
-4.4895 不及格 -0.2219
-4.7906 不合格者 -0.2219
-5.0916 不同 -0.2219
-4.6145 不少 -0.2219
-5.0916 不得 -0.2219
-5.0916 不拘一格 -0.2219
-5.0916 不算 -0.2219
-4.6145 不能 -0.2219
-3.3135 与 -0.2219
-5.0916 与否 -0.2219
-3.9155 专业 -0.2219
-5.0916 专业学位 -0.2219
-5.0916 专业知识 -0.2219
-4.7906 专长 -0.2219
-4.1374 且 -0.2219
-4.7906 业务 -0.2219
-4.7906 两个 -0.2219
-4.6145 严格 -0.2219
-4.0124 严马 -0.2219
-4.7906 个 -0.2219
-4.6145 个人 -0.2219
-5.0916 个人信息 -0.2219
-4.7906 个人简历 -0.2219
-4.1374 中 -0.2219
-4.6145 中国 -0.2219
-5.0916 中国物理学会 -0.2219
-4.6145 中国科学院 -0.2219
-4.7906 中心 -0.2219
-1.7498 中文 -0.2219
-5.0916 中有 -0.2219
-3.6145 中科大 -0.2219
-5.0916 中组部 -0.2219
-5.0916 中长期 -0.2219
-3.7114 丹麦 -0.2219
-4.2465 为 -0.2219
-4.7906 主任 -0.2219
-4.4895 主要 -0.2219
-5.0916 主页 -0.2219
-3.5601 举办 -0.2219
-5.0916 之 -0.2219
-5.0916 之一 -0.2219
-4.7906 之内 -0.2219
-5.0916 之前 -0.2219
-5.0916 之后 -0.2219
-5.0916 之日 -0.2219
-4.7906 乔友明 -0.2219
-5.0916 也 -0.2219
-3.0916 习题课 -0.2219
-4.6145 书面 -0.2219
-5.0916 书面材料 -0.2219
-4.3926 了 -0.2219
-5.0916 了解 -0.2219
-5.0916 予以 -0.2219
-4.3135 二 -0.2219
-4.7906 二次 -0.2219
-5.0916 二等奖 -0.2219
-4.2465 于 -0.2219
-3.0916 云计算 -0.2219
-5.0916 五 -0.2219
-5.0916 交 -0.2219
-3.1725 交叉 -0.2219
-3.0788 交叉信息院 -0.2210
-5.0916 交换 -0.2219
-5.0916 亦然 -0.2219
-5.0916 亲自 -0.2219
-4.7906 人们 -0.2219
-4.4895 人员 -0.2219
-3.0916 人工智能 -0.2219
-3.0788 什么 -0.2210
-5.0916 仅指 -0.2219
-5.0916 仅限 -0.2219
-5.0916 仇丽媛 -0.2219
-5.0916 介绍 -0.2219
-4.7906 从 -0.2219
-4.7906 从事 -0.2219
-4.6145 他 -0.2219
-5.0916 他人 -0.2219
-4.3135 付荣 -0.2219
-4.7906 以 -0.2219
-4.1885 以上 -0.2219
-4.4895 以下 -0.2219
-4.1374 以及 -0.2219
-4.7906 以后 -0.2219
-5.0916 以色 -0.2219
-3.9155 以色列 -0.2219
-5.0916 任 -0.2219
-4.7906 任何 -0.2219
-4.7906 任课教师 -0.2219
-5.0916 优化 -0.2219
-5.0916 优异者 -0.2219
-3.4895 优秀 -0.2219
-5.0916 优秀教师 -0.2219
-5.0916 优良 -0.2219
-3.8363 会议 -0.2219
-4.7906 传感器 -0.2219
-5.0916 传统 -0.2219
-4.7906 传输 -0.2219
-3.0916 伯里克利 -0.2219
-4.6145 但 -0.2219
-5.0916 低 -0.2219
-4.6145 低于 -0.2219
-4.6145 体 -0.2219
-4.7906 体及 -0.2219
-4.7906 体检 -0.2219
-3.0916 何丽 -0.2219
-5.0916 何利奖 -0.2219
-5.0916 何昊青 -0.2219
-5.0916 何梁 -0.2219
-5.0916 作为 -0.2219
-5.0916 作弊 -0.2219
-5.0916 作答 -0.2219
-4.1374 侯攀宇 -0.2219
-5.0916 便于 -0.2219
-5.0916 保证质量 -0.2219
-3.0788 信息 -0.2219
-5.0916 信息安全 -0.2219
-5.0916 信息技术 -0.2219
-3.0916 信息理论 -0.2219
-5.0916 做 -0.2219
-5.0916 做到 -0.2219
-5.0916 傅昊 -0.2219
-5.0916 元熙 -0.2219
-5.0916 先进 -0.2219
-5.0916 光 -0.2219
-5.0916 光学 -0.2219
-5.0916 光纤 -0.2219
-4.3926 克隆 -0.2219
-3.5353 免试 -0.2219
-5.0916 免试生 -0.2219
-4.7906 入学 -0.2219
-4.3926 入学考试 -0.2219
-5.0916 入选 -0.2219
-4.6145 全 -0.2219
-4.3926 全国 -0.2219
-5.0916 全新 -0.2219
-4.7906 全部 -0.2219
-4.4895 全面 -0.2219
-5.0916 八十年代 -0.2219
-4.0124 公司 -0.2219
-4.7906 公告 -0.2219
-5.0916 公布 -0.2219
-4.7906 公平 -0.2219
-4.7906 公开 -0.2219
-5.0916 公式 -0.2219
-4.7906 公正 -0.2219
-3.8875 公示 -0.2219
-5.0916 公里 -0.2219
-4.7906 关于 -0.2219
-5.0916 关注 -0.2219
-5.0916 关键部件 -0.2219
-4.4895 兴趣 -0.2219
-5.0916 其 -0.2219
-5.0916 其中 -0.2219
-4.6145 其他 -0.2219
-4.6145 具体 -0.2219
-5.0916 具体情况 -0.2219
-5.0916 具名 -0.2219
-5.0916 具备 -0.2219
-4.6145 具有 -0.2219
-5.0916 兼职 -0.2219
-3.0916 兼职教授 -0.2219
-4.2465 内 -0.2219
-4.0502 内容 -0.2219
-5.0916 再 -0.2219
-5.0916 军官证 -0.2219
-5.0916 军界 -0.2219
-3.0916 冯建华 -0.2219
-5.0916 决定 -0.2219
-3.0916 冷 -0.2219
-4.6145 准备 -0.2219
-4.7906 准考证 -0.2219
-3.0916 凝聚态物理 -0.2219
-5.0916 几十年 -0.2219
-4.6145 凡 -0.2219
-4.7906 凡未 -0.2219
-5.0916 凸显 -0.2219
-5.0916 出 -0.2219
-4.7906 出国 -0.2219
-5.0916 出版 -0.2219
-4.3926 出现 -0.2219
-4.4895 出示 -0.2219
-5.0916 出较 -0.2219
-4.3926 分 -0.2219
-5.0916 分别 -0.2219
-4.1885 分发 -0.2219
-5.0916 分后 -0.2219
-3.0916 分布式系统 -0.2219
-3.0916 分布式计算 -0.2219
-5.0916 分数 -0.2219
-5.0916 分析 -0.2219
-5.0916 分校 -0.2219
-5.0916 分者 -0.2219
-4.4895 分钟 -0.2219
-5.0916 刊物 -0.2219
-3.9455 刘可 -0.2219
-4.4895 刘宇 -0.2219
-5.0916 刘思学 -0.2219
-5.0916 刘政哲 -0.2219
-5.0916 刘智伟 -0.2219
-5.0916 刘艺成 -0.2219
-4.7906 则 -0.2219
-4.3135 刚 -0.2219
-5.0916 创 -0.2219
-4.3926 创新 -0.2219
-5.0916 创新能力 -0.2219
-4.4895 初探 -0.2219
-5.0916 初试 -0.2219
-4.0502 初选 -0.2219
-4.7906 到 -0.2219
-5.0916 制定 -0.2219
-3.9455 前 -0.2219
-5.0916 前沿 -0.2219
-4.7906 副研究员 -0.2219
-5.0916 剽窃 -0.2219
-4.4895 办 -0.2219
-4.7906 办公 -0.2219
-4.3926 办公室 -0.2219
-4.7906 办对 -0.2219
-3.9455 办法 -0.2219
-5.0916 办理 -0.2219
-5.0916 加以 -0.2219
-5.0916 加入 -0.2219
-5.0916 加强 -0.2219
-3.2721 加拿大 -0.2219
-5.0916 加盖 -0.2219
-5.0916 加试 -0.2219
-4.7906 助教 -0.2219
-4.1885 助理 -0.2219
-3.0916 助理教授 -0.2219
-3.0916 助理研究员 -0.2219
-4.2465 勒布 -0.2219
-4.7906 包含 -0.2219
-4.3135 包括 -0.2219
-5.0916 北京大学 -0.2219
-5.0916 区 -0.2219
-5.0916 千人 -0.2219
-5.0916 华 -0.2219
-3.0916 华强胜 -0.2219
-5.0916 协会 -0.2219
-5.0916 协商 -0.2219
-5.0916 卓越 -0.2219
-4.7906 单 -0.2219
-5.0916 单位 -0.2219
-5.0916 单向 -0.2219
-5.0916 单证 -0.2219
-5.0916 南加州 -0.2219
-3.5234 博士 -0.2219
-5.0916 博士后 -0.2219
-5.0916 博士学位 -0.2219
-4.3135 博士生 -0.2219
-5.0916 博士论文 -0.2219
-5.0916 博导 -0.2219
-3.0916 博弈论 -0.2219
-5.0916 卡斯 -0.2219
-4.2465 卡斯特 -0.2219
-4.6145 即 -0.2219
-3.0916 压缩感知 -0.2219
-4.3135 原件 -0.2219
-4.6145 原则 -0.2219
-3.0916 原子物理 -0.2219
-4.3926 原理 -0.2219
-4.7906 去掉 -0.2219
-4.7906 参与 -0.2219
-4.3926 参加 -0.2219
-4.7906 参照 -0.2219
-5.0916 参考 -0.2219
-4.7906 参见 -0.2219
-3.6444 及 -0.2219
-4.6145 及其 -0.2219
-4.7906 及格 -0.2219
-5.0916 及限选 -0.2219
-5.0916 双证 -0.2219
-5.0916 反映 -0.2219
-5.0916 发展 -0.2219
-5.0916 发展潜力 -0.2219
-5.0916 发明 -0.2219
-5.0916 发现 -0.2219
-4.4895 发表 -0.2219
-5.0916 发送至 -0.2219
-5.0916 取 -0.2219
-4.3135 取得 -0.2219
-4.7906 取消 -0.2219
-4.7906 受 -0.2219
-4.7906 受到 -0.2219
-5.0916 另发 -0.2219
-5.0916 另外 -0.2219
-5.0916 另行通知 -0.2219
-5.0916 只 -0.2219
-4.7906 只能 -0.2219
-5.0916 召开 -0.2219
-3.8363 可 -0.2219
-5.0916 可不 -0.2219
-4.6145 可以 -0.2219
-5.0916 右上角 -0.2219
-5.0916 号 -0.2219
-4.7906 各 -0.2219
-4.7906 各位 -0.2219
-4.7906 各类 -0.2219
-4.1885 合格 -0.2219
-4.7906 同学 -0.2219
-4.6145 同时 -0.2219
-4.4895 同等学力 -0.2219
-4.4895 名 -0.2219
-4.3135 名单 -0.2219
-4.6145 名额 -0.2219
-4.0916 后 -0.2219
-5.0916 后果 -0.2219
-5.0916 向 -0.2219
-4.3926 向勇 -0.2219
-4.0124 吕定 -0.2219
-4.3926 吕曰洲 -0.2219
-4.6145 含 -0.2219
-3.0916 吴建平 -0.2219
-4.3135 吴成 -0.2219
-3.0916 吴浩铮 -0.2219
-4.4895 吴辰晔 -0.2219
-5.0916 周一 -0.2219
-5.0916 周三 -0.2219
-5.0916 周二 -0.2219
-5.0916 周五 -0.2219
-5.0916 周四 -0.2219
-4.3135 周忠军 -0.2219
-4.3135 周梦宇 -0.2219
-5.0916 周泓伊 -0.2219
-5.0916 周游 -0.2219
-5.0916 命名 -0.2219
-3.4788 和 -0.2219
-4.7906 咨询 -0.2219
-5.0916 咨询电话 -0.2219
-5.0916 品行 -0.2219
-5.0916 哈希 -0.2219
-3.0873 哪些 -0.2214
-5.0916 唐平 -0.2219
-3.0916 唐平中 -0.2219
-4.4895 唐邦晟 -0.2219
-5.0916 商业 -0.2219
-4.7906 商用 -0.2219
-4.4895 四 -0.2219
-4.7906 四年级 -0.2219
-5.0916 回答 -0.2219
-5.0916 因 -0.2219
-5.0916 因而 -0.2219
-4.7906 困难 -0.2219
-5.0916 国内外 -0.2219
-5.0916 国外 -0.2219
-4.4895 国家 -0.2219
-4.7906 国家科技部 -0.2219
-5.0916 国计民生 -0.2219
-4.1885 国际 -0.2219
-3.0916 图形学 -0.2219
-5.0916 图灵 -0.2219
-3.5865 在 -0.2219
-3.0916 在线学习与优化 -0.2219
-5.0916 在职 -0.2219
-4.7906 在职人员 -0.2219
-5.0916 在读 -0.2219
-5.0916 地址 -0.2219
-4.1374 地点 -0.2219
-5.0916 场合 -0.2219
-4.3926 均 -0.2219
-5.0916 坑易澎 -0.2219
-4.7906 坚持 -0.2219
-4.7906 坚阳 -0.2219
-4.6145 培养 -0.2219
-4.6145 基 -0.2219
-4.7906 基本 -0.2219
-5.0916 基础 -0.2219
-4.7906 基础知识 -0.2219
-5.0916 基金委 -0.2219
-4.4895 填写 -0.2219
-5.0916 填报 -0.2219
-4.6145 填表 -0.2219
-5.0916 境外 -0.2219
-4.7906 处分 -0.2219
-4.7906 处理 -0.2219
-5.0916 处理器 -0.2219
-5.0916 备查 -0.2219
-4.4895 复印件 -0.2219
-4.3926 复审 -0.2219
-5.0916 复杂 -0.2219
-3.0916 复试 -0.2219
-3.5118 夏令营 -0.2219
-5.0916 夏庆堂 -0.2219
-4.7906 外 -0.2219
-4.6145 外校 -0.2219
-5.0916 外语水平 -0.2219
-4.6145 多 -0.2219
-3.0916 多主体系统 -0.2219
-4.6145 多功能厅 -0.2219
-5.0916 多篇 -0.2219
-4.7906 大 -0.2219
-3.4014 大学 -0.2219
-5.0916 大学教授 -0.2219
-3.5118 大学生 -0.2219
-3.0916 大数据 -0.2219
-5.0916 天一 -0.2219
-5.0916 失效 -0.2219
-5.0916 奂 -0.2219
-4.6145 奖 -0.2219
-5.0916 奖励 -0.2219
-4.0502 女 -0.2219
-3.0916 好 -0.2219
-3.0916 好的 -0.2219
-4.0502 如 -0.2219
-4.4895 如下 -0.2219
-5.0916 妥存 -0.2219
-4.4895 姓名 -0.2219
-4.7906 委员会 -0.2219
-5.0916 姚 -0.2219
-5.0916 姚兆明 -0.2219
-3.0873 姚期智 -0.2215
-3.9777 姚班 -0.2219
-5.0916 子 -0.2219
-5.0916 孙晓明 -0.2219
-5.0916 孙麓 -0.2219
-3.0916 孙麓岩 -0.2219
-5.0916 学 -0.2219
-4.6145 学习 -0.2219
-5.0916 学习成绩 -0.2219
-5.0916 学会 -0.2219
-5.0916 学位 -0.2219
-4.7906 学位证 -0.2219
-5.0916 学位证书 -0.2219
-4.3135 学分 -0.2219
-4.7906 学历 -0.2219
-5.0916 学士 -0.2219
-5.0916 学士学位 -0.2219
-4.3135 学期 -0.2219
-5.0916 学期末 -0.2219
-3.7694 学术 -0.2219
-5.0916 学术会议 -0.2219
-5.0916 学术期刊 -0.2219
-5.0916 学术论文 -0.2219
-4.6145 学校 -0.2219
-3.6292 学生 -0.2219
-4.4895 学生名单 -0.2219
-4.7906 学生证 -0.2219
-5.0916 学界 -0.2219
-3.4482 学科 -0.2219
-5.0916 学科专业 -0.2219
-4.6145 学籍 -0.2219
-4.7906 学院 -0.2219
-5.0916 学风 -0.2219
-5.0916 宁缺勿滥 -0.2219
-5.0916 守信 -0.2219
-3.0916 安徽 -0.2219
-4.7906 安徽省 -0.2219
-4.3135 安排 -0.2219
-5.0916 安波 -0.2219
-4.1885 安硕明 -0.2219
-3.0916 宋祎璞 -0.2219
-4.7906 完成 -0.2219
-5.0916 完成学业 -0.2219
-4.7906 实施办法 -0.2219
-4.3135 实现 -0.2219
-4.3926 实践 -0.2219
-4.4895 实验 -0.2219
-4.1885 实验室 -0.2219
-4.6145 实验班 -0.2219
-3.9455 审查 -0.2219
-4.7906 审核 -0.2219
-5.0916 审稿人 -0.2219
-4.7906 室 -0.2219
-5.0916 密码 -0.2219
-3.0916 密码协议 -0.2219
-3.8875 密码学 -0.2219
-3.0916 密码学基础 -0.2219
-3.0916 密码的基础学 -0.2219
-4.3135 密苏里 -0.2219
-4.6145 密钥 -0.2219
-3.8612 对 -0.2219
-5.0916 对于 -0.2219
-5.0916 对原 -0.2219
-4.7906 导师 -0.2219
-4.2465 将 -0.2219
-5.0916 小于 -0.2219
-4.0916 小组 -0.2219
-5.0916 小组会议 -0.2219
-5.0916 尚未 -0.2219
-5.0916 就是 -0.2219
-4.4895 尹璋 -0.2219
-3.0916 尹璋琦 -0.2219
-5.0916 尹璋琪 -0.2219
-5.0916 居民身份证 -0.2219
-5.0916 属于 -0.2219
-5.0916 履行 -0.2219
-5.0916 岩 -0.2219
-4.1374 工作 -0.2219
-4.7906 工作日 -0.2219
-5.0916 工作者 -0.2219
-5.0916 左斌 -0.2219
-5.0916 左淞 -0.2219
-5.0916 巨大 -0.2219
-5.0916 巩慧超 -0.2219
-4.3135 已 -0.2219
-4.4895 已修 -0.2219
-4.6145 已经 -0.2219
-4.1885 巴黎 -0.2219
-4.1885 师范学校 -0.2219
-5.0916 希望 -0.2219
-3.0830 帕帕 -0.2214
-5.0916 带 -0.2219
-5.0916 带头人 -0.2219
-5.0916 常 -0.2219
-5.0916 常炜 -0.2219
-3.0916 常秀英 -0.2219
-5.0916 干部 -0.2219
-4.7906 平均 -0.2219
-4.7906 平均分 -0.2219
-5.0916 平时 -0.2219
-3.1471 年 -0.2219
-5.0916 年会 -0.2219
-4.1885 并 -0.2219
-4.7906 序号 -0.2219
-4.7906 应 -0.2219
-5.0916 应对 -0.2219
-4.4895 应届 -0.2219
-5.0916 应届生 -0.2219
-5.0916 应用 -0.2219
-3.0916 廉茶铉 -0.2219
-5.0916 延庆 -0.2219
-5.0916 开 -0.2219
-5.0916 开具 -0.2219
-4.7906 开始 -0.2219
-5.0916 异议 -0.2219
-5.0916 引发 -0.2219
-4.1885 张 -0.2219
-5.0916 张伯威 -0.2219
-3.9777 张君华 -0.2219
-5.0916 张宽 -0.2219
-5.0916 张帅宁 -0.2219
-3.6766 张振 -0.2219
-4.6145 张捷 -0.2219
-5.0916 张文纲 -0.2219
-5.0916 张昆玮 -0.2219
-5.0916 张炀 -0.2219
-3.9777 张翔 -0.2219
-5.0916 张贴 -0.2219
-5.0916 张赛 -0.2219
-3.0916 张静宁 -0.2219
-5.0916 强 -0.2219
-5.0916 强胜 -0.2219
-5.0916 当前 -0.2219
-5.0916 当时 -0.2219
-3.8612 录取 -0.2219
-3.7492 录取名单 -0.2219
-4.7906 形式 -0.2219
-5.0916 彭 -0.2219
-5.0916 影响 -0.2219
-5.0916 待 -0.2219
-5.0916 徇私舞弊 -0.2219
-3.0873 徐佳 -0.2219
-5.0916 徐源 -0.2219
-5.0916 徐熙炜 -0.2219
-3.0916 徐葳 -0.2219
-5.0916 微腔 -0.2219
-4.7906 德智体 -0.2219
-3.0916 德梅洛 -0.2219
-4.3926 必修 -0.2219
-5.0916 必将 -0.2219
-4.3926 必须 -0.2219
-4.6145 志愿 -0.2219
-5.0916 快递 -0.2219
-3.0746 怎么样 -0.2214
-4.7906 思想 -0.2219
-4.6145 性别 -0.2219
-5.0916 总 -0.2219
-5.0916 总分 -0.2219
-5.0916 总学 -0.2219
-5.0916 总成绩 -0.2219
-5.0916 总数 -0.2219
-4.6145 情况 -0.2219
-5.0916 愈发 -0.2219
-4.0124 意大利 -0.2219
-5.0916 意见 -0.2219
-5.0916 意识 -0.2219
-5.0916 成 -0.2219
-4.7906 成为 -0.2219
-5.0916 成功 -0.2219
-4.3926 成员 -0.2219
-5.0916 成就奖 -0.2219
-5.0916 成果 -0.2219
-5.0916 成立 -0.2219
-3.5353 成绩 -0.2219
-4.1885 成绩单 -0.2219
-4.3926 成绩排名 -0.2219
-4.1885 成都 -0.2219
-4.0502 我院 -0.2219
-3.7694 或 -0.2219
-4.4895 戚啸 -0.2219
-5.0916 戴 -0.2219
-5.0916 房智轩 -0.2219
-4.3926 所 -0.2219
-4.7906 所在 -0.2219
-4.6145 所有 -0.2219
-4.7906 所谓 -0.2219
-5.0916 手续 -0.2219
-5.0916 才能 -0.2219
-5.0916 打包 -0.2219
-5.0916 打印 -0.2219
-5.0916 执行 -0.2219
-4.7906 承认 -0.2219
-5.0916 承诺 -0.2219
-3.3208 技术 -0.2219
-4.7906 抓紧时间 -0.2219
-5.0916 护照 -0.2219
-5.0916 报 -0.2219
-3.6937 报名 -0.2219
-5.0916 报名处 -0.2219
-4.2465 报名表 -0.2219
-4.7906 报告 -0.2219
-4.3926 报考 -0.2219
-5.0916 抯 -0.2219
-5.0916 抰 -0.2219
-4.7906 担任 -0.2219
-4.3926 招收 -0.2219
-3.8363 招生 -0.2219
-4.3135 招生简章 -0.2219
-3.7299 拟 -0.2219
-5.0916 择优 -0.2219
-4.7906 择优录取 -0.2219
-4.7906 拿 -0.2219
-5.0916 指导思想 -0.2219
-5.0916 指导老师 -0.2219
-4.3135 按 -0.2219
-4.4895 按照 -0.2219
-3.0916 挖掘 -0.2219
-5.0916 掌握情况 -0.2219
-4.3926 排名 -0.2219
-5.0916 接收 -0.2219
-4.7906 推免 -0.2219
-5.0916 推博 -0.2219
-5.0916 推导 -0.2219
-4.6145 推研 -0.2219
-5.0916 推硕 -0.2219
-3.5118 推荐 -0.2219
-4.7906 推荐信 -0.2219
-4.3926 提交 -0.2219
-4.4895 提供 -0.2219
-4.3926 提出 -0.2219
-5.0916 提前 -0.2219
-4.6145 提问 -0.2219
-4.7906 携带 -0.2219
-4.7906 摩尔 -0.2219
-5.0916 操作 -0.2219
-3.0916 操作系统 -0.2219
-4.7906 攻读 -0.2219
-5.0916 放宽 -0.2219
-4.7906 政治 -0.2219
-5.0916 政治素质 -0.2219
-5.0916 政界 -0.2219
-5.0916 效率 -0.2219
-4.1885 教务 -0.2219
-4.4895 教学 -0.2219
-3.8875 教授 -0.2219
-5.0916 教研组 -0.2219
-4.7906 教育 -0.2219
-4.6145 教育部 -0.2219
-3.0916 数据中心网络 -0.2219
-3.0916 数据库 -0.2219
-5.0916 数据结构 -0.2219
-5.0916 文件 -0.2219
-5.0916 文化 -0.2219
-5.0916 文康 -0.2219
-5.0916 文职 -0.2219
-5.0916 新 -0.2219
-5.0916 新型 -0.2219
-4.1885 新星 -0.2219
-5.0916 方兴未艾 -0.2219
-5.0916 方可 -0.2219
-4.1885 方向 -0.2219
-4.6145 方式 -0.2219
-5.0916 方案 -0.2219
-5.0916 方雯逸 -0.2219
-4.6145 方面 -0.2219
-5.0916 无 -0.2219
-4.7906 无线 -0.2219
-4.2465 日 -0.2219
-5.0916 日前 -0.2219
-4.0124 日本 -0.2219
-5.0916 日程 -0.2219
-4.7906 时 -0.2219
-4.7906 时代 -0.2219
-3.0873 时候 -0.2214
-3.0873 时间 -0.2215
-5.0916 时须 -0.2219
-4.7906 星期二 -0.2219
-5.0916 星期五 -0.2219
-4.7906 春季 -0.2219
-3.0788 是 -0.2215
-4.6145 是谁 -0.3006
-5.0916 普博 -0.2219
-4.7906 普博生 -0.2219
-4.2465 智能 -0.2219
-3.0916 智能电网 -0.2219
-5.0916 暂 -0.2219
-5.0916 曹玮 -0.2219
-3.8129 曹竹 -0.2219
-4.6145 曾 -0.2219
-3.0916 曾坚阳 -0.2219
-5.0916 曾经 -0.2219
-5.0916 曾驭 -0.2219
-5.0916 最低 -0.2219
-5.0916 最佳 -0.2219
-5.0916 最大 -0.2219
-5.0916 最终 -0.2219
-5.0916 最迟 -0.2219
-5.0916 最高分 -0.2219
-4.0916 月 -0.2219
-3.0873 有 -0.2215
-4.3926 有关 -0.2219
-4.6145 有效 -0.2219
-5.0916 有望 -0.2219
-5.0916 有近 -0.2219
-5.0916 服务中心 -0.2219
-5.0916 期 -0.2219
-5.0916 期为 -0.2219
-4.7906 期刊 -0.2219
-4.7906 期间 -0.2219
-4.3926 未 -0.2219
-5.0916 未受 -0.2219
-4.3926 本 -0.2219
-4.3135 本人 -0.2219
-5.0916 本次 -0.2219
-4.3135 本科 -0.2219
-3.8875 本科生 -0.2219
-3.0916 朱利欧 -0.2219
-3.0916 朱诗亮 -0.2219
-4.7906 机 -0.2219
-3.0916 机制设计 -0.2219
-5.0916 机和普 -0.2219
-5.0916 机器 -0.2219
-3.0916 机器学习 -0.2219
-3.0916 机器翻译 -0.2219
-5.0916 李 -0.2219
-5.0916 李孚 -0.2219
-3.0746 李建 -0.2210
-5.0916 李志泽 -0.2219
-3.0916 李志远 -0.2219
-5.0916 李昕泽 -0.2219
-4.6145 李瑞国 -0.2219
-4.3926 李艺 -0.2219
-4.1374 材料 -0.2219
-4.7906 条件 -0.2219
-5.0916 条款 -0.2219
-5.0916 来 -0.2219
-4.3135 杨光 -0.2219
-3.0916 杨升浩 -0.2219
-4.1374 杨宇翔 -0.2219
-5.0916 杨程然 -0.2219
-5.0916 杨菁林 -0.2219
-4.3926 杨蒿翔 -0.2219
-5.0916 杰出 -0.2219
-3.0916 杰拉尔 -0.2219
-5.0916 极大 -0.2219
-5.0916 查出 -0.2219
-4.7906 标准 -0.2219
-5.0916 栏目 -0.2219
-5.0916 校内 -0.2219
-5.0916 校内外 -0.2219
-5.0916 校级 -0.2219
-5.0916 校纪 -0.2219
-5.0916 校规 -0.2219
-5.0916 核心 -0.2219
-4.7906 根据 -0.2219
-5.0916 格式 -0.2219
-4.7906 档案 -0.2219
-3.0916 楊偉豪 -0.2219
-3.8875 楼 -0.2219
-5.0916 概念 -0.2219
-4.6145 概率 -0.2219
-4.7906 模型 -0.2219
-5.0916 模式 -0.2219
-5.0916 次 -0.2219
-4.4895 次数 -0.2219
-5.0916 正式 -0.2219
-5.0916 此类 -0.2219
-4.7906 段 -0.2219
-5.0916 段路明 -0.2219
-5.0916 每个 -0.2219
-4.7906 每位 -0.2219
-5.0916 每生 -0.2219
-5.0916 每组 -0.2219
-5.0916 毕业 -0.2219
-4.7906 毕业生 -0.2219
-4.7906 毕业证 -0.2219
-4.7906 毕业证书 -0.2219
-3.8875 汪野 -0.2219
-5.0916 沈 -0.2219
-4.0124 沈杨超 -0.2219
-4.7906 沈穎祺 -0.2219
-3.0916 没有 -0.2219
-4.1885 法国 -0.2219
-4.4895 注 -0.2219
-5.0916 注意事项 -0.2219
-5.0916 注明 -0.2219
-5.0916 注重 -0.2219
-3.8363 洛阳 -0.2219
-5.0916 活动 -0.2219
-5.0916 流程 -0.2219
-4.6145 测评 -0.2219
-5.0916 海岸 -0.2219
-4.6145 海涛 -0.2219
-4.7906 涉及 -0.2219
-5.0916 淦 -0.2219
-5.0916 清华 -0.2219
-3.3840 清华大学 -0.2219
-3.0916 清华学堂 -0.2219
-3.0916 清华学堂102 -0.2219
-3.0916 清华学堂112 -0.2219
-3.0916 清华学堂117 -0.2219
-3.0916 温子刚 -0.2219
-5.0916 源于 -0.2219
-3.5865 滑铁卢 -0.2219
-5.0916 满分 -0.2219
-4.6145 满足 -0.2219
-5.0916 潘宇超 -0.2219
-4.7906 潜质 -0.2219
-3.0916 激子动力学 -0.2219
-4.0124 濮云飞 -0.2219
-5.0916 点 -0.2219
-4.4895 物理 -0.2219
-3.6766 物理学 -0.2219
-3.0916 物理学基本问题 -0.2219
-5.0916 物理学家 -0.2219
-5.0916 物理系 -0.2219
-5.0916 特 -0.2219
-4.7906 特别 -0.2219
-4.1885 特拉维夫 -0.2219
-4.7906 特殊 -0.2219
-5.0916 特长 -0.2219
-5.0916 独立 -0.2219
-5.0916 王国 -0.2219
-4.0916 王子 -0.2219
-3.0916 王子贺 -0.2219
-3.0916 王永才 -0.2219
-5.0916 王玮彬 -0.2219
-5.0916 王琳琳 -0.2219
-4.4895 王立威 -0.3002
-4.7906 王老师 -0.2219
-3.0916 王跃宣 -0.2219
-5.0916 王韦婷 -0.2219
-3.8363 王飞 -0.2219
-4.3926 环节 -0.2219
-4.6145 现 -0.2219
-4.7906 现场 -0.2219
-5.0916 现将 -0.2219
-5.0916 班招生 -0.2219
-4.4895 班级 -0.2219
-4.7906 理事 -0.2219
-4.2465 理工大学 -0.2219
-4.1885 理论 -0.2219
-4.4895 琦 -0.2219
-3.9455 生 -0.2219
-5.0916 生源 -0.2219
-5.0916 生物 -0.2219
-5.0916 生物学 -0.2219
-3.9455 田天 -0.2219
-4.2465 由 -0.2219
-5.0916 由于 -0.2219
-4.3926 由院 -0.2219
-3.9155 申请 -0.2219
-4.4895 申请人 -0.2219
-4.7906 申请者 -0.2219
-4.6145 申请表 -0.2219
-3.0916 电子商务 -0.2219
-4.7906 电子版 -0.2219
-4.7906 电话 -0.2219
-3.2721 男 -0.2219
-5.0916 畅通 -0.2219
-5.0916 界限 -0.2219
-5.0916 留学 -0.2219
-4.6145 登记表 -0.2219
-4.7906 登陆 -0.2219
-3.0622 的 -0.2198
-5.0916 监督 -0.2219
-5.0916 目前 -0.2219
-3.0873 目标 -0.2215
-3.5865 直博 -0.2219
-4.4895 直博生 -0.2219
-5.0916 直接 -0.2219
-4.1374 相关 -0.2219
-5.0916 相比 -0.2219
-5.0916 省 -0.2219
-5.0916 着重 -0.2219
-5.0916 研制 -0.2219
-5.0916 研制成功 -0.2219
-5.0916 研发 -0.2219
-5.0916 研招办 -0.2219
-4.0124 研究 -0.2219
-3.0873 研究方向 -0.2215
-3.5353 研究生 -0.2219
-3.5731 研究生院 -0.2219
-5.0916 研究进展 -0.2219
-3.4482 研究院 -0.2219
-4.7906 研讨 -0.2219
-4.0916 研讨会 -0.2219
-3.7299 硕士 -0.2219
-4.1374 硕士学位 -0.2219
-4.1885 硕士生 -0.2219
-5.0916 硕转博 -0.2219
-5.0916 确保 -0.2219
-4.7906 确定 -0.2219
-4.7906 确认 -0.2219
-5.0916 社会 -0.2219
-5.0916 社会工作 -0.2219
-3.8129 祖充 -0.2219
-5.0916 离子 -0.2219
-5.0916 离散数学 -0.2219
-5.0916 秀英 -0.2219
-5.0916 秋季 -0.2219
-5.0916 种 -0.2219
-4.2465 科学 -0.2219
-4.7906 科学家 -0.2219
-5.0916 科学技术 -0.2219
-5.0916 科学研究 -0.2219
-4.0502 科技 -0.2219
-5.0916 科技成果 -0.2219
-4.6145 科班 -0.2219
-4.3135 科目 -0.2219
-4.6145 科研 -0.2219
-5.0916 科研活动 -0.2219
-5.0916 称为 -0.2219
-4.6145 程序 -0.2219
-5.0916 程度 -0.2219
-3.0916 程设 -0.2219
-4.7906 稳定性 -0.2219
-4.6145 突出 -0.2219
-5.0916 竞赛 -0.2219
-5.0916 端口 -0.2219
-5.0916 端正 -0.2219
-4.4895 笔试 -0.2219
-4.6145 符合 -0.2219
-4.4895 第一 -0.2219
-3.0916 第七届 -0.2219
-3.8875 第三届 -0.2219
-5.0916 第二课堂 -0.2219
-5.0916 第八 -0.2219
-3.8875 等 -0.2219
-5.0916 答辩 -0.2219
-5.0916 简历 -0.2219
-5.0916 简称 -0.2219
-4.4895 算法 -0.2219
-3.0916 算法分析 -0.2219
-3.0916 算法设计 -0.2219
-3.0916 算法设计与分析 -0.2219
-5.0916 管理 -0.2219
-5.0916 篇 -0.2219
-4.6145 类别 -0.2219
-4.7906 精神 -0.2219
-4.3926 系统 -0.2219
-3.0916 系统监控与调试 -0.2219
-4.6145 素质 -0.2219
-4.7906 累计 -0.2219
-5.0916 红章 -0.2219
-3.0916 级 -0.2219
-5.0916 纸版 -0.2219
-4.6145 组 -0.2219
-5.0916 组内 -0.2219
-5.0916 组成 -0.2219
-4.7906 组织 -0.2219
-5.0916 终结 -0.2219
-4.6145 经 -0.2219
-5.0916 结合 -0.2219
-5.0916 结束 -0.2219
-5.0916 结构 -0.2219
-4.6145 结果 -0.2219
-5.0916 给出 -0.2219
-4.6145 统一 -0.2219
-5.0916 统招 -0.2219
-3.0916 统计力学 -0.2219
-4.6145 绩 -0.2219
-4.0916 综合 -0.2219
-5.0916 缓存 -0.2219
-4.7906 编码 -0.2219
-5.0916 编程 -0.2219
-5.0916 网上 -0.2219
-4.7906 网址 -0.2219
-4.4895 网站 -0.2219
-3.7114 网络 -0.2219
-3.0916 网络科学 -0.2219
-3.0916 网络编码 -0.2219
-4.7906 网页 -0.2219
-4.2465 罗塞尔 -0.2219
-5.0916 罗穗 -0.2219
-2.9581 美国 -0.2219
-5.0916 群体 -0.2219
-5.0916 翁 -0.2219
-3.0916 翁文康 -0.2219
-4.7906 老师 -0.2219
-5.0916 考场 -0.2219
-5.0916 考官 -0.2219
-4.6145 考察 -0.2219
-4.7906 考查 -0.2219
-3.8875 考核 -0.2219
-5.0916 考核办法 -0.2219
-3.9777 考生 -0.2219
-4.3926 考试 -0.2219
-5.0916 考试成绩 -0.2219
-3.9777 者 -0.2219
-4.7906 而 -0.2219
-5.0916 职称 -0.2219
-5.0916 联名 -0.2219
-5.0916 联系人 -0.2219
-4.7906 联系方式 -0.2219
-4.6145 联系电话 -0.2219
-5.0916 背景 -0.2219
-3.0916 胡事民 -0.2219
-5.0916 胡玲 -0.2219
-4.1374 能力 -0.2219
-5.0916 能力倾向 -0.2219
-5.0916 能够 -0.2219
-5.0916 自主 -0.2219
-5.0916 自动 -0.2219
-4.6145 自我介绍 -0.2219
-4.7906 自然科学 -0.2219
-3.0916 自然语言 -0.2219
-3.0916 自然语言处理 -0.2219
-4.7906 自负 -0.2219
-5.0916 自述 -0.2219
-4.6145 至 -0.2219
-4.0124 色心 -0.2219
-3.8363 芝加哥大学 -0.2219
-5.0916 苏宇晗 -0.2219
-5.0916 若 -0.2219
-4.3926 若干 -0.2219
-5.0916 若有 -0.2219
-4.1885 英国 -0.2219
-4.6145 英文 -0.2219
-4.7906 英语 -0.2219
-5.0916 英语水平 -0.2219
-5.0916 荣获 -0.2219
-5.0916 荣誉 -0.2219
-4.7906 获 -0.2219
-5.0916 获取 -0.2219
-4.1374 获得 -0.2219
-5.0916 著 -0.2219
-5.0916 著名 -0.2219
-5.0916 董宇茜 -0.2219
-5.0916 蒋楠 -0.2219
-5.0916 蒋译瑶 -0.2219
-4.6145 蒙民伟 -0.2219
-5.0916 蒲浩森 -0.2219
-5.0916 蔚然 -0.2219
-5.0916 蔡庆芃 -0.2219
-5.0916 薛潇 -0.2219
-4.7906 衡量 -0.2219
-5.0916 补考 -0.2219
-5.0916 表 -0.2219
-5.0916 表格 -0.2219
-4.6145 表现 -0.2219
-4.1885 袁 -0.2219
-3.0916 袁骁 -0.2219
-4.1885 被 -0.2219
-4.7906 要 -0.2219
-4.3135 要求 -0.2219
-5.0916 规划 -0.2219
-4.2465 规定 -0.2219
-4.7906 规范 -0.2219
-5.0916 视为 -0.2219
-5.0916 解决 -0.2219
-5.0916 解释 -0.2219
-5.0916 警卫队 -0.2219
-5.0916 计入 -0.2219
-3.0916 计入门 -0.2219
-4.4895 计划 -0.2219
-4.1885 计算 -0.2219
-3.0916 计算复杂性 -0.2219
-3.0916 计算学习理论 -0.2219
-3.5005 计算机 -0.2219
-3.0873 计算机入门 -0.2215
-3.0916 计算机应用数学 -0.2219
-3.2992 计算机科学 -0.2219
-3.0916 计算理论 -0.2219
-3.0916 计算生物学 -0.2219
-3.0916 计算经济学 -0.2219
-5.0916 认为 -0.2219
-4.7906 认证 -0.2219
-5.0916 认识 -0.2219
-5.0916 讨论 -0.2219
-3.8612 讨论会 -0.2219
-4.7906 训练 -0.2219
-4.7906 记录 -0.2219
-5.0916 记载 -0.2219
-4.1885 许力文 -0.2219
-3.0916 许荣 -0.2219
-5.0916 论 -0.2219
-4.3135 论文 -0.2219
-5.0916 论证 -0.2219
-3.0916 论证复杂性 -0.2219
-4.6145 设计 -0.2219
-5.0916 访问速度 -0.2219
-5.0916 证 -0.2219
-4.4895 证书 -0.2219
-5.0916 证件 -0.2219
-4.6145 证实 -0.2219
-5.0916 证明 -0.2219
-5.0916 评价 -0.2219
-4.6145 评分 -0.2219
-5.0916 评选 -0.2219
-5.0916 译 -0.2219
-5.0916 诚实 -0.2219
-5.0916 该 -0.2219
-5.0916 语言表达 -0.2219
-4.7906 说明 -0.2219
-4.1885 请 -0.2219
-5.0916 请于 -0.2219
-3.0788 请问 -0.2210
-3.0830 课 -0.2215
-5.0916 课外 -0.2219
-3.0830 课程 -0.2215
-5.0916 课表 -0.2219
-3.0916 谁 -0.2219
-4.6145 谁是 -0.3003
-5.0916 调控 -0.2219
-3.0916 谈亦东 -0.2219
-4.7906 负责 -0.2219
-5.0916 责任 -0.2219
-5.0916 质量 -0.2219
-4.0916 贺 -0.2219
-5.0916 贾永政 -0.2219
-3.5865 资格 -0.2219
-5.0916 资格考试 -0.2219
-5.0916 资源分配 -0.2219
-5.0916 赛 -0.2219
-5.0916 赵天骥 -0.2219
-5.0916 赵晓斌 -0.2219
-5.0916 赵琦 -0.2219
-5.0916 超导 -0.2219
-4.3926 超过 -0.2219
-5.0916 越来越 -0.2219
-5.0916 跃 -0.2219
-5.0916 跨 -0.2219
-5.0916 路 -0.2219
-5.0916 路尧 -0.2219
-5.0916 路由器 -0.2219
-5.0916 身份 -0.2219
-4.7906 身份证件 -0.2219
-5.0916 身心健康 -0.2219
-5.0916 转入 -0.2219
-5.0916 转换 -0.2219
-5.0916 转系 -0.2219
-4.4895 辜勇 -0.2219
-4.7906 过程 -0.2219
-5.0916 运算 -0.2219
-5.0916 运营 -0.2219
-5.0916 近年来 -0.2219
-4.7906 还 -0.2219
-5.0916 这些 -0.2219
-5.0916 进一步提高 -0.2219
-5.0916 进取精神 -0.2219
-5.0916 进展 -0.2219
-4.0124 进行 -0.2219
-5.0916 违法违纪 -0.2219
-5.0916 追求 -0.2219
-5.0916 适量 -0.2219
-4.4895 选修 -0.2219
-4.7906 选拔 -0.2219
-5.0916 选者 -0.2219
-5.0916 透明 -0.2219
-4.3926 通信 -0.2219
-4.7906 通知 -0.2219
-3.0916 通讯复杂性 -0.2219
-4.0916 通过 -0.2219
-5.0916 速度 -0.2219
-5.0916 造成 -0.2219
-3.0916 逻辑和组合论 -0.2219
-5.0916 逻辑思维 -0.2219
-5.0916 遇到 -0.2219
-4.7906 道德品质 -0.2219
-5.0916 遴选 -0.2219
-5.0916 遵照 -0.2219
-5.0916 避开 -0.2219
-5.0916 避错 -0.2219
-4.7906 邮件 -0.2219
-4.7906 邮件地址 -0.2219
-5.0916 邮编 -0.2219
-5.0916 郁昱 -0.2219
-3.0916 郑波 -0.2219
-5.0916 郑顺 -0.2219
-5.0916 郜勋 -0.2219
-5.0916 郝 -0.2219
-5.0916 部 -0.2219
-4.7906 部分 -0.2219
-5.0916 部级 -0.2219
-4.6145 郭 -0.2219
-5.0916 郭光灿 -0.2219
-5.0916 重修 -0.2219
-5.0916 重大 -0.2219
-5.0916 重大项目 -0.2219
-5.0916 重庆大学 -0.2219
-4.7906 重点 -0.2219
-5.0916 重考 -0.2219
-4.6145 重要 -0.2219
-5.0916 重要性 -0.2219
-3.2923 量子 -0.2219
-3.0916 量子信息 -0.2219
-3.0916 量子信息理论 -0.2219
-3.0916 量子信息科学 -0.2219
-3.0916 量子光学 -0.2219
-3.0916 量子多体理论 -0.2219
-3.0916 量子计算 -0.2219
-4.0124 金刚石 -0.2219
-5.0916 金奇 -0.2219
-3.0916 金奇奂 -0.2219
-4.4895 金逸飞 -0.2219
-5.0916 钱玉麟 -0.2219
-4.4895 门 -0.2219
-4.2465 门次 -0.2219
-4.6145 问题 -0.2219
-5.0916 阐述 -0.2219
-5.0916 阱 -0.2219
-4.7906 阶段 -0.2219
-5.0916 附 -0.2219
-4.6145 附件 -0.2219
-3.0916 陈卫 -0.2219
-4.0916 陈康 -0.2219
-4.3135 陈杉 -0.2219
-3.0916 陈渝 -0.2219
-5.0916 陈琨 -0.2219
-5.0916 陈铬亮 -0.2219
-5.0916 限制 -0.2219
-4.6145 限定性 -0.2219
-5.0916 限选 -0.2219
-3.5118 院 -0.2219
-4.7906 院内 -0.2219
-4.7906 院士 -0.2219
-5.0916 院校 -0.2219
-4.0916 院系 -0.2219
-5.0916 除 -0.2219
-5.0916 除外 -0.2219
-3.0916 随机学习 -0.2219
-3.0916 随机网络优化 -0.2219
-4.6145 需 -0.2219
-5.0916 需向 -0.2219
-5.0916 需提交 -0.2219
-5.0916 需要 -0.2219
-3.8363 青年 -0.2219
-4.2465 静宁 -0.2219
-4.7906 非学历 -0.2219
-5.0916 非标准 -0.2219
-4.6145 面向 -0.2219
-3.8612 面试 -0.2219
-5.0916 韩佳秀 -0.2219
-4.6145 顶级 -0.2219
-4.7906 项目 -0.2219
-4.0124 顺 -0.2219
-5.0916 顺序 -0.2219
-5.0916 须 -0.2219
-4.1885 顾钊铨 -0.2219
-3.0916 顾麦然 -0.2219
-4.0502 预研 -0.2219
-5.0916 预言 -0.2219
-4.7906 领域 -0.2219
-4.6145 领导小组 -0.2219
-4.7906 首席 -0.2219
-4.6145 首次 -0.2219
-3.6766 香港中文大学 -0.2219
-4.1374 马家俊 -0.2219
-5.0916 马悦驰 -0.2219
-5.0916 马瑞 -0.2219
-3.0916 马雄峰 -0.2219
-5.0916 骞 -0.2219
-5.0916 高到 -0.2219
-5.0916 高度重视 -0.2219
-5.0916 高校 -0.2219
-5.0916 高水平 -0.2219
-4.0916 高等 -0.2219
-5.0916 高阳 -0.2219
-5.0916 魏达 -0.2219
-5.0916 麻省 -0.2219
-5.0916 黄园园 -0.2219
-4.4895 黄棱潇 -0.2219
-3.0916 黄隆波 -0.2219
-5.0916 龙 -0.2219
-5.0916 龙翔 -0.2219
-3.0347 ？ -0.2219

\2-grams:
-2.6141 <s> ? 0.0000
-3.8360 <s> 一 0.0000
-4.3131 <s> 一个 0.0000
-4.3131 <s> 一些 0.0000
-4.3131 <s> 一份 0.0000
-4.6141 <s> 一并 0.0000
-4.6141 <s> 一律 0.0000
-4.6141 <s> 一种 0.0000
-4.6141 <s> 一等奖 0.0000
-4.6141 <s> 一经 0.0000
-4.6141 <s> 一致性 0.0000
-4.3131 <s> 一般 0.0000
-4.6141 <s> 一门 0.0000
-3.8360 <s> 三 0.0000
-4.6141 <s> 三名 0.0000
-4.6141 <s> 三学 0.0000
-4.3131 <s> 三年 0.0000
-4.6141 <s> 三种 0.0000
-3.6599 <s> 上 0.0000
-4.6141 <s> 上个世纪 0.0000
-4.1370 <s> 上午 0.0000
-4.3131 <s> 上报 0.0000
-3.1370 <s> 上海 0.0000
-4.6141 <s> 上网 0.0000
-2.6141 <s> 上课 -0.0043
-4.3131 <s> 上述 0.0000
-4.1370 <s> 下午 0.0000
-4.6141 <s> 下发 0.0000
-4.0121 <s> 下载 0.0000
-4.6141 <s> 下达 0.0000
-3.2524 <s> 不 0.0000
-4.3131 <s> 不予 0.0000
-4.0121 <s> 不及格 0.0000
-4.3131 <s> 不合格者 0.0000
-4.6141 <s> 不同 0.0000
-4.1370 <s> 不少 0.0000
-4.6141 <s> 不得 0.0000
-4.6141 <s> 不拘一格 0.0000
-4.6141 <s> 不算 0.0000
-4.1370 <s> 不能 0.0000
-2.8360 <s> 与 0.0000
-4.6141 <s> 与否 0.0000
-3.4380 <s> 专业 0.0000
-4.6141 <s> 专业学位 0.0000
-4.6141 <s> 专业知识 0.0000
-4.3131 <s> 专长 0.0000
-3.6599 <s> 且 0.0000
-4.3131 <s> 业务 0.0000
-4.3131 <s> 两个 0.0000
-4.1370 <s> 严格 0.0000
-3.5349 <s> 严马 0.0000
-4.3131 <s> 个 0.0000
-4.1370 <s> 个人 0.0000
-4.6141 <s> 个人信息 0.0000
-4.3131 <s> 个人简历 0.0000
-3.6599 <s> 中 0.0000
-4.1370 <s> 中国 0.0000
-4.6141 <s> 中国物理学会 0.0000
-4.1370 <s> 中国科学院 0.0000
-4.3131 <s> 中心 0.0000
-1.2723 <s> 中文 0.0000
-4.6141 <s> 中有 0.0000
-3.1370 <s> 中科大 0.0000
-4.6141 <s> 中组部 0.0000
-4.6141 <s> 中长期 0.0000
-3.2339 <s> 丹麦 0.0000
-3.7690 <s> 为 0.0000
-4.3131 <s> 主任 0.0000
-4.0121 <s> 主要 0.0000
-4.6141 <s> 主页 0.0000
-3.0826 <s> 举办 0.0000
-4.6141 <s> 之 0.0000
-4.6141 <s> 之一 0.0000
-4.3131 <s> 之内 0.0000
-4.6141 <s> 之前 0.0000
-4.6141 <s> 之后 0.0000
-4.6141 <s> 之日 0.0000
-4.3131 <s> 乔友明 0.0000
-4.6141 <s> 也 0.0000
-2.6141 <s> 习题课 0.0000
-4.1370 <s> 书面 0.0000
-4.6141 <s> 书面材料 0.0000
-3.9151 <s> 了 0.0000
-4.6141 <s> 了解 0.0000
-4.6141 <s> 予以 0.0000
-3.8360 <s> 二 0.0000
-4.3131 <s> 二次 0.0000
-4.6141 <s> 二等奖 0.0000
-3.7690 <s> 于 0.0000
-2.6141 <s> 云计算 0.0000
-4.6141 <s> 五 0.0000
-4.6141 <s> 交 0.0000
-2.6950 <s> 交叉 0.0000
-2.6013 <s> 交叉信息院 0.0000
-4.6141 <s> 交换 0.0000
-4.6141 <s> 亦然 0.0000
-4.6141 <s> 亲自 0.0000
-4.3131 <s> 人们 0.0000
-4.0121 <s> 人员 0.0000
-2.6141 <s> 人工智能 0.0000
-2.6141 <s> 什么 -0.0125
-4.6141 <s> 仅指 0.0000
-4.6141 <s> 仅限 0.0000
-4.6141 <s> 仇丽媛 0.0000
-4.6141 <s> 介绍 0.0000
-4.3131 <s> 从 0.0000
-4.3131 <s> 从事 0.0000
-4.1370 <s> 他 0.0000
-4.6141 <s> 他人 0.0000
-3.8360 <s> 付荣 0.0000
-4.3131 <s> 以 0.0000
-3.7110 <s> 以上 0.0000
-4.0121 <s> 以下 0.0000
-3.6599 <s> 以及 0.0000
-4.3131 <s> 以后 0.0000
-4.6141 <s> 以色 0.0000
-3.4380 <s> 以色列 0.0000
-4.6141 <s> 任 0.0000
-4.3131 <s> 任何 0.0000
-4.3131 <s> 任课教师 0.0000
-4.6141 <s> 优化 0.0000
-4.6141 <s> 优异者 0.0000
-3.0121 <s> 优秀 0.0000
-4.6141 <s> 优秀教师 0.0000
-4.6141 <s> 优良 0.0000
-3.3588 <s> 会议 0.0000
-4.3131 <s> 传感器 0.0000
-4.6141 <s> 传统 0.0000
-4.3131 <s> 传输 0.0000
-2.6141 <s> 伯里克利 0.0000
-4.1370 <s> 但 0.0000
-4.6141 <s> 低 0.0000
-4.1370 <s> 低于 0.0000
-4.1370 <s> 体 0.0000
-4.3131 <s> 体及 0.0000
-4.3131 <s> 体检 0.0000
-2.6141 <s> 何丽 0.0000
-4.6141 <s> 何利奖 0.0000
-4.6141 <s> 何昊青 0.0000
-4.6141 <s> 何梁 0.0000
-4.6141 <s> 作为 0.0000
-4.6141 <s> 作弊 0.0000
-4.6141 <s> 作答 0.0000
-3.6599 <s> 侯攀宇 0.0000
-4.6141 <s> 便于 0.0000
-4.6141 <s> 保证质量 0.0000
-2.6013 <s> 信息 0.0000
-4.6141 <s> 信息安全 0.0000
-4.6141 <s> 信息技术 0.0000
-2.6141 <s> 信息理论 0.0000
-4.6141 <s> 做 0.0000
-4.6141 <s> 做到 0.0000
-4.6141 <s> 傅昊 0.0000
-4.6141 <s> 元熙 0.0000
-4.6141 <s> 先进 0.0000
-4.6141 <s> 光 0.0000
-4.6141 <s> 光学 0.0000
-4.6141 <s> 光纤 0.0000
-3.9151 <s> 克隆 0.0000
-3.0578 <s> 免试 0.0000
-4.6141 <s> 免试生 0.0000
-4.3131 <s> 入学 0.0000
-3.9151 <s> 入学考试 0.0000
-4.6141 <s> 入选 0.0000
-4.1370 <s> 全 0.0000
-3.9151 <s> 全国 0.0000
-4.6141 <s> 全新 0.0000
-4.3131 <s> 全部 0.0000
-4.0121 <s> 全面 0.0000
-4.6141 <s> 八十年代 0.0000
-3.5349 <s> 公司 0.0000
-4.3131 <s> 公告 0.0000
-4.6141 <s> 公布 0.0000
-4.3131 <s> 公平 0.0000
-4.3131 <s> 公开 0.0000
-4.6141 <s> 公式 0.0000
-4.3131 <s> 公正 0.0000
-3.4100 <s> 公示 0.0000
-4.6141 <s> 公里 0.0000
-4.3131 <s> 关于 0.0000
-4.6141 <s> 关注 0.0000
-4.6141 <s> 关键部件 0.0000
-4.0121 <s> 兴趣 0.0000
-4.6141 <s> 其 0.0000
-4.6141 <s> 其中 0.0000
-4.1370 <s> 其他 0.0000
-4.1370 <s> 具体 0.0000
-4.6141 <s> 具体情况 0.0000
-4.6141 <s> 具名 0.0000
-4.6141 <s> 具备 0.0000
-4.1370 <s> 具有 0.0000
-4.6141 <s> 兼职 0.0000
-2.6141 <s> 兼职教授 0.0000
-3.7690 <s> 内 0.0000
-3.5727 <s> 内容 0.0000
-4.6141 <s> 再 0.0000
-4.6141 <s> 军官证 0.0000
-4.6141 <s> 军界 0.0000
-2.6141 <s> 冯建华 0.0000
-4.6141 <s> 决定 0.0000
-2.6141 <s> 冷 0.0000
-4.1370 <s> 准备 0.0000
-4.3131 <s> 准考证 0.0000
-2.6141 <s> 凝聚态物理 0.0000
-4.6141 <s> 几十年 0.0000
-4.1370 <s> 凡 0.0000
-4.3131 <s> 凡未 0.0000
-4.6141 <s> 凸显 0.0000
-4.6141 <s> 出 0.0000
-4.3131 <s> 出国 0.0000
-4.6141 <s> 出版 0.0000
-3.9151 <s> 出现 0.0000
-4.0121 <s> 出示 0.0000
-4.6141 <s> 出较 0.0000
-3.9151 <s> 分 0.0000
-4.6141 <s> 分别 0.0000
-3.7110 <s> 分发 0.0000
-4.6141 <s> 分后 0.0000
-2.6141 <s> 分布式系统 0.0000
-2.6141 <s> 分布式计算 0.0000
-4.6141 <s> 分数 0.0000
-4.6141 <s> 分析 0.0000
-4.6141 <s> 分校 0.0000
-4.6141 <s> 分者 0.0000
-4.0121 <s> 分钟 0.0000
-4.6141 <s> 刊物 0.0000
-3.4680 <s> 刘可 0.0000
-4.0121 <s> 刘宇 0.0000
-4.6141 <s> 刘思学 0.0000
-4.6141 <s> 刘政哲 0.0000
-4.6141 <s> 刘智伟 0.0000
-4.6141 <s> 刘艺成 0.0000
-4.3131 <s> 则 0.0000
-3.8360 <s> 刚 0.0000
-4.6141 <s> 创 0.0000
-3.9151 <s> 创新 0.0000
-4.6141 <s> 创新能力 0.0000
-4.0121 <s> 初探 0.0000
-4.6141 <s> 初试 0.0000
-3.5727 <s> 初选 0.0000
-4.3131 <s> 到 0.0000
-4.6141 <s> 制定 0.0000
-3.4680 <s> 前 0.0000
-4.6141 <s> 前沿 0.0000
-4.3131 <s> 副研究员 0.0000
-4.6141 <s> 剽窃 0.0000
-4.0121 <s> 办 0.0000
-4.3131 <s> 办公 0.0000
-3.9151 <s> 办公室 0.0000
-4.3131 <s> 办对 0.0000
-3.4680 <s> 办法 0.0000
-4.6141 <s> 办理 0.0000
-4.6141 <s> 加以 0.0000
-4.6141 <s> 加入 0.0000
-4.6141 <s> 加强 0.0000
-2.7946 <s> 加拿大 0.0000
-4.6141 <s> 加盖 0.0000
-4.6141 <s> 加试 0.0000
-4.3131 <s> 助教 0.0000
-3.7110 <s> 助理 0.0000
-2.6141 <s> 助理教授 0.0000
-2.6141 <s> 助理研究员 0.0000
-3.7690 <s> 勒布 0.0000
-4.3131 <s> 包含 0.0000
-3.8360 <s> 包括 0.0000
-4.6141 <s> 北京大学 0.0000
-4.6141 <s> 区 0.0000
-4.6141 <s> 千人 0.0000
-4.6141 <s> 华 0.0000
-2.6141 <s> 华强胜 0.0000
-4.6141 <s> 协会 0.0000
-4.6141 <s> 协商 0.0000
-4.6141 <s> 卓越 0.0000
-4.3131 <s> 单 0.0000
-4.6141 <s> 单位 0.0000
-4.6141 <s> 单向 0.0000
-4.6141 <s> 单证 0.0000
-4.6141 <s> 南加州 0.0000
-3.0459 <s> 博士 0.0000
-4.6141 <s> 博士后 0.0000
-4.6141 <s> 博士学位 0.0000
-3.8360 <s> 博士生 0.0000
-4.6141 <s> 博士论文 0.0000
-4.6141 <s> 博导 0.0000
-2.6141 <s> 博弈论 0.0000
-4.6141 <s> 卡斯 0.0000
-3.7690 <s> 卡斯特 0.0000
-4.1370 <s> 即 0.0000
-2.6141 <s> 压缩感知 0.0000
-3.8360 <s> 原件 0.0000
-4.1370 <s> 原则 0.0000
-2.6141 <s> 原子物理 0.0000
-3.9151 <s> 原理 0.0000
-4.3131 <s> 去掉 0.0000
-4.3131 <s> 参与 0.0000
-3.9151 <s> 参加 0.0000
-4.3131 <s> 参照 0.0000
-4.6141 <s> 参考 0.0000
-4.3131 <s> 参见 0.0000
-3.1670 <s> 及 0.0000
-4.1370 <s> 及其 0.0000
-4.3131 <s> 及格 0.0000
-4.6141 <s> 及限选 0.0000
-4.6141 <s> 双证 0.0000
-4.6141 <s> 反映 0.0000
-4.6141 <s> 发展 0.0000
-4.6141 <s> 发展潜力 0.0000
-4.6141 <s> 发明 0.0000
-4.6141 <s> 发现 0.0000
-4.0121 <s> 发表 0.0000
-4.6141 <s> 发送至 0.0000
-4.6141 <s> 取 0.0000
-3.8360 <s> 取得 0.0000
-4.3131 <s> 取消 0.0000
-4.3131 <s> 受 0.0000
-4.3131 <s> 受到 0.0000
-4.6141 <s> 另发 0.0000
-4.6141 <s> 另外 0.0000
-4.6141 <s> 另行通知 0.0000
-4.6141 <s> 只 0.0000
-4.3131 <s> 只能 0.0000
-4.6141 <s> 召开 0.0000
-3.3588 <s> 可 0.0000
-4.6141 <s> 可不 0.0000
-4.1370 <s> 可以 0.0000
-4.6141 <s> 右上角 0.0000
-4.6141 <s> 号 0.0000
-4.3131 <s> 各 0.0000
-4.3131 <s> 各位 0.0000
-4.3131 <s> 各类 0.0000
-3.7110 <s> 合格 0.0000
-4.3131 <s> 同学 0.0000
-4.1370 <s> 同时 0.0000
-4.0121 <s> 同等学力 0.0000
-4.0121 <s> 名 0.0000
-3.8360 <s> 名单 0.0000
-4.1370 <s> 名额 0.0000
-3.6141 <s> 后 0.0000
-4.6141 <s> 后果 0.0000
-4.6141 <s> 向 0.0000
-3.9151 <s> 向勇 0.0000
-3.5349 <s> 吕定 0.0000
-3.9151 <s> 吕曰洲 0.0000
-4.1370 <s> 含 0.0000
-2.6141 <s> 吴建平 0.0000
-3.8360 <s> 吴成 0.0000
-2.6141 <s> 吴浩铮 0.0000
-4.0121 <s> 吴辰晔 0.0000
-4.6141 <s> 周一 0.0000
-4.6141 <s> 周三 0.0000
-4.6141 <s> 周二 0.0000
-4.6141 <s> 周五 0.0000
-4.6141 <s> 周四 0.0000
-3.8360 <s> 周忠军 0.0000
-3.8360 <s> 周梦宇 0.0000
-4.6141 <s> 周泓伊 0.0000
-4.6141 <s> 周游 0.0000
-4.6141 <s> 命名 0.0000
-3.0013 <s> 和 0.0000
-4.3131 <s> 咨询 0.0000
-4.6141 <s> 咨询电话 0.0000
-4.6141 <s> 品行 0.0000
-4.6141 <s> 哈希 0.0000
-2.6141 <s> 哪些 -0.0043
-4.6141 <s> 唐平 0.0000
-2.6141 <s> 唐平中 0.0000
-4.0121 <s> 唐邦晟 0.0000
-4.6141 <s> 商业 0.0000
-4.3131 <s> 商用 0.0000
-4.0121 <s> 四 0.0000
-4.3131 <s> 四年级 0.0000
-4.6141 <s> 回答 0.0000
-4.6141 <s> 因 0.0000
-4.6141 <s> 因而 0.0000
-4.3131 <s> 困难 0.0000
-4.6141 <s> 国内外 0.0000
-4.6141 <s> 国外 0.0000
-4.0121 <s> 国家 0.0000
-4.3131 <s> 国家科技部 0.0000
-4.6141 <s> 国计民生 0.0000
-3.7110 <s> 国际 0.0000
-2.6141 <s> 图形学 0.0000
-4.6141 <s> 图灵 0.0000
-3.1090 <s> 在 0.0000
-2.6141 <s> 在线学习与优化 0.0000
-4.6141 <s> 在职 0.0000
-4.3131 <s> 在职人员 0.0000
-4.6141 <s> 在读 0.0000
-4.6141 <s> 地址 0.0000
-3.6599 <s> 地点 0.0000
-4.6141 <s> 场合 0.0000
-3.9151 <s> 均 0.0000
-4.6141 <s> 坑易澎 0.0000
-4.3131 <s> 坚持 0.0000
-4.3131 <s> 坚阳 0.0000
-4.1370 <s> 培养 0.0000
-4.1370 <s> 基 0.0000
-4.3131 <s> 基本 0.0000
-4.6141 <s> 基础 0.0000
-4.3131 <s> 基础知识 0.0000
-4.6141 <s> 基金委 0.0000
-4.0121 <s> 填写 0.0000
-4.6141 <s> 填报 0.0000
-4.1370 <s> 填表 0.0000
-4.6141 <s> 境外 0.0000
-4.3131 <s> 处分 0.0000
-4.3131 <s> 处理 0.0000
-4.6141 <s> 处理器 0.0000
-4.6141 <s> 备查 0.0000
-4.0121 <s> 复印件 0.0000
-3.9151 <s> 复审 0.0000
-4.6141 <s> 复杂 0.0000
-2.6141 <s> 复试 0.0000
-3.0343 <s> 夏令营 0.0000
-4.6141 <s> 夏庆堂 0.0000
-4.3131 <s> 外 0.0000
-4.1370 <s> 外校 0.0000
-4.6141 <s> 外语水平 0.0000
-4.1370 <s> 多 0.0000
-2.6141 <s> 多主体系统 0.0000
-4.1370 <s> 多功能厅 0.0000
-4.6141 <s> 多篇 0.0000
-4.3131 <s> 大 0.0000
-2.9239 <s> 大学 0.0000
-4.6141 <s> 大学教授 0.0000
-3.0343 <s> 大学生 0.0000
-2.6141 <s> 大数据 0.0000
-4.6141 <s> 天一 0.0000
-4.6141 <s> 失效 0.0000
-4.6141 <s> 奂 0.0000
-4.1370 <s> 奖 0.0000
-4.6141 <s> 奖励 0.0000
-3.5727 <s> 女 0.0000
-2.6141 <s> 好 0.0000
-2.6141 <s> 好的 0.0000
-3.5727 <s> 如 0.0000
-4.0121 <s> 如下 0.0000
-4.6141 <s> 妥存 0.0000
-4.0121 <s> 姓名 0.0000
-4.3131 <s> 委员会 0.0000
-4.6141 <s> 姚 0.0000
-4.6141 <s> 姚兆明 0.0000
-2.6098 <s> 姚期智 0.0000
-3.5002 <s> 姚班 0.0000
-4.6141 <s> 子 0.0000
-4.6141 <s> 孙晓明 0.0000
-4.6141 <s> 孙麓 0.0000
-2.6141 <s> 孙麓岩 0.0000
-4.6141 <s> 学 0.0000
-4.1370 <s> 学习 0.0000
-4.6141 <s> 学习成绩 0.0000
-4.6141 <s> 学会 0.0000
-4.6141 <s> 学位 0.0000
-4.3131 <s> 学位证 0.0000
-4.6141 <s> 学位证书 0.0000
-3.8360 <s> 学分 0.0000
-4.3131 <s> 学历 0.0000
-4.6141 <s> 学士 0.0000
-4.6141 <s> 学士学位 0.0000
-3.8360 <s> 学期 0.0000
-4.6141 <s> 学期末 0.0000
-3.2919 <s> 学术 0.0000
-4.6141 <s> 学术会议 0.0000
-4.6141 <s> 学术期刊 0.0000
-4.6141 <s> 学术论文 0.0000
-4.1370 <s> 学校 0.0000
-3.1517 <s> 学生 0.0000
-4.0121 <s> 学生名单 0.0000
-4.3131 <s> 学生证 0.0000
-4.6141 <s> 学界 0.0000
-2.9707 <s> 学科 0.0000
-4.6141 <s> 学科专业 0.0000
-4.1370 <s> 学籍 0.0000
-4.3131 <s> 学院 0.0000
-4.6141 <s> 学风 0.0000
-4.6141 <s> 宁缺勿滥 0.0000
-4.6141 <s> 守信 0.0000
-2.6141 <s> 安徽 0.0000
-4.3131 <s> 安徽省 0.0000
-3.8360 <s> 安排 0.0000
-4.6141 <s> 安波 0.0000
-3.7110 <s> 安硕明 0.0000
-2.6141 <s> 宋祎璞 0.0000
-4.3131 <s> 完成 0.0000
-4.6141 <s> 完成学业 0.0000
-4.3131 <s> 实施办法 0.0000
-3.8360 <s> 实现 0.0000
-3.9151 <s> 实践 0.0000
-4.0121 <s> 实验 0.0000
-3.7110 <s> 实验室 0.0000
-4.1370 <s> 实验班 0.0000
-3.4680 <s> 审查 0.0000
-4.3131 <s> 审核 0.0000
-4.6141 <s> 审稿人 0.0000
-4.3131 <s> 室 0.0000
-4.6141 <s> 密码 0.0000
-2.6141 <s> 密码协议 0.0000
-3.4100 <s> 密码学 0.0000
-2.6141 <s> 密码学基础 0.0000
-2.6141 <s> 密码的基础学 0.0000
-3.8360 <s> 密苏里 0.0000
-4.1370 <s> 密钥 0.0000
-3.3837 <s> 对 0.0000
-4.6141 <s> 对于 0.0000
-4.6141 <s> 对原 0.0000
-4.3131 <s> 导师 0.0000
-3.7690 <s> 将 0.0000
-4.6141 <s> 小于 0.0000
-3.6141 <s> 小组 0.0000
-4.6141 <s> 小组会议 0.0000
-4.6141 <s> 尚未 0.0000
-4.6141 <s> 就是 0.0000
-4.0121 <s> 尹璋 0.0000
-2.6141 <s> 尹璋琦 0.0000
-4.6141 <s> 尹璋琪 0.0000
-4.6141 <s> 居民身份证 0.0000
-4.6141 <s> 属于 0.0000
-4.6141 <s> 履行 0.0000
-4.6141 <s> 岩 0.0000
-3.6599 <s> 工作 0.0000
-4.3131 <s> 工作日 0.0000
-4.6141 <s> 工作者 0.0000
-4.6141 <s> 左斌 0.0000
-4.6141 <s> 左淞 0.0000
-4.6141 <s> 巨大 0.0000
-4.6141 <s> 巩慧超 0.0000
-3.8360 <s> 已 0.0000
-4.0121 <s> 已修 0.0000
-4.1370 <s> 已经 0.0000
-3.7110 <s> 巴黎 0.0000
-3.7110 <s> 师范学校 0.0000
-4.6141 <s> 希望 0.0000
-2.6141 <s> 帕帕 -0.0084
-4.6141 <s> 带 0.0000
-4.6141 <s> 带头人 0.0000
-4.6141 <s> 常 0.0000
-4.6141 <s> 常炜 0.0000
-2.6141 <s> 常秀英 0.0000
-4.6141 <s> 干部 0.0000
-4.3131 <s> 平均 0.0000
-4.3131 <s> 平均分 0.0000
-4.6141 <s> 平时 0.0000
-2.6696 <s> 年 0.0000
-4.6141 <s> 年会 0.0000
-3.7110 <s> 并 0.0000
-4.3131 <s> 序号 0.0000
-4.3131 <s> 应 0.0000
-4.6141 <s> 应对 0.0000
-4.0121 <s> 应届 0.0000
-4.6141 <s> 应届生 0.0000
-4.6141 <s> 应用 0.0000
-2.6141 <s> 廉茶铉 0.0000
-4.6141 <s> 延庆 0.0000
-4.6141 <s> 开 0.0000
-4.6141 <s> 开具 0.0000
-4.3131 <s> 开始 0.0000
-4.6141 <s> 异议 0.0000
-4.6141 <s> 引发 0.0000
-3.7110 <s> 张 0.0000
-4.6141 <s> 张伯威 0.0000
-3.5002 <s> 张君华 0.0000
-4.6141 <s> 张宽 0.0000
-4.6141 <s> 张帅宁 0.0000
-3.1991 <s> 张振 0.0000
-4.1370 <s> 张捷 0.0000
-4.6141 <s> 张文纲 0.0000
-4.6141 <s> 张昆玮 0.0000
-4.6141 <s> 张炀 0.0000
-3.5002 <s> 张翔 0.0000
-4.6141 <s> 张贴 0.0000
-4.6141 <s> 张赛 0.0000
-2.6141 <s> 张静宁 0.0000
-4.6141 <s> 强 0.0000
-4.6141 <s> 强胜 0.0000
-4.6141 <s> 当前 0.0000
-4.6141 <s> 当时 0.0000
-3.3837 <s> 录取 0.0000
-3.2717 <s> 录取名单 0.0000
-4.3131 <s> 形式 0.0000
-4.6141 <s> 彭 0.0000
-4.6141 <s> 影响 0.0000
-4.6141 <s> 待 0.0000
-4.6141 <s> 徇私舞弊 0.0000
-2.6098 <s> 徐佳 0.0000
-4.6141 <s> 徐源 0.0000
-4.6141 <s> 徐熙炜 0.0000
-2.6141 <s> 徐葳 0.0000
-4.6141 <s> 微腔 0.0000
-4.3131 <s> 德智体 0.0000
-2.6141 <s> 德梅洛 0.0000
-3.9151 <s> 必修 0.0000
-4.6141 <s> 必将 0.0000
-3.9151 <s> 必须 0.0000
-4.1370 <s> 志愿 0.0000
-4.6141 <s> 快递 0.0000
-2.6141 <s> 怎么样 -0.0164
-4.3131 <s> 思想 0.0000
-4.1370 <s> 性别 0.0000
-4.6141 <s> 总 0.0000
-4.6141 <s> 总分 0.0000
-4.6141 <s> 总学 0.0000
-4.6141 <s> 总成绩 0.0000
-4.6141 <s> 总数 0.0000
-4.1370 <s> 情况 0.0000
-4.6141 <s> 愈发 0.0000
-3.5349 <s> 意大利 0.0000
-4.6141 <s> 意见 0.0000
-4.6141 <s> 意识 0.0000
-4.6141 <s> 成 0.0000
-4.3131 <s> 成为 0.0000
-4.6141 <s> 成功 0.0000
-3.9151 <s> 成员 0.0000
-4.6141 <s> 成就奖 0.0000
-4.6141 <s> 成果 0.0000
-4.6141 <s> 成立 0.0000
-3.0578 <s> 成绩 0.0000
-3.7110 <s> 成绩单 0.0000
-3.9151 <s> 成绩排名 0.0000
-3.7110 <s> 成都 0.0000
-3.5727 <s> 我院 0.0000
-3.2919 <s> 或 0.0000
-4.0121 <s> 戚啸 0.0000
-4.6141 <s> 戴 0.0000
-4.6141 <s> 房智轩 0.0000
-3.9151 <s> 所 0.0000
-4.3131 <s> 所在 0.0000
-4.1370 <s> 所有 0.0000
-4.3131 <s> 所谓 0.0000
-4.6141 <s> 手续 0.0000
-4.6141 <s> 才能 0.0000
-4.6141 <s> 打包 0.0000
-4.6141 <s> 打印 0.0000
-4.6141 <s> 执行 0.0000
-4.3131 <s> 承认 0.0000
-4.6141 <s> 承诺 0.0000
-2.8433 <s> 技术 0.0000
-4.3131 <s> 抓紧时间 0.0000
-4.6141 <s> 护照 0.0000
-4.6141 <s> 报 0.0000
-3.2162 <s> 报名 0.0000
-4.6141 <s> 报名处 0.0000
-3.7690 <s> 报名表 0.0000
-4.3131 <s> 报告 0.0000
-3.9151 <s> 报考 0.0000
-4.6141 <s> 抯 0.0000
-4.6141 <s> 抰 0.0000
-4.3131 <s> 担任 0.0000
-3.9151 <s> 招收 0.0000
-3.3588 <s> 招生 0.0000
-3.8360 <s> 招生简章 0.0000
-3.2524 <s> 拟 0.0000
-4.6141 <s> 择优 0.0000
-4.3131 <s> 择优录取 0.0000
-4.3131 <s> 拿 0.0000
-4.6141 <s> 指导思想 0.0000
-4.6141 <s> 指导老师 0.0000
-3.8360 <s> 按 0.0000
-4.0121 <s> 按照 0.0000
-2.6141 <s> 挖掘 0.0000
-4.6141 <s> 掌握情况 0.0000
-3.9151 <s> 排名 0.0000
-4.6141 <s> 接收 0.0000
-4.3131 <s> 推免 0.0000
-4.6141 <s> 推博 0.0000
-4.6141 <s> 推导 0.0000
-4.1370 <s> 推研 0.0000
-4.6141 <s> 推硕 0.0000
-3.0343 <s> 推荐 0.0000
-4.3131 <s> 推荐信 0.0000
-3.9151 <s> 提交 0.0000
-4.0121 <s> 提供 0.0000
-3.9151 <s> 提出 0.0000
-4.6141 <s> 提前 0.0000
-4.1370 <s> 提问 0.0000
-4.3131 <s> 携带 0.0000
-4.3131 <s> 摩尔 0.0000
-4.6141 <s> 操作 0.0000
-2.6141 <s> 操作系统 0.0000
-4.3131 <s> 攻读 0.0000
-4.6141 <s> 放宽 0.0000
-4.3131 <s> 政治 0.0000
-4.6141 <s> 政治素质 0.0000
-4.6141 <s> 政界 0.0000
-4.6141 <s> 效率 0.0000
-3.7110 <s> 教务 0.0000
-4.0121 <s> 教学 0.0000
-3.4100 <s> 教授 0.0000
-4.6141 <s> 教研组 0.0000
-4.3131 <s> 教育 0.0000
-4.1370 <s> 教育部 0.0000
-2.6141 <s> 数据中心网络 0.0000
-2.6141 <s> 数据库 0.0000
-4.6141 <s> 数据结构 0.0000
-4.6141 <s> 文件 0.0000
-4.6141 <s> 文化 0.0000
-4.6141 <s> 文康 0.0000
-4.6141 <s> 文职 0.0000
-4.6141 <s> 新 0.0000
-4.6141 <s> 新型 0.0000
-3.7110 <s> 新星 0.0000
-4.6141 <s> 方兴未艾 0.0000
-4.6141 <s> 方可 0.0000
-3.7110 <s> 方向 0.0000
-4.1370 <s> 方式 0.0000
-4.6141 <s> 方案 0.0000
-4.6141 <s> 方雯逸 0.0000
-4.1370 <s> 方面 0.0000
-4.6141 <s> 无 0.0000
-4.3131 <s> 无线 0.0000
-3.7690 <s> 日 0.0000
-4.6141 <s> 日前 0.0000
-3.5349 <s> 日本 0.0000
-4.6141 <s> 日程 0.0000
-4.3131 <s> 时 0.0000
-4.3131 <s> 时代 0.0000
-2.6141 <s> 时候 -0.0043
-2.6141 <s> 时间 -0.0043
-4.6141 <s> 时须 0.0000
-4.3131 <s> 星期二 0.0000
-4.6141 <s> 星期五 0.0000
-4.3131 <s> 春季 0.0000
-2.6141 <s> 是 -0.0125
-4.6141 <s> 普博 0.0000
-4.3131 <s> 普博生 0.0000
-3.7690 <s> 智能 0.0000
-2.6141 <s> 智能电网 0.0000
-4.6141 <s> 暂 0.0000
-4.6141 <s> 曹玮 0.0000
-3.3354 <s> 曹竹 0.0000
-4.1370 <s> 曾 0.0000
-2.6141 <s> 曾坚阳 0.0000
-4.6141 <s> 曾经 0.0000
-4.6141 <s> 曾驭 0.0000
-4.6141 <s> 最低 0.0000
-4.6141 <s> 最佳 0.0000
-4.6141 <s> 最大 0.0000
-4.6141 <s> 最终 0.0000
-4.6141 <s> 最迟 0.0000
-4.6141 <s> 最高分 0.0000
-3.6141 <s> 月 0.0000
-2.6141 <s> 有 -0.0043
-3.9151 <s> 有关 0.0000
-4.1370 <s> 有效 0.0000
-4.6141 <s> 有望 0.0000
-4.6141 <s> 有近 0.0000
-4.6141 <s> 服务中心 0.0000
-4.6141 <s> 期 0.0000
-4.6141 <s> 期为 0.0000
-4.3131 <s> 期刊 0.0000
-4.3131 <s> 期间 0.0000
-3.9151 <s> 未 0.0000
-4.6141 <s> 未受 0.0000
-3.9151 <s> 本 0.0000
-3.8360 <s> 本人 0.0000
-4.6141 <s> 本次 0.0000
-3.8360 <s> 本科 0.0000
-3.4100 <s> 本科生 0.0000
-2.6141 <s> 朱利欧 0.0000
-2.6141 <s> 朱诗亮 0.0000
-4.3131 <s> 机 0.0000
-2.6141 <s> 机制设计 0.0000
-4.6141 <s> 机和普 0.0000
-4.6141 <s> 机器 0.0000
-2.6141 <s> 机器学习 0.0000
-2.6141 <s> 机器翻译 0.0000
-4.6141 <s> 李 0.0000
-4.6141 <s> 李孚 0.0000
-2.6055 <s> 李建 -0.0083
-4.6141 <s> 李志泽 0.0000
-2.6141 <s> 李志远 0.0000
-4.6141 <s> 李昕泽 0.0000
-4.1370 <s> 李瑞国 0.0000
-3.9151 <s> 李艺 0.0000
-3.6599 <s> 材料 0.0000
-4.3131 <s> 条件 0.0000
-4.6141 <s> 条款 0.0000
-4.6141 <s> 来 0.0000
-3.8360 <s> 杨光 0.0000
-2.6141 <s> 杨升浩 0.0000
-3.6599 <s> 杨宇翔 0.0000
-4.6141 <s> 杨程然 0.0000
-4.6141 <s> 杨菁林 0.0000
-3.9151 <s> 杨蒿翔 0.0000
-4.6141 <s> 杰出 0.0000
-2.6141 <s> 杰拉尔 0.0000
-4.6141 <s> 极大 0.0000
-4.6141 <s> 查出 0.0000
-4.3131 <s> 标准 0.0000
-4.6141 <s> 栏目 0.0000
-4.6141 <s> 校内 0.0000
-4.6141 <s> 校内外 0.0000
-4.6141 <s> 校级 0.0000
-4.6141 <s> 校纪 0.0000
-4.6141 <s> 校规 0.0000
-4.6141 <s> 核心 0.0000
-4.3131 <s> 根据 0.0000
-4.6141 <s> 格式 0.0000
-4.3131 <s> 档案 0.0000
-2.6141 <s> 楊偉豪 0.0000
-3.4100 <s> 楼 0.0000
-4.6141 <s> 概念 0.0000
-4.1370 <s> 概率 0.0000
-4.3131 <s> 模型 0.0000
-4.6141 <s> 模式 0.0000
-4.6141 <s> 次 0.0000
-4.0121 <s> 次数 0.0000
-4.6141 <s> 正式 0.0000
-4.6141 <s> 此类 0.0000
-4.3131 <s> 段 0.0000
-4.6141 <s> 段路明 0.0000
-4.6141 <s> 每个 0.0000
-4.3131 <s> 每位 0.0000
-4.6141 <s> 每生 0.0000
-4.6141 <s> 每组 0.0000
-4.6141 <s> 毕业 0.0000
-4.3131 <s> 毕业生 0.0000
-4.3131 <s> 毕业证 0.0000
-4.3131 <s> 毕业证书 0.0000
-3.4100 <s> 汪野 0.0000
-4.6141 <s> 沈 0.0000
-3.5349 <s> 沈杨超 0.0000
-4.3131 <s> 沈穎祺 0.0000
-2.6141 <s> 没有 0.0000
-3.7110 <s> 法国 0.0000
-4.0121 <s> 注 0.0000
-4.6141 <s> 注意事项 0.0000
-4.6141 <s> 注明 0.0000
-4.6141 <s> 注重 0.0000
-3.3588 <s> 洛阳 0.0000
-4.6141 <s> 活动 0.0000
-4.6141 <s> 流程 0.0000
-4.1370 <s> 测评 0.0000
-4.6141 <s> 海岸 0.0000
-4.1370 <s> 海涛 0.0000
-4.3131 <s> 涉及 0.0000
-4.6141 <s> 淦 0.0000
-4.6141 <s> 清华 0.0000
-2.9065 <s> 清华大学 0.0000
-2.6141 <s> 清华学堂 0.0000
-2.6141 <s> 清华学堂102 0.0000
-2.6141 <s> 清华学堂112 0.0000
-2.6141 <s> 清华学堂117 0.0000
-2.6141 <s> 温子刚 0.0000
-4.6141 <s> 源于 0.0000
-3.1090 <s> 滑铁卢 0.0000
-4.6141 <s> 满分 0.0000
-4.1370 <s> 满足 0.0000
-4.6141 <s> 潘宇超 0.0000
-4.3131 <s> 潜质 0.0000
-2.6141 <s> 激子动力学 0.0000
-3.5349 <s> 濮云飞 0.0000
-4.6141 <s> 点 0.0000
-4.0121 <s> 物理 0.0000
-3.1991 <s> 物理学 0.0000
-2.6141 <s> 物理学基本问题 0.0000
-4.6141 <s> 物理学家 0.0000
-4.6141 <s> 物理系 0.0000
-4.6141 <s> 特 0.0000
-4.3131 <s> 特别 0.0000
-3.7110 <s> 特拉维夫 0.0000
-4.3131 <s> 特殊 0.0000
-4.6141 <s> 特长 0.0000
-4.6141 <s> 独立 0.0000
-4.6141 <s> 王国 0.0000
-3.6141 <s> 王子 0.0000
-2.6141 <s> 王子贺 0.0000
-2.6141 <s> 王永才 0.0000
-4.6141 <s> 王玮彬 0.0000
-4.6141 <s> 王琳琳 0.0000
-4.3131 <s> 王立威 -0.1761
-4.3131 <s> 王老师 0.0000
-2.6141 <s> 王跃宣 0.0000
-4.6141 <s> 王韦婷 0.0000
-3.3588 <s> 王飞 0.0000
-3.9151 <s> 环节 0.0000
-4.1370 <s> 现 0.0000
-4.3131 <s> 现场 0.0000
-4.6141 <s> 现将 0.0000
-4.6141 <s> 班招生 0.0000
-4.0121 <s> 班级 0.0000
-4.3131 <s> 理事 0.0000
-3.7690 <s> 理工大学 0.0000
-3.7110 <s> 理论 0.0000
-4.0121 <s> 琦 0.0000
-3.4680 <s> 生 0.0000
-4.6141 <s> 生源 0.0000
-4.6141 <s> 生物 0.0000
-4.6141 <s> 生物学 0.0000
-3.4680 <s> 田天 0.0000
-3.7690 <s> 由 0.0000
-4.6141 <s> 由于 0.0000
-3.9151 <s> 由院 0.0000
-3.4380 <s> 申请 0.0000
-4.0121 <s> 申请人 0.0000
-4.3131 <s> 申请者 0.0000
-4.1370 <s> 申请表 0.0000
-2.6141 <s> 电子商务 0.0000
-4.3131 <s> 电子版 0.0000
-4.3131 <s> 电话 0.0000
-2.7946 <s> 男 0.0000
-4.6141 <s> 畅通 0.0000
-4.6141 <s> 界限 0.0000
-4.6141 <s> 留学 0.0000
-4.1370 <s> 登记表 0.0000
-4.3131 <s> 登陆 0.0000
-2.6141 <s> 的 -0.0275
-4.6141 <s> 监督 0.0000
-4.6141 <s> 目前 0.0000
-2.6141 <s> 目标 -0.0043
-3.1090 <s> 直博 0.0000
-4.0121 <s> 直博生 0.0000
-4.6141 <s> 直接 0.0000
-3.6599 <s> 相关 0.0000
-4.6141 <s> 相比 0.0000
-4.6141 <s> 省 0.0000
-4.6141 <s> 着重 0.0000
-4.6141 <s> 研制 0.0000
-4.6141 <s> 研制成功 0.0000
-4.6141 <s> 研发 0.0000
-4.6141 <s> 研招办 0.0000
-3.5349 <s> 研究 0.0000
-2.6141 <s> 研究方向 -0.0043
-3.0578 <s> 研究生 0.0000
-3.0956 <s> 研究生院 0.0000
-4.6141 <s> 研究进展 0.0000
-2.9707 <s> 研究院 0.0000
-4.3131 <s> 研讨 0.0000
-3.6141 <s> 研讨会 0.0000
-3.2524 <s> 硕士 0.0000
-3.6599 <s> 硕士学位 0.0000
-3.7110 <s> 硕士生 0.0000
-4.6141 <s> 硕转博 0.0000
-4.6141 <s> 确保 0.0000
-4.3131 <s> 确定 0.0000
-4.3131 <s> 确认 0.0000
-4.6141 <s> 社会 0.0000
-4.6141 <s> 社会工作 0.0000
-3.3354 <s> 祖充 0.0000
-4.6141 <s> 离子 0.0000
-4.6141 <s> 离散数学 0.0000
-4.6141 <s> 秀英 0.0000
-4.6141 <s> 秋季 0.0000
-4.6141 <s> 种 0.0000
-3.7690 <s> 科学 0.0000
-4.3131 <s> 科学家 0.0000
-4.6141 <s> 科学技术 0.0000
-4.6141 <s> 科学研究 0.0000
-3.5727 <s> 科技 0.0000
-4.6141 <s> 科技成果 0.0000
-4.1370 <s> 科班 0.0000
-3.8360 <s> 科目 0.0000
-4.1370 <s> 科研 0.0000
-4.6141 <s> 科研活动 0.0000
-4.6141 <s> 称为 0.0000
-4.1370 <s> 程序 0.0000
-4.6141 <s> 程度 0.0000
-2.6141 <s> 程设 0.0000
-4.3131 <s> 稳定性 0.0000
-4.1370 <s> 突出 0.0000
-4.6141 <s> 竞赛 0.0000
-4.6141 <s> 端口 0.0000
-4.6141 <s> 端正 0.0000
-4.0121 <s> 笔试 0.0000
-4.1370 <s> 符合 0.0000
-4.0121 <s> 第一 0.0000
-2.6141 <s> 第七届 0.0000
-3.4100 <s> 第三届 0.0000
-4.6141 <s> 第二课堂 0.0000
-4.6141 <s> 第八 0.0000
-3.4100 <s> 等 0.0000
-4.6141 <s> 答辩 0.0000
-4.6141 <s> 简历 0.0000
-4.6141 <s> 简称 0.0000
-4.0121 <s> 算法 0.0000
-2.6141 <s> 算法分析 0.0000
-2.6141 <s> 算法设计 0.0000
-2.6141 <s> 算法设计与分析 0.0000
-4.6141 <s> 管理 0.0000
-4.6141 <s> 篇 0.0000
-4.1370 <s> 类别 0.0000
-4.3131 <s> 精神 0.0000
-3.9151 <s> 系统 0.0000
-2.6141 <s> 系统监控与调试 0.0000
-4.1370 <s> 素质 0.0000
-4.3131 <s> 累计 0.0000
-4.6141 <s> 红章 0.0000
-2.6141 <s> 级 0.0000
-4.6141 <s> 纸版 0.0000
-4.1370 <s> 组 0.0000
-4.6141 <s> 组内 0.0000
-4.6141 <s> 组成 0.0000
-4.3131 <s> 组织 0.0000
-4.6141 <s> 终结 0.0000
-4.1370 <s> 经 0.0000
-4.6141 <s> 结合 0.0000
-4.6141 <s> 结束 0.0000
-4.6141 <s> 结构 0.0000
-4.1370 <s> 结果 0.0000
-4.6141 <s> 给出 0.0000
-4.1370 <s> 统一 0.0000
-4.6141 <s> 统招 0.0000
-2.6141 <s> 统计力学 0.0000
-4.1370 <s> 绩 0.0000
-3.6141 <s> 综合 0.0000
-4.6141 <s> 缓存 0.0000
-4.3131 <s> 编码 0.0000
-4.6141 <s> 编程 0.0000
-4.6141 <s> 网上 0.0000
-4.3131 <s> 网址 0.0000
-4.0121 <s> 网站 0.0000
-3.2339 <s> 网络 0.0000
-2.6141 <s> 网络科学 0.0000
-2.6141 <s> 网络编码 0.0000
-4.3131 <s> 网页 0.0000
-3.7690 <s> 罗塞尔 0.0000
-4.6141 <s> 罗穗 0.0000
-2.4806 <s> 美国 0.0000
-4.6141 <s> 群体 0.0000
-4.6141 <s> 翁 0.0000
-2.6141 <s> 翁文康 0.0000
-4.3131 <s> 老师 0.0000
-4.6141 <s> 考场 0.0000
-4.6141 <s> 考官 0.0000
-4.1370 <s> 考察 0.0000
-4.3131 <s> 考查 0.0000
-3.4100 <s> 考核 0.0000
-4.6141 <s> 考核办法 0.0000
-3.5002 <s> 考生 0.0000
-3.9151 <s> 考试 0.0000
-4.6141 <s> 考试成绩 0.0000
-3.5002 <s> 者 0.0000
-4.3131 <s> 而 0.0000
-4.6141 <s> 职称 0.0000
-4.6141 <s> 联名 0.0000
-4.6141 <s> 联系人 0.0000
-4.3131 <s> 联系方式 0.0000
-4.1370 <s> 联系电话 0.0000
-4.6141 <s> 背景 0.0000
-2.6141 <s> 胡事民 0.0000
-4.6141 <s> 胡玲 0.0000
-3.6599 <s> 能力 0.0000
-4.6141 <s> 能力倾向 0.0000
-4.6141 <s> 能够 0.0000
-4.6141 <s> 自主 0.0000
-4.6141 <s> 自动 0.0000
-4.1370 <s> 自我介绍 0.0000
-4.3131 <s> 自然科学 0.0000
-2.6141 <s> 自然语言 0.0000
-2.6141 <s> 自然语言处理 0.0000
-4.3131 <s> 自负 0.0000
-4.6141 <s> 自述 0.0000
-4.1370 <s> 至 0.0000
-3.5349 <s> 色心 0.0000
-3.3588 <s> 芝加哥大学 0.0000
-4.6141 <s> 苏宇晗 0.0000
-4.6141 <s> 若 0.0000
-3.9151 <s> 若干 0.0000
-4.6141 <s> 若有 0.0000
-3.7110 <s> 英国 0.0000
-4.1370 <s> 英文 0.0000
-4.3131 <s> 英语 0.0000
-4.6141 <s> 英语水平 0.0000
-4.6141 <s> 荣获 0.0000
-4.6141 <s> 荣誉 0.0000
-4.3131 <s> 获 0.0000
-4.6141 <s> 获取 0.0000
-3.6599 <s> 获得 0.0000
-4.6141 <s> 著 0.0000
-4.6141 <s> 著名 0.0000
-4.6141 <s> 董宇茜 0.0000
-4.6141 <s> 蒋楠 0.0000
-4.6141 <s> 蒋译瑶 0.0000
-4.1370 <s> 蒙民伟 0.0000
-4.6141 <s> 蒲浩森 0.0000
-4.6141 <s> 蔚然 0.0000
-4.6141 <s> 蔡庆芃 0.0000
-4.6141 <s> 薛潇 0.0000
-4.3131 <s> 衡量 0.0000
-4.6141 <s> 补考 0.0000
-4.6141 <s> 表 0.0000
-4.6141 <s> 表格 0.0000
-4.1370 <s> 表现 0.0000
-3.7110 <s> 袁 0.0000
-2.6141 <s> 袁骁 0.0000
-3.7110 <s> 被 0.0000
-4.3131 <s> 要 0.0000
-3.8360 <s> 要求 0.0000
-4.6141 <s> 规划 0.0000
-3.7690 <s> 规定 0.0000
-4.3131 <s> 规范 0.0000
-4.6141 <s> 视为 0.0000
-4.6141 <s> 解决 0.0000
-4.6141 <s> 解释 0.0000
-4.6141 <s> 警卫队 0.0000
-4.6141 <s> 计入 0.0000
-2.6141 <s> 计入门 0.0000
-4.0121 <s> 计划 0.0000
-3.7110 <s> 计算 0.0000
-2.6141 <s> 计算复杂性 0.0000
-2.6141 <s> 计算学习理论 0.0000
-3.0231 <s> 计算机 0.0000
-2.6141 <s> 计算机入门 -0.0043
-2.6141 <s> 计算机应用数学 0.0000
-2.8217 <s> 计算机科学 0.0000
-2.6141 <s> 计算理论 0.0000
-2.6141 <s> 计算生物学 0.0000
-2.6141 <s> 计算经济学 0.0000
-4.6141 <s> 认为 0.0000
-4.3131 <s> 认证 0.0000
-4.6141 <s> 认识 0.0000
-4.6141 <s> 讨论 0.0000
-3.3837 <s> 讨论会 0.0000
-4.3131 <s> 训练 0.0000
-4.3131 <s> 记录 0.0000
-4.6141 <s> 记载 0.0000
-3.7110 <s> 许力文 0.0000
-2.6141 <s> 许荣 0.0000
-4.6141 <s> 论 0.0000
-3.8360 <s> 论文 0.0000
-4.6141 <s> 论证 0.0000
-2.6141 <s> 论证复杂性 0.0000
-4.1370 <s> 设计 0.0000
-4.6141 <s> 访问速度 0.0000
-4.6141 <s> 证 0.0000
-4.0121 <s> 证书 0.0000
-4.6141 <s> 证件 0.0000
-4.1370 <s> 证实 0.0000
-4.6141 <s> 证明 0.0000
-4.6141 <s> 评价 0.0000
-4.1370 <s> 评分 0.0000
-4.6141 <s> 评选 0.0000
-4.6141 <s> 译 0.0000
-4.6141 <s> 诚实 0.0000
-4.6141 <s> 该 0.0000
-4.6141 <s> 语言表达 0.0000
-4.3131 <s> 说明 0.0000
-3.7110 <s> 请 0.0000
-4.6141 <s> 请于 0.0000
-2.6013 <s> 请问 0.0000
-2.6141 <s> 课 -0.0084
-4.6141 <s> 课外 0.0000
-2.6141 <s> 课程 -0.0084
-4.6141 <s> 课表 0.0000
-2.6141 <s> 谁 0.0000
-4.1370 <s> 谁是 0.0000
-4.6141 <s> 调控 0.0000
-2.6141 <s> 谈亦东 0.0000
-4.3131 <s> 负责 0.0000
-4.6141 <s> 责任 0.0000
-4.6141 <s> 质量 0.0000
-3.6141 <s> 贺 0.0000
-4.6141 <s> 贾永政 0.0000
-3.1090 <s> 资格 0.0000
-4.6141 <s> 资格考试 0.0000
-4.6141 <s> 资源分配 0.0000
-4.6141 <s> 赛 0.0000
-4.6141 <s> 赵天骥 0.0000
-4.6141 <s> 赵晓斌 0.0000
-4.6141 <s> 赵琦 0.0000
-4.6141 <s> 超导 0.0000
-3.9151 <s> 超过 0.0000
-4.6141 <s> 越来越 0.0000
-4.6141 <s> 跃 0.0000
-4.6141 <s> 跨 0.0000
-4.6141 <s> 路 0.0000
-4.6141 <s> 路尧 0.0000
-4.6141 <s> 路由器 0.0000
-4.6141 <s> 身份 0.0000
-4.3131 <s> 身份证件 0.0000
-4.6141 <s> 身心健康 0.0000
-4.6141 <s> 转入 0.0000
-4.6141 <s> 转换 0.0000
-4.6141 <s> 转系 0.0000
-4.0121 <s> 辜勇 0.0000
-4.3131 <s> 过程 0.0000
-4.6141 <s> 运算 0.0000
-4.6141 <s> 运营 0.0000
-4.6141 <s> 近年来 0.0000
-4.3131 <s> 还 0.0000
-4.6141 <s> 这些 0.0000
-4.6141 <s> 进一步提高 0.0000
-4.6141 <s> 进取精神 0.0000
-4.6141 <s> 进展 0.0000
-3.5349 <s> 进行 0.0000
-4.6141 <s> 违法违纪 0.0000
-4.6141 <s> 追求 0.0000
-4.6141 <s> 适量 0.0000
-4.0121 <s> 选修 0.0000
-4.3131 <s> 选拔 0.0000
-4.6141 <s> 选者 0.0000
-4.6141 <s> 透明 0.0000
-3.9151 <s> 通信 0.0000
-4.3131 <s> 通知 0.0000
-2.6141 <s> 通讯复杂性 0.0000
-3.6141 <s> 通过 0.0000
-4.6141 <s> 速度 0.0000
-4.6141 <s> 造成 0.0000
-2.6141 <s> 逻辑和组合论 0.0000
-4.6141 <s> 逻辑思维 0.0000
-4.6141 <s> 遇到 0.0000
-4.3131 <s> 道德品质 0.0000
-4.6141 <s> 遴选 0.0000
-4.6141 <s> 遵照 0.0000
-4.6141 <s> 避开 0.0000
-4.6141 <s> 避错 0.0000
-4.3131 <s> 邮件 0.0000
-4.3131 <s> 邮件地址 0.0000
-4.6141 <s> 邮编 0.0000
-4.6141 <s> 郁昱 0.0000
-2.6141 <s> 郑波 0.0000
-4.6141 <s> 郑顺 0.0000
-4.6141 <s> 郜勋 0.0000
-4.6141 <s> 郝 0.0000
-4.6141 <s> 部 0.0000
-4.3131 <s> 部分 0.0000
-4.6141 <s> 部级 0.0000
-4.1370 <s> 郭 0.0000
-4.6141 <s> 郭光灿 0.0000
-4.6141 <s> 重修 0.0000
-4.6141 <s> 重大 0.0000
-4.6141 <s> 重大项目 0.0000
-4.6141 <s> 重庆大学 0.0000
-4.3131 <s> 重点 0.0000
-4.6141 <s> 重考 0.0000
-4.1370 <s> 重要 0.0000
-4.6141 <s> 重要性 0.0000
-2.8148 <s> 量子 0.0000
-2.6141 <s> 量子信息 0.0000
-2.6141 <s> 量子信息理论 0.0000
-2.6141 <s> 量子信息科学 0.0000
-2.6141 <s> 量子光学 0.0000
-2.6141 <s> 量子多体理论 0.0000
-2.6141 <s> 量子计算 0.0000
-3.5349 <s> 金刚石 0.0000
-4.6141 <s> 金奇 0.0000
-2.6141 <s> 金奇奂 0.0000
-4.0121 <s> 金逸飞 0.0000
-4.6141 <s> 钱玉麟 0.0000
-4.0121 <s> 门 0.0000
-3.7690 <s> 门次 0.0000
-4.1370 <s> 问题 0.0000
-4.6141 <s> 阐述 0.0000
-4.6141 <s> 阱 0.0000
-4.3131 <s> 阶段 0.0000
-4.6141 <s> 附 0.0000
-4.1370 <s> 附件 0.0000
-2.6141 <s> 陈卫 0.0000
-3.6141 <s> 陈康 0.0000
-3.8360 <s> 陈杉 0.0000
-2.6141 <s> 陈渝 0.0000
-4.6141 <s> 陈琨 0.0000
-4.6141 <s> 陈铬亮 0.0000
-4.6141 <s> 限制 0.0000
-4.1370 <s> 限定性 0.0000
-4.6141 <s> 限选 0.0000
-3.0343 <s> 院 0.0000
-4.3131 <s> 院内 0.0000
-4.3131 <s> 院士 0.0000
-4.6141 <s> 院校 0.0000
-3.6141 <s> 院系 0.0000
-4.6141 <s> 除 0.0000
-4.6141 <s> 除外 0.0000
-2.6141 <s> 随机学习 0.0000
-2.6141 <s> 随机网络优化 0.0000
-4.1370 <s> 需 0.0000
-4.6141 <s> 需向 0.0000
-4.6141 <s> 需提交 0.0000
-4.6141 <s> 需要 0.0000
-3.3588 <s> 青年 0.0000
-3.7690 <s> 静宁 0.0000
-4.3131 <s> 非学历 0.0000
-4.6141 <s> 非标准 0.0000
-4.1370 <s> 面向 0.0000
-3.3837 <s> 面试 0.0000
-4.6141 <s> 韩佳秀 0.0000
-4.1370 <s> 顶级 0.0000
-4.3131 <s> 项目 0.0000
-3.5349 <s> 顺 0.0000
-4.6141 <s> 顺序 0.0000
-4.6141 <s> 须 0.0000
-3.7110 <s> 顾钊铨 0.0000
-2.6141 <s> 顾麦然 0.0000
-3.5727 <s> 预研 0.0000
-4.6141 <s> 预言 0.0000
-4.3131 <s> 领域 0.0000
-4.1370 <s> 领导小组 0.0000
-4.3131 <s> 首席 0.0000
-4.1370 <s> 首次 0.0000
-3.1991 <s> 香港中文大学 0.0000
-3.6599 <s> 马家俊 0.0000
-4.6141 <s> 马悦驰 0.0000
-4.6141 <s> 马瑞 0.0000
-2.6141 <s> 马雄峰 0.0000
-4.6141 <s> 骞 0.0000
-4.6141 <s> 高到 0.0000
-4.6141 <s> 高度重视 0.0000
-4.6141 <s> 高校 0.0000
-4.6141 <s> 高水平 0.0000
-3.6141 <s> 高等 0.0000
-4.6141 <s> 高阳 0.0000
-4.6141 <s> 魏达 0.0000
-4.6141 <s> 麻省 0.0000
-4.6141 <s> 黄园园 0.0000
-4.0121 <s> 黄棱潇 0.0000
-2.6141 <s> 黄隆波 0.0000
-4.6141 <s> 龙 0.0000
-4.6141 <s> 龙翔 0.0000
-2.6141 <s> ？ 0.0000
-0.3010 ? </s> -0.3010
-0.3010 一 </s> -0.3010
-0.3010 一个 </s> -0.3010
-0.3010 一些 </s> -0.3010
-0.3010 一份 </s> -0.3010
-0.3010 一并 </s> -0.3010
-0.3010 一律 </s> -0.3010
-0.3010 一种 </s> -0.3010
-0.3010 一等奖 </s> -0.3010
-0.3010 一经 </s> -0.3010
-0.3010 一致性 </s> -0.3010
-0.3010 一般 </s> -0.3010
-0.3010 一门 </s> -0.3010
-0.3010 三 </s> -0.3010
-0.3010 三名 </s> -0.3010
-0.3010 三学 </s> -0.3010
-0.3010 三年 </s> -0.3010
-0.3010 三种 </s> -0.3010
-0.3010 上 </s> -0.3010
-0.3010 上个世纪 </s> -0.3010
-0.3010 上午 </s> -0.3010
-0.3010 上报 </s> -0.3010
-0.3010 上海 </s> -0.3010
-0.3010 上网 </s> -0.3010
-0.3054 上课 </s> -0.3010
-2.3054 上课 时间 -0.2989
-0.3010 上述 </s> -0.3010
-0.3010 下午 </s> -0.3010
-0.3010 下发 </s> -0.3010
-0.3010 下载 </s> -0.3010
-0.3010 下达 </s> -0.3010
-0.3010 不 </s> -0.3010
-0.3010 不予 </s> -0.3010
-0.3010 不及格 </s> -0.3010
-0.3010 不合格者 </s> -0.3010
-0.3010 不同 </s> -0.3010
-0.3010 不少 </s> -0.3010
-0.3010 不得 </s> -0.3010
-0.3010 不拘一格 </s> -0.3010
-0.3010 不算 </s> -0.3010
-0.3010 不能 </s> -0.3010
-0.3010 与 </s> -0.3010
-0.3010 与否 </s> -0.3010
-0.3010 专业 </s> -0.3010
-0.3010 专业学位 </s> -0.3010
-0.3010 专业知识 </s> -0.3010
-0.3010 专长 </s> -0.3010
-0.3010 且 </s> -0.3010
-0.3010 业务 </s> -0.3010
-0.3010 两个 </s> -0.3010
-0.3010 严格 </s> -0.3010
-0.3010 严马 </s> -0.3010
-0.3010 个 </s> -0.3010
-0.3010 个人 </s> -0.3010
-0.3010 个人信息 </s> -0.3010
-0.3010 个人简历 </s> -0.3010
-0.3010 中 </s> -0.3010
-0.3010 中国 </s> -0.3010
-0.3010 中国物理学会 </s> -0.3010
-0.3010 中国科学院 </s> -0.3010
-0.3010 中心 </s> -0.3010
-0.3010 中文 </s> -0.3010
-0.3010 中有 </s> -0.3010
-0.3010 中科大 </s> -0.3010
-0.3010 中组部 </s> -0.3010
-0.3010 中长期 </s> -0.3010
-0.3010 丹麦 </s> -0.3010
-0.3010 为 </s> -0.3010
-0.3010 主任 </s> -0.3010
-0.3010 主要 </s> -0.3010
-0.3010 主页 </s> -0.3010
-0.3010 举办 </s> -0.3010
-0.3010 之 </s> -0.3010
-0.3010 之一 </s> -0.3010
-0.3010 之内 </s> -0.3010
-0.3010 之前 </s> -0.3010
-0.3010 之后 </s> -0.3010
-0.3010 之日 </s> -0.3010
-0.3010 乔友明 </s> -0.3010
-0.3010 也 </s> -0.3010
-0.3010 习题课 </s> -0.3010
-0.3010 书面 </s> -0.3010
-0.3010 书面材料 </s> -0.3010
-0.3010 了 </s> -0.3010
-0.3010 了解 </s> -0.3010
-0.3010 予以 </s> -0.3010
-0.3010 二 </s> -0.3010
-0.3010 二次 </s> -0.3010
-0.3010 二等奖 </s> -0.3010
-0.3010 于 </s> -0.3010
-0.3010 云计算 </s> -0.3010
-0.3010 五 </s> -0.3010
-0.3010 交 </s> -0.3010
-0.3010 交叉 </s> -0.3010
-0.3139 交叉信息院 </s> -0.3010
-2.3139 交叉信息院 是 -0.2947
-2.0128 交叉信息院 的 -0.2970
-0.3010 交换 </s> -0.3010
-0.3010 亦然 </s> -0.3010
-0.3010 亲自 </s> -0.3010
-0.3010 人们 </s> -0.3010
-0.3010 人员 </s> -0.3010
-0.3010 人工智能 </s> -0.3010
-0.3139 什么 </s> -0.3010
-2.3139 什么 时候 -0.2989
-2.0128 什么 ？ 0.0000
-0.3010 仅指 </s> -0.3010
-0.3010 仅限 </s> -0.3010
-0.3010 仇丽媛 </s> -0.3010
-0.3010 介绍 </s> -0.3010
-0.3010 从 </s> -0.3010
-0.3010 从事 </s> -0.3010
-0.3010 他 </s> -0.3010
-0.3010 他人 </s> -0.3010
-0.3010 付荣 </s> -0.3010
-0.3010 以 </s> -0.3010
-0.3010 以上 </s> -0.3010
-0.3010 以下 </s> -0.3010
-0.3010 以及 </s> -0.3010
-0.3010 以后 </s> -0.3010
-0.3010 以色 </s> -0.3010
-0.3010 以色列 </s> -0.3010
-0.3010 任 </s> -0.3010
-0.3010 任何 </s> -0.3010
-0.3010 任课教师 </s> -0.3010
-0.3010 优化 </s> -0.3010
-0.3010 优异者 </s> -0.3010
-0.3010 优秀 </s> -0.3010
-0.3010 优秀教师 </s> -0.3010
-0.3010 优良 </s> -0.3010
-0.3010 会议 </s> -0.3010
-0.3010 传感器 </s> -0.3010
-0.3010 传统 </s> -0.3010
-0.3010 传输 </s> -0.3010
-0.3010 伯里克利 </s> -0.3010
-0.3010 但 </s> -0.3010
-0.3010 低 </s> -0.3010
-0.3010 低于 </s> -0.3010
-0.3010 体 </s> -0.3010
-0.3010 体及 </s> -0.3010
-0.3010 体检 </s> -0.3010
-0.3010 何丽 </s> -0.3010
-0.3010 何利奖 </s> -0.3010
-0.3010 何昊青 </s> -0.3010
-0.3010 何梁 </s> -0.3010
-0.3010 作为 </s> -0.3010
-0.3010 作弊 </s> -0.3010
-0.3010 作答 </s> -0.3010
-0.3010 侯攀宇 </s> -0.3010
-0.3010 便于 </s> -0.3010
-0.3010 保证质量 </s> -0.3010
-0.3010 信息 </s> -0.3010
-0.3010 信息安全 </s> -0.3010
-0.3010 信息技术 </s> -0.3010
-0.3010 信息理论 </s> -0.3010
-0.3010 做 </s> -0.3010
-0.3010 做到 </s> -0.3010
-0.3010 傅昊 </s> -0.3010
-0.3010 元熙 </s> -0.3010
-0.3010 先进 </s> -0.3010
-0.3010 光 </s> -0.3010
-0.3010 光学 </s> -0.3010
-0.3010 光纤 </s> -0.3010
-0.3010 克隆 </s> -0.3010
-0.3010 免试 </s> -0.3010
-0.3010 免试生 </s> -0.3010
-0.3010 入学 </s> -0.3010
-0.3010 入学考试 </s> -0.3010
-0.3010 入选 </s> -0.3010
-0.3010 全 </s> -0.3010
-0.3010 全国 </s> -0.3010
-0.3010 全新 </s> -0.3010
-0.3010 全部 </s> -0.3010
-0.3010 全面 </s> -0.3010
-0.3010 八十年代 </s> -0.3010
-0.3010 公司 </s> -0.3010
-0.3010 公告 </s> -0.3010
-0.3010 公布 </s> -0.3010
-0.3010 公平 </s> -0.3010
-0.3010 公开 </s> -0.3010
-0.3010 公式 </s> -0.3010
-0.3010 公正 </s> -0.3010
-0.3010 公示 </s> -0.3010
-0.3010 公里 </s> -0.3010
-0.3010 关于 </s> -0.3010
-0.3010 关注 </s> -0.3010
-0.3010 关键部件 </s> -0.3010
-0.3010 兴趣 </s> -0.3010
-0.3010 其 </s> -0.3010
-0.3010 其中 </s> -0.3010
-0.3010 其他 </s> -0.3010
-0.3010 具体 </s> -0.3010
-0.3010 具体情况 </s> -0.3010
-0.3010 具名 </s> -0.3010
-0.3010 具备 </s> -0.3010
-0.3010 具有 </s> -0.3010
-0.3010 兼职 </s> -0.3010
-0.3010 兼职教授 </s> -0.3010
-0.3010 内 </s> -0.3010
-0.3010 内容 </s> -0.3010
-0.3010 再 </s> -0.3010
-0.3010 军官证 </s> -0.3010
-0.3010 军界 </s> -0.3010
-0.3010 冯建华 </s> -0.3010
-0.3010 决定 </s> -0.3010
-0.3010 冷 </s> -0.3010
-0.3010 准备 </s> -0.3010
-0.3010 准考证 </s> -0.3010
-0.3010 凝聚态物理 </s> -0.3010
-0.3010 几十年 </s> -0.3010
-0.3010 凡 </s> -0.3010
-0.3010 凡未 </s> -0.3010
-0.3010 凸显 </s> -0.3010
-0.3010 出 </s> -0.3010
-0.3010 出国 </s> -0.3010
-0.3010 出版 </s> -0.3010
-0.3010 出现 </s> -0.3010
-0.3010 出示 </s> -0.3010
-0.3010 出较 </s> -0.3010
-0.3010 分 </s> -0.3010
-0.3010 分别 </s> -0.3010
-0.3010 分发 </s> -0.3010
-0.3010 分后 </s> -0.3010
-0.3010 分布式系统 </s> -0.3010
-0.3010 分布式计算 </s> -0.3010
-0.3010 分数 </s> -0.3010
-0.3010 分析 </s> -0.3010
-0.3010 分校 </s> -0.3010
-0.3010 分者 </s> -0.3010
-0.3010 分钟 </s> -0.3010
-0.3010 刊物 </s> -0.3010
-0.3010 刘可 </s> -0.3010
-0.3010 刘宇 </s> -0.3010
-0.3010 刘思学 </s> -0.3010
-0.3010 刘政哲 </s> -0.3010
-0.3010 刘智伟 </s> -0.3010
-0.3010 刘艺成 </s> -0.3010
-0.3010 则 </s> -0.3010
-0.3010 刚 </s> -0.3010
-0.3010 创 </s> -0.3010
-0.3010 创新 </s> -0.3010
-0.3010 创新能力 </s> -0.3010
-0.3010 初探 </s> -0.3010
-0.3010 初试 </s> -0.3010
-0.3010 初选 </s> -0.3010
-0.3010 到 </s> -0.3010
-0.3010 制定 </s> -0.3010
-0.3010 前 </s> -0.3010
-0.3010 前沿 </s> -0.3010
-0.3010 副研究员 </s> -0.3010
-0.3010 剽窃 </s> -0.3010
-0.3010 办 </s> -0.3010
-0.3010 办公 </s> -0.3010
-0.3010 办公室 </s> -0.3010
-0.3010 办对 </s> -0.3010
-0.3010 办法 </s> -0.3010
-0.3010 办理 </s> -0.3010
-0.3010 加以 </s> -0.3010
-0.3010 加入 </s> -0.3010
-0.3010 加强 </s> -0.3010
-0.3010 加拿大 </s> -0.3010
-0.3010 加盖 </s> -0.3010
-0.3010 加试 </s> -0.3010
-0.3010 助教 </s> -0.3010
-0.3010 助理 </s> -0.3010
-0.3010 助理教授 </s> -0.3010
-0.3010 助理研究员 </s> -0.3010
-0.3010 勒布 </s> -0.3010
-0.3010 包含 </s> -0.3010
-0.3010 包括 </s> -0.3010
-0.3010 北京大学 </s> -0.3010
-0.3010 区 </s> -0.3010
-0.3010 千人 </s> -0.3010
-0.3010 华 </s> -0.3010
-0.3010 华强胜 </s> -0.3010
-0.3010 协会 </s> -0.3010
-0.3010 协商 </s> -0.3010
-0.3010 卓越 </s> -0.3010
-0.3010 单 </s> -0.3010
-0.3010 单位 </s> -0.3010
-0.3010 单向 </s> -0.3010
-0.3010 单证 </s> -0.3010
-0.3010 南加州 </s> -0.3010
-0.3010 博士 </s> -0.3010
-0.3010 博士后 </s> -0.3010
-0.3010 博士学位 </s> -0.3010
-0.3010 博士生 </s> -0.3010
-0.3010 博士论文 </s> -0.3010
-0.3010 博导 </s> -0.3010
-0.3010 博弈论 </s> -0.3010
-0.3010 卡斯 </s> -0.3010
-0.3010 卡斯特 </s> -0.3010
-0.3010 即 </s> -0.3010
-0.3010 压缩感知 </s> -0.3010
-0.3010 原件 </s> -0.3010
-0.3010 原则 </s> -0.3010
-0.3010 原子物理 </s> -0.3010
-0.3010 原理 </s> -0.3010
-0.3010 去掉 </s> -0.3010
-0.3010 参与 </s> -0.3010
-0.3010 参加 </s> -0.3010
-0.3010 参照 </s> -0.3010
-0.3010 参考 </s> -0.3010
-0.3010 参见 </s> -0.3010
-0.3010 及 </s> -0.3010
-0.3010 及其 </s> -0.3010
-0.3010 及格 </s> -0.3010
-0.3010 及限选 </s> -0.3010
-0.3010 双证 </s> -0.3010
-0.3010 反映 </s> -0.3010
-0.3010 发展 </s> -0.3010
-0.3010 发展潜力 </s> -0.3010
-0.3010 发明 </s> -0.3010
-0.3010 发现 </s> -0.3010
-0.3010 发表 </s> -0.3010
-0.3010 发送至 </s> -0.3010
-0.3010 取 </s> -0.3010
-0.3010 取得 </s> -0.3010
-0.3010 取消 </s> -0.3010
-0.3010 受 </s> -0.3010
-0.3010 受到 </s> -0.3010
-0.3010 另发 </s> -0.3010
-0.3010 另外 </s> -0.3010
-0.3010 另行通知 </s> -0.3010
-0.3010 只 </s> -0.3010
-0.3010 只能 </s> -0.3010
-0.3010 召开 </s> -0.3010
-0.3010 可 </s> -0.3010
-0.3010 可不 </s> -0.3010
-0.3010 可以 </s> -0.3010
-0.3010 右上角 </s> -0.3010
-0.3010 号 </s> -0.3010
-0.3010 各 </s> -0.3010
-0.3010 各位 </s> -0.3010
-0.3010 各类 </s> -0.3010
-0.3010 合格 </s> -0.3010
-0.3010 同学 </s> -0.3010
-0.3010 同时 </s> -0.3010
-0.3010 同等学力 </s> -0.3010
-0.3010 名 </s> -0.3010
-0.3010 名单 </s> -0.3010
-0.3010 名额 </s> -0.3010
-0.3010 后 </s> -0.3010
-0.3010 后果 </s> -0.3010
-0.3010 向 </s> -0.3010
-0.3010 向勇 </s> -0.3010
-0.3010 吕定 </s> -0.3010
-0.3010 吕曰洲 </s> -0.3010
-0.3010 含 </s> -0.3010
-0.3010 吴建平 </s> -0.3010
-0.3010 吴成 </s> -0.3010
-0.3010 吴浩铮 </s> -0.3010
-0.3010 吴辰晔 </s> -0.3010
-0.3010 周一 </s> -0.3010
-0.3010 周三 </s> -0.3010
-0.3010 周二 </s> -0.3010
-0.3010 周五 </s> -0.3010
-0.3010 周四 </s> -0.3010
-0.3010 周忠军 </s> -0.3010
-0.3010 周梦宇 </s> -0.3010
-0.3010 周泓伊 </s> -0.3010
-0.3010 周游 </s> -0.3010
-0.3010 命名 </s> -0.3010
-0.3010 和 </s> -0.3010
-0.3010 咨询 </s> -0.3010
-0.3010 咨询电话 </s> -0.3010
-0.3010 品行 </s> -0.3010
-0.3010 哈希 </s> -0.3010
-0.3054 哪些 </s> -0.3010
-2.3054 哪些 ？ 0.0000
-0.3010 唐平 </s> -0.3010
-0.3010 唐平中 </s> -0.3010
-0.3010 唐邦晟 </s> -0.3010
-0.3010 商业 </s> -0.3010
-0.3010 商用 </s> -0.3010
-0.3010 四 </s> -0.3010
-0.3010 四年级 </s> -0.3010
-0.3010 回答 </s> -0.3010
-0.3010 因 </s> -0.3010
-0.3010 因而 </s> -0.3010
-0.3010 困难 </s> -0.3010
-0.3010 国内外 </s> -0.3010
-0.3010 国外 </s> -0.3010
-0.3010 国家 </s> -0.3010
-0.3010 国家科技部 </s> -0.3010
-0.3010 国计民生 </s> -0.3010
-0.3010 国际 </s> -0.3010
-0.3010 图形学 </s> -0.3010
-0.3010 图灵 </s> -0.3010
-0.3010 在 </s> -0.3010
-0.3010 在线学习与优化 </s> -0.3010
-0.3010 在职 </s> -0.3010
-0.3010 在职人员 </s> -0.3010
-0.3010 在读 </s> -0.3010
-0.3010 地址 </s> -0.3010
-0.3010 地点 </s> -0.3010
-0.3010 场合 </s> -0.3010
-0.3010 均 </s> -0.3010
-0.3010 坑易澎 </s> -0.3010
-0.3010 坚持 </s> -0.3010
-0.3010 坚阳 </s> -0.3010
-0.3010 培养 </s> -0.3010
-0.3010 基 </s> -0.3010
-0.3010 基本 </s> -0.3010
-0.3010 基础 </s> -0.3010
-0.3010 基础知识 </s> -0.3010
-0.3010 基金委 </s> -0.3010
-0.3010 填写 </s> -0.3010
-0.3010 填报 </s> -0.3010
-0.3010 填表 </s> -0.3010
-0.3010 境外 </s> -0.3010
-0.3010 处分 </s> -0.3010
-0.3010 处理 </s> -0.3010
-0.3010 处理器 </s> -0.3010
-0.3010 备查 </s> -0.3010
-0.3010 复印件 </s> -0.3010
-0.3010 复审 </s> -0.3010
-0.3010 复杂 </s> -0.3010
-0.3010 复试 </s> -0.3010
-0.3010 夏令营 </s> -0.3010
-0.3010 夏庆堂 </s> -0.3010
-0.3010 外 </s> -0.3010
-0.3010 外校 </s> -0.3010
-0.3010 外语水平 </s> -0.3010
-0.3010 多 </s> -0.3010
-0.3010 多主体系统 </s> -0.3010
-0.3010 多功能厅 </s> -0.3010
-0.3010 多篇 </s> -0.3010
-0.3010 大 </s> -0.3010
-0.3010 大学 </s> -0.3010
-0.3010 大学教授 </s> -0.3010
-0.3010 大学生 </s> -0.3010
-0.3010 大数据 </s> -0.3010
-0.3010 天一 </s> -0.3010
-0.3010 失效 </s> -0.3010
-0.3010 奂 </s> -0.3010
-0.3010 奖 </s> -0.3010
-0.3010 奖励 </s> -0.3010
-0.3010 女 </s> -0.3010
-0.3010 好 </s> -0.3010
-0.3010 好的 </s> -0.3010
-0.3010 如 </s> -0.3010
-0.3010 如下 </s> -0.3010
-0.3010 妥存 </s> -0.3010
-0.3010 姓名 </s> -0.3010
-0.3010 委员会 </s> -0.3010
-0.3010 姚 </s> -0.3010
-0.3010 姚兆明 </s> -0.3010
-0.3054 姚期智 </s> -0.3010
-2.3054 姚期智 的 -0.2990
-0.3010 姚班 </s> -0.3010
-0.3010 子 </s> -0.3010
-0.3010 孙晓明 </s> -0.3010
-0.3010 孙麓 </s> -0.3010
-0.3010 孙麓岩 </s> -0.3010
-0.3010 学 </s> -0.3010
-0.3010 学习 </s> -0.3010
-0.3010 学习成绩 </s> -0.3010
-0.3010 学会 </s> -0.3010
-0.3010 学位 </s> -0.3010
-0.3010 学位证 </s> -0.3010
-0.3010 学位证书 </s> -0.3010
-0.3010 学分 </s> -0.3010
-0.3010 学历 </s> -0.3010
-0.3010 学士 </s> -0.3010
-0.3010 学士学位 </s> -0.3010
-0.3010 学期 </s> -0.3010
-0.3010 学期末 </s> -0.3010
-0.3010 学术 </s> -0.3010
-0.3010 学术会议 </s> -0.3010
-0.3010 学术期刊 </s> -0.3010
-0.3010 学术论文 </s> -0.3010
-0.3010 学校 </s> -0.3010
-0.3010 学生 </s> -0.3010
-0.3010 学生名单 </s> -0.3010
-0.3010 学生证 </s> -0.3010
-0.3010 学界 </s> -0.3010
-0.3010 学科 </s> -0.3010
-0.3010 学科专业 </s> -0.3010
-0.3010 学籍 </s> -0.3010
-0.3010 学院 </s> -0.3010
-0.3010 学风 </s> -0.3010
-0.3010 宁缺勿滥 </s> -0.3010
-0.3010 守信 </s> -0.3010
-0.3010 安徽 </s> -0.3010
-0.3010 安徽省 </s> -0.3010
-0.3010 安排 </s> -0.3010
-0.3010 安波 </s> -0.3010
-0.3010 安硕明 </s> -0.3010
-0.3010 宋祎璞 </s> -0.3010
-0.3010 完成 </s> -0.3010
-0.3010 完成学业 </s> -0.3010
-0.3010 实施办法 </s> -0.3010
-0.3010 实现 </s> -0.3010
-0.3010 实践 </s> -0.3010
-0.3010 实验 </s> -0.3010
-0.3010 实验室 </s> -0.3010
-0.3010 实验班 </s> -0.3010
-0.3010 审查 </s> -0.3010
-0.3010 审核 </s> -0.3010
-0.3010 审稿人 </s> -0.3010
-0.3010 室 </s> -0.3010
-0.3010 密码 </s> -0.3010
-0.3010 密码协议 </s> -0.3010
-0.3010 密码学 </s> -0.3010
-0.3010 密码学基础 </s> -0.3010
-0.3010 密码的基础学 </s> -0.3010
-0.3010 密苏里 </s> -0.3010
-0.3010 密钥 </s> -0.3010
-0.3010 对 </s> -0.3010
-0.3010 对于 </s> -0.3010
-0.3010 对原 </s> -0.3010
-0.3010 导师 </s> -0.3010
-0.3010 将 </s> -0.3010
-0.3010 小于 </s> -0.3010
-0.3010 小组 </s> -0.3010
-0.3010 小组会议 </s> -0.3010
-0.3010 尚未 </s> -0.3010
-0.3010 就是 </s> -0.3010
-0.3010 尹璋 </s> -0.3010
-0.3010 尹璋琦 </s> -0.3010
-0.3010 尹璋琪 </s> -0.3010
-0.3010 居民身份证 </s> -0.3010
-0.3010 属于 </s> -0.3010
-0.3010 履行 </s> -0.3010
-0.3010 岩 </s> -0.3010
-0.3010 工作 </s> -0.3010
-0.3010 工作日 </s> -0.3010
-0.3010 工作者 </s> -0.3010
-0.3010 左斌 </s> -0.3010
-0.3010 左淞 </s> -0.3010
-0.3010 巨大 </s> -0.3010
-0.3010 巩慧超 </s> -0.3010
-0.3010 已 </s> -0.3010
-0.3010 已修 </s> -0.3010
-0.3010 已经 </s> -0.3010
-0.3010 巴黎 </s> -0.3010
-0.3010 师范学校 </s> -0.3010
-0.3010 希望 </s> -0.3010
-0.3096 帕帕 </s> -0.3010
-2.3096 帕帕 是谁 0.0000
-2.3096 帕帕 ？ 0.0000
-0.3010 带 </s> -0.3010
-0.3010 带头人 </s> -0.3010
-0.3010 常 </s> -0.3010
-0.3010 常炜 </s> -0.3010
-0.3010 常秀英 </s> -0.3010
-0.3010 干部 </s> -0.3010
-0.3010 平均 </s> -0.3010
-0.3010 平均分 </s> -0.3010
-0.3010 平时 </s> -0.3010
-0.3010 年 </s> -0.3010
-0.3010 年会 </s> -0.3010
-0.3010 并 </s> -0.3010
-0.3010 序号 </s> -0.3010
-0.3010 应 </s> -0.3010
-0.3010 应对 </s> -0.3010
-0.3010 应届 </s> -0.3010
-0.3010 应届生 </s> -0.3010
-0.3010 应用 </s> -0.3010
-0.3010 廉茶铉 </s> -0.3010
-0.3010 延庆 </s> -0.3010
-0.3010 开 </s> -0.3010
-0.3010 开具 </s> -0.3010
-0.3010 开始 </s> -0.3010
-0.3010 异议 </s> -0.3010
-0.3010 引发 </s> -0.3010
-0.3010 张 </s> -0.3010
-0.3010 张伯威 </s> -0.3010
-0.3010 张君华 </s> -0.3010
-0.3010 张宽 </s> -0.3010
-0.3010 张帅宁 </s> -0.3010
-0.3010 张振 </s> -0.3010
-0.3010 张捷 </s> -0.3010
-0.3010 张文纲 </s> -0.3010
-0.3010 张昆玮 </s> -0.3010
-0.3010 张炀 </s> -0.3010
-0.3010 张翔 </s> -0.3010
-0.3010 张贴 </s> -0.3010
-0.3010 张赛 </s> -0.3010
-0.3010 张静宁 </s> -0.3010
-0.3010 强 </s> -0.3010
-0.3010 强胜 </s> -0.3010
-0.3010 当前 </s> -0.3010
-0.3010 当时 </s> -0.3010
-0.3010 录取 </s> -0.3010
-0.3010 录取名单 </s> -0.3010
-0.3010 形式 </s> -0.3010
-0.3010 彭 </s> -0.3010
-0.3010 影响 </s> -0.3010
-0.3010 待 </s> -0.3010
-0.3010 徇私舞弊 </s> -0.3010
-0.3010 徐佳 </s> -0.3010
-0.3010 徐源 </s> -0.3010
-0.3010 徐熙炜 </s> -0.3010
-0.3010 徐葳 </s> -0.3010
-0.3010 微腔 </s> -0.3010
-0.3010 德智体 </s> -0.3010
-0.3010 德梅洛 </s> -0.3010
-0.3010 必修 </s> -0.3010
-0.3010 必将 </s> -0.3010
-0.3010 必须 </s> -0.3010
-0.3010 志愿 </s> -0.3010
-0.3010 快递 </s> -0.3010
-0.3181 怎么样 </s> -0.3010
-1.7160 怎么样 ？ 0.0000
-0.3010 思想 </s> -0.3010
-0.3010 性别 </s> -0.3010
-0.3010 总 </s> -0.3010
-0.3010 总分 </s> -0.3010
-0.3010 总学 </s> -0.3010
-0.3010 总成绩 </s> -0.3010
-0.3010 总数 </s> -0.3010
-0.3010 情况 </s> -0.3010
-0.3010 愈发 </s> -0.3010
-0.3010 意大利 </s> -0.3010
-0.3010 意见 </s> -0.3010
-0.3010 意识 </s> -0.3010
-0.3010 成 </s> -0.3010
-0.3010 成为 </s> -0.3010
-0.3010 成功 </s> -0.3010
-0.3010 成员 </s> -0.3010
-0.3010 成就奖 </s> -0.3010
-0.3010 成果 </s> -0.3010
-0.3010 成立 </s> -0.3010
-0.3010 成绩 </s> -0.3010
-0.3010 成绩单 </s> -0.3010
-0.3010 成绩排名 </s> -0.3010
-0.3010 成都 </s> -0.3010
-0.3010 我院 </s> -0.3010
-0.3010 或 </s> -0.3010
-0.3010 戚啸 </s> -0.3010
-0.3010 戴 </s> -0.3010
-0.3010 房智轩 </s> -0.3010
-0.3010 所 </s> -0.3010
-0.3010 所在 </s> -0.3010
-0.3010 所有 </s> -0.3010
-0.3010 所谓 </s> -0.3010
-0.3010 手续 </s> -0.3010
-0.3010 才能 </s> -0.3010
-0.3010 打包 </s> -0.3010
-0.3010 打印 </s> -0.3010
-0.3010 执行 </s> -0.3010
-0.3010 承认 </s> -0.3010
-0.3010 承诺 </s> -0.3010
-0.3010 技术 </s> -0.3010
-0.3010 抓紧时间 </s> -0.3010
-0.3010 护照 </s> -0.3010
-0.3010 报 </s> -0.3010
-0.3010 报名 </s> -0.3010
-0.3010 报名处 </s> -0.3010
-0.3010 报名表 </s> -0.3010
-0.3010 报告 </s> -0.3010
-0.3010 报考 </s> -0.3010
-0.3010 抯 </s> -0.3010
-0.3010 抰 </s> -0.3010
-0.3010 担任 </s> -0.3010
-0.3010 招收 </s> -0.3010
-0.3010 招生 </s> -0.3010
-0.3010 招生简章 </s> -0.3010
-0.3010 拟 </s> -0.3010
-0.3010 择优 </s> -0.3010
-0.3010 择优录取 </s> -0.3010
-0.3010 拿 </s> -0.3010
-0.3010 指导思想 </s> -0.3010
-0.3010 指导老师 </s> -0.3010
-0.3010 按 </s> -0.3010
-0.3010 按照 </s> -0.3010
-0.3010 挖掘 </s> -0.3010
-0.3010 掌握情况 </s> -0.3010
-0.3010 排名 </s> -0.3010
-0.3010 接收 </s> -0.3010
-0.3010 推免 </s> -0.3010
-0.3010 推博 </s> -0.3010
-0.3010 推导 </s> -0.3010
-0.3010 推研 </s> -0.3010
-0.3010 推硕 </s> -0.3010
-0.3010 推荐 </s> -0.3010
-0.3010 推荐信 </s> -0.3010
-0.3010 提交 </s> -0.3010
-0.3010 提供 </s> -0.3010
-0.3010 提出 </s> -0.3010
-0.3010 提前 </s> -0.3010
-0.3010 提问 </s> -0.3010
-0.3010 携带 </s> -0.3010
-0.3010 摩尔 </s> -0.3010
-0.3010 操作 </s> -0.3010
-0.3010 操作系统 </s> -0.3010
-0.3010 攻读 </s> -0.3010
-0.3010 放宽 </s> -0.3010
-0.3010 政治 </s> -0.3010
-0.3010 政治素质 </s> -0.3010
-0.3010 政界 </s> -0.3010
-0.3010 效率 </s> -0.3010
-0.3010 教务 </s> -0.3010
-0.3010 教学 </s> -0.3010
-0.3010 教授 </s> -0.3010
-0.3010 教研组 </s> -0.3010
-0.3010 教育 </s> -0.3010
-0.3010 教育部 </s> -0.3010
-0.3010 数据中心网络 </s> -0.3010
-0.3010 数据库 </s> -0.3010
-0.3010 数据结构 </s> -0.3010
-0.3010 文件 </s> -0.3010
-0.3010 文化 </s> -0.3010
-0.3010 文康 </s> -0.3010
-0.3010 文职 </s> -0.3010
-0.3010 新 </s> -0.3010
-0.3010 新型 </s> -0.3010
-0.3010 新星 </s> -0.3010
-0.3010 方兴未艾 </s> -0.3010
-0.3010 方可 </s> -0.3010
-0.3010 方向 </s> -0.3010
-0.3010 方式 </s> -0.3010
-0.3010 方案 </s> -0.3010
-0.3010 方雯逸 </s> -0.3010
-0.3010 方面 </s> -0.3010
-0.3010 无 </s> -0.3010
-0.3010 无线 </s> -0.3010
-0.3010 日 </s> -0.3010
-0.3010 日前 </s> -0.3010
-0.3010 日本 </s> -0.3010
-0.3010 日程 </s> -0.3010
-0.3010 时 </s> -0.3010
-0.3010 时代 </s> -0.3010
-0.3054 时候 </s> -0.3010
-2.3054 时候 ？ 0.0000
-0.3054 时间 </s> -0.3010
-2.3054 时间 是 -0.2947
-0.3010 时须 </s> -0.3010
-0.3010 星期二 </s> -0.3010
-0.3010 星期五 </s> -0.3010
-0.3010 春季 </s> -0.3010
-0.3139 是 </s> -0.3010
-1.8367 是 什么 -0.2947
-0.3010 是谁 ？ 0.0000
-0.3010 普博 </s> -0.3010
-0.3010 普博生 </s> -0.3010
-0.3010 智能 </s> -0.3010
-0.3010 智能电网 </s> -0.3010
-0.3010 暂 </s> -0.3010
-0.3010 曹玮 </s> -0.3010
-0.3010 曹竹 </s> -0.3010
-0.3010 曾 </s> -0.3010
-0.3010 曾坚阳 </s> -0.3010
-0.3010 曾经 </s> -0.3010
-0.3010 曾驭 </s> -0.3010
-0.3010 最低 </s> -0.3010
-0.3010 最佳 </s> -0.3010
-0.3010 最大 </s> -0.3010
-0.3010 最终 </s> -0.3010
-0.3010 最迟 </s> -0.3010
-0.3010 最高分 </s> -0.3010
-0.3010 月 </s> -0.3010
-0.3054 有 </s> -0.3010
-2.3054 有 哪些 -0.2989
-0.3010 有关 </s> -0.3010
-0.3010 有效 </s> -0.3010
-0.3010 有望 </s> -0.3010
-0.3010 有近 </s> -0.3010
-0.3010 服务中心 </s> -0.3010
-0.3010 期 </s> -0.3010
-0.3010 期为 </s> -0.3010
-0.3010 期刊 </s> -0.3010
-0.3010 期间 </s> -0.3010
-0.3010 未 </s> -0.3010
-0.3010 未受 </s> -0.3010
-0.3010 本 </s> -0.3010
-0.3010 本人 </s> -0.3010
-0.3010 本次 </s> -0.3010
-0.3010 本科 </s> -0.3010
-0.3010 本科生 </s> -0.3010
-0.3010 朱利欧 </s> -0.3010
-0.3010 朱诗亮 </s> -0.3010
-0.3010 机 </s> -0.3010
-0.3010 机制设计 </s> -0.3010
-0.3010 机和普 </s> -0.3010
-0.3010 机器 </s> -0.3010
-0.3010 机器学习 </s> -0.3010
-0.3010 机器翻译 </s> -0.3010
-0.3010 李 </s> -0.3010
-0.3010 李孚 </s> -0.3010
-0.3181 李建 </s> -0.3010
-2.3181 李建 是谁 0.0000
-2.0170 李建 的 -0.2928
-2.3181 李建 ？ 0.0000
-0.3010 李志泽 </s> -0.3010
-0.3010 李志远 </s> -0.3010
-0.3010 李昕泽 </s> -0.3010
-0.3010 李瑞国 </s> -0.3010
-0.3010 李艺 </s> -0.3010
-0.3010 材料 </s> -0.3010
-0.3010 条件 </s> -0.3010
-0.3010 条款 </s> -0.3010
-0.3010 来 </s> -0.3010
-0.3010 杨光 </s> -0.3010
-0.3010 杨升浩 </s> -0.3010
-0.3010 杨宇翔 </s> -0.3010
-0.3010 杨程然 </s> -0.3010
-0.3010 杨菁林 </s> -0.3010
-0.3010 杨蒿翔 </s> -0.3010
-0.3010 杰出 </s> -0.3010
-0.3010 杰拉尔 </s> -0.3010
-0.3010 极大 </s> -0.3010
-0.3010 查出 </s> -0.3010
-0.3010 标准 </s> -0.3010
-0.3010 栏目 </s> -0.3010
-0.3010 校内 </s> -0.3010
-0.3010 校内外 </s> -0.3010
-0.3010 校级 </s> -0.3010
-0.3010 校纪 </s> -0.3010
-0.3010 校规 </s> -0.3010
-0.3010 核心 </s> -0.3010
-0.3010 根据 </s> -0.3010
-0.3010 格式 </s> -0.3010
-0.3010 档案 </s> -0.3010
-0.3010 楊偉豪 </s> -0.3010
-0.3010 楼 </s> -0.3010
-0.3010 概念 </s> -0.3010
-0.3010 概率 </s> -0.3010
-0.3010 模型 </s> -0.3010
-0.3010 模式 </s> -0.3010
-0.3010 次 </s> -0.3010
-0.3010 次数 </s> -0.3010
-0.3010 正式 </s> -0.3010
-0.3010 此类 </s> -0.3010
-0.3010 段 </s> -0.3010
-0.3010 段路明 </s> -0.3010
-0.3010 每个 </s> -0.3010
-0.3010 每位 </s> -0.3010
-0.3010 每生 </s> -0.3010
-0.3010 每组 </s> -0.3010
-0.3010 毕业 </s> -0.3010
-0.3010 毕业生 </s> -0.3010
-0.3010 毕业证 </s> -0.3010
-0.3010 毕业证书 </s> -0.3010
-0.3010 汪野 </s> -0.3010
-0.3010 沈 </s> -0.3010
-0.3010 沈杨超 </s> -0.3010
-0.3010 沈穎祺 </s> -0.3010
-0.3010 没有 </s> -0.3010
-0.3010 法国 </s> -0.3010
-0.3010 注 </s> -0.3010
-0.3010 注意事项 </s> -0.3010
-0.3010 注明 </s> -0.3010
-0.3010 注重 </s> -0.3010
-0.3010 洛阳 </s> -0.3010
-0.3010 活动 </s> -0.3010
-0.3010 流程 </s> -0.3010
-0.3010 测评 </s> -0.3010
-0.3010 海岸 </s> -0.3010
-0.3010 海涛 </s> -0.3010
-0.3010 涉及 </s> -0.3010
-0.3010 淦 </s> -0.3010
-0.3010 清华 </s> -0.3010
-0.3010 清华大学 </s> -0.3010
-0.3010 清华学堂 </s> -0.3010
-0.3010 清华学堂102 </s> -0.3010
-0.3010 清华学堂112 </s> -0.3010
-0.3010 清华学堂117 </s> -0.3010
-0.3010 温子刚 </s> -0.3010
-0.3010 源于 </s> -0.3010
-0.3010 滑铁卢 </s> -0.3010
-0.3010 满分 </s> -0.3010
-0.3010 满足 </s> -0.3010
-0.3010 潘宇超 </s> -0.3010
-0.3010 潜质 </s> -0.3010
-0.3010 激子动力学 </s> -0.3010
-0.3010 濮云飞 </s> -0.3010
-0.3010 点 </s> -0.3010
-0.3010 物理 </s> -0.3010
-0.3010 物理学 </s> -0.3010
-0.3010 物理学基本问题 </s> -0.3010
-0.3010 物理学家 </s> -0.3010
-0.3010 物理系 </s> -0.3010
-0.3010 特 </s> -0.3010
-0.3010 特别 </s> -0.3010
-0.3010 特拉维夫 </s> -0.3010
-0.3010 特殊 </s> -0.3010
-0.3010 特长 </s> -0.3010
-0.3010 独立 </s> -0.3010
-0.3010 王国 </s> -0.3010
-0.3010 王子 </s> -0.3010
-0.3010 王子贺 </s> -0.3010
-0.3010 王永才 </s> -0.3010
-0.3010 王玮彬 </s> -0.3010
-0.3010 王琳琳 </s> -0.3010
-0.9031 王立威 是谁 0.0000
-0.6021 王立威 的 -0.2928
-0.9031 王立威 ？ 0.0000
-0.3010 王老师 </s> -0.3010
-0.3010 王跃宣 </s> -0.3010
-0.3010 王韦婷 </s> -0.3010
-0.3010 王飞 </s> -0.3010
-0.3010 环节 </s> -0.3010
-0.3010 现 </s> -0.3010
-0.3010 现场 </s> -0.3010
-0.3010 现将 </s> -0.3010
-0.3010 班招生 </s> -0.3010
-0.3010 班级 </s> -0.3010
-0.3010 理事 </s> -0.3010
-0.3010 理工大学 </s> -0.3010
-0.3010 理论 </s> -0.3010
-0.3010 琦 </s> -0.3010
-0.3010 生 </s> -0.3010
-0.3010 生源 </s> -0.3010
-0.3010 生物 </s> -0.3010
-0.3010 生物学 </s> -0.3010
-0.3010 田天 </s> -0.3010
-0.3010 由 </s> -0.3010
-0.3010 由于 </s> -0.3010
-0.3010 由院 </s> -0.3010
-0.3010 申请 </s> -0.3010
-0.3010 申请人 </s> -0.3010
-0.3010 申请者 </s> -0.3010
-0.3010 申请表 </s> -0.3010
-0.3010 电子商务 </s> -0.3010
-0.3010 电子版 </s> -0.3010
-0.3010 电话 </s> -0.3010
-0.3010 男 </s> -0.3010
-0.3010 畅通 </s> -0.3010
-0.3010 界限 </s> -0.3010
-0.3010 留学 </s> -0.3010
-0.3010 登记表 </s> -0.3010
-0.3010 登陆 </s> -0.3010
-0.3304 的 </s> -0.3010
-2.3304 的 目标 -0.2989
-2.3304 的 研究方向 -0.2989
-2.3304 的 计算机入门 -0.2989
-2.0294 的 课 -0.2968
-2.0294 的 课程 -0.2968
-0.3010 监督 </s> -0.3010
-0.3010 目前 </s> -0.3010
-0.3054 目标 </s> -0.3010
-2.3054 目标 是 -0.2947
-0.3010 直博 </s> -0.3010
-0.3010 直博生 </s> -0.3010
-0.3010 直接 </s> -0.3010
-0.3010 相关 </s> -0.3010
-0.3010 相比 </s> -0.3010
-0.3010 省 </s> -0.3010
-0.3010 着重 </s> -0.3010
-0.3010 研制 </s> -0.3010
-0.3010 研制成功 </s> -0.3010
-0.3010 研发 </s> -0.3010
-0.3010 研招办 </s> -0.3010
-0.3010 研究 </s> -0.3010
-0.3054 研究方向 </s> -0.3010
-2.3054 研究方向 有 -0.2989
-0.3010 研究生 </s> -0.3010
-0.3010 研究生院 </s> -0.3010
-0.3010 研究进展 </s> -0.3010
-0.3010 研究院 </s> -0.3010
-0.3010 研讨 </s> -0.3010
-0.3010 研讨会 </s> -0.3010
-0.3010 硕士 </s> -0.3010
-0.3010 硕士学位 </s> -0.3010
-0.3010 硕士生 </s> -0.3010
-0.3010 硕转博 </s> -0.3010
-0.3010 确保 </s> -0.3010
-0.3010 确定 </s> -0.3010
-0.3010 确认 </s> -0.3010
-0.3010 社会 </s> -0.3010
-0.3010 社会工作 </s> -0.3010
-0.3010 祖充 </s> -0.3010
-0.3010 离子 </s> -0.3010
-0.3010 离散数学 </s> -0.3010
-0.3010 秀英 </s> -0.3010
-0.3010 秋季 </s> -0.3010
-0.3010 种 </s> -0.3010
-0.3010 科学 </s> -0.3010
-0.3010 科学家 </s> -0.3010
-0.3010 科学技术 </s> -0.3010
-0.3010 科学研究 </s> -0.3010
-0.3010 科技 </s> -0.3010
-0.3010 科技成果 </s> -0.3010
-0.3010 科班 </s> -0.3010
-0.3010 科目 </s> -0.3010
-0.3010 科研 </s> -0.3010
-0.3010 科研活动 </s> -0.3010
-0.3010 称为 </s> -0.3010
-0.3010 程序 </s> -0.3010
-0.3010 程度 </s> -0.3010
-0.3010 程设 </s> -0.3010
-0.3010 稳定性 </s> -0.3010
-0.3010 突出 </s> -0.3010
-0.3010 竞赛 </s> -0.3010
-0.3010 端口 </s> -0.3010
-0.3010 端正 </s> -0.3010
-0.3010 笔试 </s> -0.3010
-0.3010 符合 </s> -0.3010
-0.3010 第一 </s> -0.3010
-0.3010 第七届 </s> -0.3010
-0.3010 第三届 </s> -0.3010
-0.3010 第二课堂 </s> -0.3010
-0.3010 第八 </s> -0.3010
-0.3010 等 </s> -0.3010
-0.3010 答辩 </s> -0.3010
-0.3010 简历 </s> -0.3010
-0.3010 简称 </s> -0.3010
-0.3010 算法 </s> -0.3010
-0.3010 算法分析 </s> -0.3010
-0.3010 算法设计 </s> -0.3010
-0.3010 算法设计与分析 </s> -0.3010
-0.3010 管理 </s> -0.3010
-0.3010 篇 </s> -0.3010
-0.3010 类别 </s> -0.3010
-0.3010 精神 </s> -0.3010
-0.3010 系统 </s> -0.3010
-0.3010 系统监控与调试 </s> -0.3010
-0.3010 素质 </s> -0.3010
-0.3010 累计 </s> -0.3010
-0.3010 红章 </s> -0.3010
-0.3010 级 </s> -0.3010
-0.3010 纸版 </s> -0.3010
-0.3010 组 </s> -0.3010
-0.3010 组内 </s> -0.3010
-0.3010 组成 </s> -0.3010
-0.3010 组织 </s> -0.3010
-0.3010 终结 </s> -0.3010
-0.3010 经 </s> -0.3010
-0.3010 结合 </s> -0.3010
-0.3010 结束 </s> -0.3010
-0.3010 结构 </s> -0.3010
-0.3010 结果 </s> -0.3010
-0.3010 给出 </s> -0.3010
-0.3010 统一 </s> -0.3010
-0.3010 统招 </s> -0.3010
-0.3010 统计力学 </s> -0.3010
-0.3010 绩 </s> -0.3010
-0.3010 综合 </s> -0.3010
-0.3010 缓存 </s> -0.3010
-0.3010 编码 </s> -0.3010
-0.3010 编程 </s> -0.3010
-0.3010 网上 </s> -0.3010
-0.3010 网址 </s> -0.3010
-0.3010 网站 </s> -0.3010
-0.3010 网络 </s> -0.3010
-0.3010 网络科学 </s> -0.3010
-0.3010 网络编码 </s> -0.3010
-0.3010 网页 </s> -0.3010
-0.3010 罗塞尔 </s> -0.3010
-0.3010 罗穗 </s> -0.3010
-0.3010 美国 </s> -0.3010
-0.3010 群体 </s> -0.3010
-0.3010 翁 </s> -0.3010
-0.3010 翁文康 </s> -0.3010
-0.3010 老师 </s> -0.3010
-0.3010 考场 </s> -0.3010
-0.3010 考官 </s> -0.3010
-0.3010 考察 </s> -0.3010
-0.3010 考查 </s> -0.3010
-0.3010 考核 </s> -0.3010
-0.3010 考核办法 </s> -0.3010
-0.3010 考生 </s> -0.3010
-0.3010 考试 </s> -0.3010
-0.3010 考试成绩 </s> -0.3010
-0.3010 者 </s> -0.3010
-0.3010 而 </s> -0.3010
-0.3010 职称 </s> -0.3010
-0.3010 联名 </s> -0.3010
-0.3010 联系人 </s> -0.3010
-0.3010 联系方式 </s> -0.3010
-0.3010 联系电话 </s> -0.3010
-0.3010 背景 </s> -0.3010
-0.3010 胡事民 </s> -0.3010
-0.3010 胡玲 </s> -0.3010
-0.3010 能力 </s> -0.3010
-0.3010 能力倾向 </s> -0.3010
-0.3010 能够 </s> -0.3010
-0.3010 自主 </s> -0.3010
-0.3010 自动 </s> -0.3010
-0.3010 自我介绍 </s> -0.3010
-0.3010 自然科学 </s> -0.3010
-0.3010 自然语言 </s> -0.3010
-0.3010 自然语言处理 </s> -0.3010
-0.3010 自负 </s> -0.3010
-0.3010 自述 </s> -0.3010
-0.3010 至 </s> -0.3010
-0.3010 色心 </s> -0.3010
-0.3010 芝加哥大学 </s> -0.3010
-0.3010 苏宇晗 </s> -0.3010
-0.3010 若 </s> -0.3010
-0.3010 若干 </s> -0.3010
-0.3010 若有 </s> -0.3010
-0.3010 英国 </s> -0.3010
-0.3010 英文 </s> -0.3010
-0.3010 英语 </s> -0.3010
-0.3010 英语水平 </s> -0.3010
-0.3010 荣获 </s> -0.3010
-0.3010 荣誉 </s> -0.3010
-0.3010 获 </s> -0.3010
-0.3010 获取 </s> -0.3010
-0.3010 获得 </s> -0.3010
-0.3010 著 </s> -0.3010
-0.3010 著名 </s> -0.3010
-0.3010 董宇茜 </s> -0.3010
-0.3010 蒋楠 </s> -0.3010
-0.3010 蒋译瑶 </s> -0.3010
-0.3010 蒙民伟 </s> -0.3010
-0.3010 蒲浩森 </s> -0.3010
-0.3010 蔚然 </s> -0.3010
-0.3010 蔡庆芃 </s> -0.3010
-0.3010 薛潇 </s> -0.3010
-0.3010 衡量 </s> -0.3010
-0.3010 补考 </s> -0.3010
-0.3010 表 </s> -0.3010
-0.3010 表格 </s> -0.3010
-0.3010 表现 </s> -0.3010
-0.3010 袁 </s> -0.3010
-0.3010 袁骁 </s> -0.3010
-0.3010 被 </s> -0.3010
-0.3010 要 </s> -0.3010
-0.3010 要求 </s> -0.3010
-0.3010 规划 </s> -0.3010
-0.3010 规定 </s> -0.3010
-0.3010 规范 </s> -0.3010
-0.3010 视为 </s> -0.3010
-0.3010 解决 </s> -0.3010
-0.3010 解释 </s> -0.3010
-0.3010 警卫队 </s> -0.3010
-0.3010 计入 </s> -0.3010
-0.3010 计入门 </s> -0.3010
-0.3010 计划 </s> -0.3010
-0.3010 计算 </s> -0.3010
-0.3010 计算复杂性 </s> -0.3010
-0.3010 计算学习理论 </s> -0.3010
-0.3010 计算机 </s> -0.3010
-0.3054 计算机入门 </s> -0.3010
-2.3054 计算机入门 上课 -0.2989
-0.3010 计算机应用数学 </s> -0.3010
-0.3010 计算机科学 </s> -0.3010
-0.3010 计算理论 </s> -0.3010
-0.3010 计算生物学 </s> -0.3010
-0.3010 计算经济学 </s> -0.3010
-0.3010 认为 </s> -0.3010
-0.3010 认证 </s> -0.3010
-0.3010 认识 </s> -0.3010
-0.3010 讨论 </s> -0.3010
-0.3010 讨论会 </s> -0.3010
-0.3010 训练 </s> -0.3010
-0.3010 记录 </s> -0.3010
-0.3010 记载 </s> -0.3010
-0.3010 许力文 </s> -0.3010
-0.3010 许荣 </s> -0.3010
-0.3010 论 </s> -0.3010
-0.3010 论文 </s> -0.3010
-0.3010 论证 </s> -0.3010
-0.3010 论证复杂性 </s> -0.3010
-0.3010 设计 </s> -0.3010
-0.3010 访问速度 </s> -0.3010
-0.3010 证 </s> -0.3010
-0.3010 证书 </s> -0.3010
-0.3010 证件 </s> -0.3010
-0.3010 证实 </s> -0.3010
-0.3010 证明 </s> -0.3010
-0.3010 评价 </s> -0.3010
-0.3010 评分 </s> -0.3010
-0.3010 评选 </s> -0.3010
-0.3010 译 </s> -0.3010
-0.3010 诚实 </s> -0.3010
-0.3010 该 </s> -0.3010
-0.3010 语言表达 </s> -0.3010
-0.3010 说明 </s> -0.3010
-0.3010 请 </s> -0.3010
-0.3010 请于 </s> -0.3010
-0.3139 请问 </s> -0.3010
-2.3139 请问 帕帕 -0.2989
-2.3139 请问 李建 -0.2989
-2.3139 请问 王立威 -0.2430
-0.3096 课 </s> -0.3010
-2.0086 课 怎么样 -0.2926
-0.3010 课外 </s> -0.3010
-0.3096 课程 </s> -0.3010
-2.0086 课程 怎么样 -0.2926
-0.3010 课表 </s> -0.3010
-0.3010 谁 </s> -0.3010
-0.7782 谁是 帕帕 -0.2989
-0.7782 谁是 李建 -0.2989
-0.7782 谁是 王立威 -0.2430
-0.3010 调控 </s> -0.3010
-0.3010 谈亦东 </s> -0.3010
-0.3010 负责 </s> -0.3010
-0.3010 责任 </s> -0.3010
-0.3010 质量 </s> -0.3010
-0.3010 贺 </s> -0.3010
-0.3010 贾永政 </s> -0.3010
-0.3010 资格 </s> -0.3010
-0.3010 资格考试 </s> -0.3010
-0.3010 资源分配 </s> -0.3010
-0.3010 赛 </s> -0.3010
-0.3010 赵天骥 </s> -0.3010
-0.3010 赵晓斌 </s> -0.3010
-0.3010 赵琦 </s> -0.3010
-0.3010 超导 </s> -0.3010
-0.3010 超过 </s> -0.3010
-0.3010 越来越 </s> -0.3010
-0.3010 跃 </s> -0.3010
-0.3010 跨 </s> -0.3010
-0.3010 路 </s> -0.3010
-0.3010 路尧 </s> -0.3010
-0.3010 路由器 </s> -0.3010
-0.3010 身份 </s> -0.3010
-0.3010 身份证件 </s> -0.3010
-0.3010 身心健康 </s> -0.3010
-0.3010 转入 </s> -0.3010
-0.3010 转换 </s> -0.3010
-0.3010 转系 </s> -0.3010
-0.3010 辜勇 </s> -0.3010
-0.3010 过程 </s> -0.3010
-0.3010 运算 </s> -0.3010
-0.3010 运营 </s> -0.3010
-0.3010 近年来 </s> -0.3010
-0.3010 还 </s> -0.3010
-0.3010 这些 </s> -0.3010
-0.3010 进一步提高 </s> -0.3010
-0.3010 进取精神 </s> -0.3010
-0.3010 进展 </s> -0.3010
-0.3010 进行 </s> -0.3010
-0.3010 违法违纪 </s> -0.3010
-0.3010 追求 </s> -0.3010
-0.3010 适量 </s> -0.3010
-0.3010 选修 </s> -0.3010
-0.3010 选拔 </s> -0.3010
-0.3010 选者 </s> -0.3010
-0.3010 透明 </s> -0.3010
-0.3010 通信 </s> -0.3010
-0.3010 通知 </s> -0.3010
-0.3010 通讯复杂性 </s> -0.3010
-0.3010 通过 </s> -0.3010
-0.3010 速度 </s> -0.3010
-0.3010 造成 </s> -0.3010
-0.3010 逻辑和组合论 </s> -0.3010
-0.3010 逻辑思维 </s> -0.3010
-0.3010 遇到 </s> -0.3010
-0.3010 道德品质 </s> -0.3010
-0.3010 遴选 </s> -0.3010
-0.3010 遵照 </s> -0.3010
-0.3010 避开 </s> -0.3010
-0.3010 避错 </s> -0.3010
-0.3010 邮件 </s> -0.3010
-0.3010 邮件地址 </s> -0.3010
-0.3010 邮编 </s> -0.3010
-0.3010 郁昱 </s> -0.3010
-0.3010 郑波 </s> -0.3010
-0.3010 郑顺 </s> -0.3010
-0.3010 郜勋 </s> -0.3010
-0.3010 郝 </s> -0.3010
-0.3010 部 </s> -0.3010
-0.3010 部分 </s> -0.3010
-0.3010 部级 </s> -0.3010
-0.3010 郭 </s> -0.3010
-0.3010 郭光灿 </s> -0.3010
-0.3010 重修 </s> -0.3010
-0.3010 重大 </s> -0.3010
-0.3010 重大项目 </s> -0.3010
-0.3010 重庆大学 </s> -0.3010
-0.3010 重点 </s> -0.3010
-0.3010 重考 </s> -0.3010
-0.3010 重要 </s> -0.3010
-0.3010 重要性 </s> -0.3010
-0.3010 量子 </s> -0.3010
-0.3010 量子信息 </s> -0.3010
-0.3010 量子信息理论 </s> -0.3010
-0.3010 量子信息科学 </s> -0.3010
-0.3010 量子光学 </s> -0.3010
-0.3010 量子多体理论 </s> -0.3010
-0.3010 量子计算 </s> -0.3010
-0.3010 金刚石 </s> -0.3010
-0.3010 金奇 </s> -0.3010
-0.3010 金奇奂 </s> -0.3010
-0.3010 金逸飞 </s> -0.3010
-0.3010 钱玉麟 </s> -0.3010
-0.3010 门 </s> -0.3010
-0.3010 门次 </s> -0.3010
-0.3010 问题 </s> -0.3010
-0.3010 阐述 </s> -0.3010
-0.3010 阱 </s> -0.3010
-0.3010 阶段 </s> -0.3010
-0.3010 附 </s> -0.3010
-0.3010 附件 </s> -0.3010
-0.3010 陈卫 </s> -0.3010
-0.3010 陈康 </s> -0.3010
-0.3010 陈杉 </s> -0.3010
-0.3010 陈渝 </s> -0.3010
-0.3010 陈琨 </s> -0.3010
-0.3010 陈铬亮 </s> -0.3010
-0.3010 限制 </s> -0.3010
-0.3010 限定性 </s> -0.3010
-0.3010 限选 </s> -0.3010
-0.3010 院 </s> -0.3010
-0.3010 院内 </s> -0.3010
-0.3010 院士 </s> -0.3010
-0.3010 院校 </s> -0.3010
-0.3010 院系 </s> -0.3010
-0.3010 除 </s> -0.3010
-0.3010 除外 </s> -0.3010
-0.3010 随机学习 </s> -0.3010
-0.3010 随机网络优化 </s> -0.3010
-0.3010 需 </s> -0.3010
-0.3010 需向 </s> -0.3010
-0.3010 需提交 </s> -0.3010
-0.3010 需要 </s> -0.3010
-0.3010 青年 </s> -0.3010
-0.3010 静宁 </s> -0.3010
-0.3010 非学历 </s> -0.3010
-0.3010 非标准 </s> -0.3010
-0.3010 面向 </s> -0.3010
-0.3010 面试 </s> -0.3010
-0.3010 韩佳秀 </s> -0.3010
-0.3010 顶级 </s> -0.3010
-0.3010 项目 </s> -0.3010
-0.3010 顺 </s> -0.3010
-0.3010 顺序 </s> -0.3010
-0.3010 须 </s> -0.3010
-0.3010 顾钊铨 </s> -0.3010
-0.3010 顾麦然 </s> -0.3010
-0.3010 预研 </s> -0.3010
-0.3010 预言 </s> -0.3010
-0.3010 领域 </s> -0.3010
-0.3010 领导小组 </s> -0.3010
-0.3010 首席 </s> -0.3010
-0.3010 首次 </s> -0.3010
-0.3010 香港中文大学 </s> -0.3010
-0.3010 马家俊 </s> -0.3010
-0.3010 马悦驰 </s> -0.3010
-0.3010 马瑞 </s> -0.3010
-0.3010 马雄峰 </s> -0.3010
-0.3010 骞 </s> -0.3010
-0.3010 高到 </s> -0.3010
-0.3010 高度重视 </s> -0.3010
-0.3010 高校 </s> -0.3010
-0.3010 高水平 </s> -0.3010
-0.3010 高等 </s> -0.3010
-0.3010 高阳 </s> -0.3010
-0.3010 魏达 </s> -0.3010
-0.3010 麻省 </s> -0.3010
-0.3010 黄园园 </s> -0.3010
-0.3010 黄棱潇 </s> -0.3010
-0.3010 黄隆波 </s> -0.3010
-0.3010 龙 </s> -0.3010
-0.3010 龙翔 </s> -0.3010
-0.3010 ？ </s> -0.3010

\3-grams:
-0.3010 <s> ? </s>
-0.3010 <s> 一 </s>
-0.3010 <s> 一个 </s>
-0.3010 <s> 一些 </s>
-0.3010 <s> 一份 </s>
-0.3010 <s> 一并 </s>
-0.3010 <s> 一律 </s>
-0.3010 <s> 一种 </s>
-0.3010 <s> 一等奖 </s>
-0.3010 <s> 一经 </s>
-0.3010 <s> 一致性 </s>
-0.3010 <s> 一般 </s>
-0.3010 <s> 一门 </s>
-0.3010 <s> 三 </s>
-0.3010 <s> 三名 </s>
-0.3010 <s> 三学 </s>
-0.3010 <s> 三年 </s>
-0.3010 <s> 三种 </s>
-0.3010 <s> 上 </s>
-0.3010 <s> 上个世纪 </s>
-0.3010 <s> 上午 </s>
-0.3010 <s> 上报 </s>
-0.3010 <s> 上海 </s>
-0.3010 <s> 上网 </s>
-0.3010 <s> 上课 </s>
-0.3010 <s> 上述 </s>
-0.3010 <s> 下午 </s>
-0.3010 <s> 下发 </s>
-0.3010 <s> 下载 </s>
-0.3010 <s> 下达 </s>
-0.3010 <s> 不 </s>
-0.3010 <s> 不予 </s>
-0.3010 <s> 不及格 </s>
-0.3010 <s> 不合格者 </s>
-0.3010 <s> 不同 </s>
-0.3010 <s> 不少 </s>
-0.3010 <s> 不得 </s>
-0.3010 <s> 不拘一格 </s>
-0.3010 <s> 不算 </s>
-0.3010 <s> 不能 </s>
-0.3010 <s> 与 </s>
-0.3010 <s> 与否 </s>
-0.3010 <s> 专业 </s>
-0.3010 <s> 专业学位 </s>
-0.3010 <s> 专业知识 </s>
-0.3010 <s> 专长 </s>
-0.3010 <s> 且 </s>
-0.3010 <s> 业务 </s>
-0.3010 <s> 两个 </s>
-0.3010 <s> 严格 </s>
-0.3010 <s> 严马 </s>
-0.3010 <s> 个 </s>
-0.3010 <s> 个人 </s>
-0.3010 <s> 个人信息 </s>
-0.3010 <s> 个人简历 </s>
-0.3010 <s> 中 </s>
-0.3010 <s> 中国 </s>
-0.3010 <s> 中国物理学会 </s>
-0.3010 <s> 中国科学院 </s>
-0.3010 <s> 中心 </s>
-0.3010 <s> 中文 </s>
-0.3010 <s> 中有 </s>
-0.3010 <s> 中科大 </s>
-0.3010 <s> 中组部 </s>
-0.3010 <s> 中长期 </s>
-0.3010 <s> 丹麦 </s>
-0.3010 <s> 为 </s>
-0.3010 <s> 主任 </s>
-0.3010 <s> 主要 </s>
-0.3010 <s> 主页 </s>
-0.3010 <s> 举办 </s>
-0.3010 <s> 之 </s>
-0.3010 <s> 之一 </s>
-0.3010 <s> 之内 </s>
-0.3010 <s> 之前 </s>
-0.3010 <s> 之后 </s>
-0.3010 <s> 之日 </s>
-0.3010 <s> 乔友明 </s>
-0.3010 <s> 也 </s>
-0.3010 <s> 习题课 </s>
-0.3010 <s> 书面 </s>
-0.3010 <s> 书面材料 </s>
-0.3010 <s> 了 </s>
-0.3010 <s> 了解 </s>
-0.3010 <s> 予以 </s>
-0.3010 <s> 二 </s>
-0.3010 <s> 二次 </s>
-0.3010 <s> 二等奖 </s>
-0.3010 <s> 于 </s>
-0.3010 <s> 云计算 </s>
-0.3010 <s> 五 </s>
-0.3010 <s> 交 </s>
-0.3010 <s> 交叉 </s>
-0.3139 <s> 交叉信息院 </s>
-2.3139 <s> 交叉信息院 是
-2.0128 <s> 交叉信息院 的
-0.3010 <s> 交换 </s>
-0.3010 <s> 亦然 </s>
-0.3010 <s> 亲自 </s>
-0.3010 <s> 人们 </s>
-0.3010 <s> 人员 </s>
-0.3010 <s> 人工智能 </s>
-0.3010 <s> 什么 </s>
-0.3010 <s> 仅指 </s>
-0.3010 <s> 仅限 </s>
-0.3010 <s> 仇丽媛 </s>
-0.3010 <s> 介绍 </s>
-0.3010 <s> 从 </s>
-0.3010 <s> 从事 </s>
-0.3010 <s> 他 </s>
-0.3010 <s> 他人 </s>
-0.3010 <s> 付荣 </s>
-0.3010 <s> 以 </s>
-0.3010 <s> 以上 </s>
-0.3010 <s> 以下 </s>
-0.3010 <s> 以及 </s>
-0.3010 <s> 以后 </s>
-0.3010 <s> 以色 </s>
-0.3010 <s> 以色列 </s>
-0.3010 <s> 任 </s>
-0.3010 <s> 任何 </s>
-0.3010 <s> 任课教师 </s>
-0.3010 <s> 优化 </s>
-0.3010 <s> 优异者 </s>
-0.3010 <s> 优秀 </s>
-0.3010 <s> 优秀教师 </s>
-0.3010 <s> 优良 </s>
-0.3010 <s> 会议 </s>
-0.3010 <s> 传感器 </s>
-0.3010 <s> 传统 </s>
-0.3010 <s> 传输 </s>
-0.3010 <s> 伯里克利 </s>
-0.3010 <s> 但 </s>
-0.3010 <s> 低 </s>
-0.3010 <s> 低于 </s>
-0.3010 <s> 体 </s>
-0.3010 <s> 体及 </s>
-0.3010 <s> 体检 </s>
-0.3010 <s> 何丽 </s>
-0.3010 <s> 何利奖 </s>
-0.3010 <s> 何昊青 </s>
-0.3010 <s> 何梁 </s>
-0.3010 <s> 作为 </s>
-0.3010 <s> 作弊 </s>
-0.3010 <s> 作答 </s>
-0.3010 <s> 侯攀宇 </s>
-0.3010 <s> 便于 </s>
-0.3010 <s> 保证质量 </s>
-0.3010 <s> 信息 </s>
-0.3010 <s> 信息安全 </s>
-0.3010 <s> 信息技术 </s>
-0.3010 <s> 信息理论 </s>
-0.3010 <s> 做 </s>
-0.3010 <s> 做到 </s>
-0.3010 <s> 傅昊 </s>
-0.3010 <s> 元熙 </s>
-0.3010 <s> 先进 </s>
-0.3010 <s> 光 </s>
-0.3010 <s> 光学 </s>
-0.3010 <s> 光纤 </s>
-0.3010 <s> 克隆 </s>
-0.3010 <s> 免试 </s>
-0.3010 <s> 免试生 </s>
-0.3010 <s> 入学 </s>
-0.3010 <s> 入学考试 </s>
-0.3010 <s> 入选 </s>
-0.3010 <s> 全 </s>
-0.3010 <s> 全国 </s>
-0.3010 <s> 全新 </s>
-0.3010 <s> 全部 </s>
-0.3010 <s> 全面 </s>
-0.3010 <s> 八十年代 </s>
-0.3010 <s> 公司 </s>
-0.3010 <s> 公告 </s>
-0.3010 <s> 公布 </s>
-0.3010 <s> 公平 </s>
-0.3010 <s> 公开 </s>
-0.3010 <s> 公式 </s>
-0.3010 <s> 公正 </s>
-0.3010 <s> 公示 </s>
-0.3010 <s> 公里 </s>
-0.3010 <s> 关于 </s>
-0.3010 <s> 关注 </s>
-0.3010 <s> 关键部件 </s>
-0.3010 <s> 兴趣 </s>
-0.3010 <s> 其 </s>
-0.3010 <s> 其中 </s>
-0.3010 <s> 其他 </s>
-0.3010 <s> 具体 </s>
-0.3010 <s> 具体情况 </s>
-0.3010 <s> 具名 </s>
-0.3010 <s> 具备 </s>
-0.3010 <s> 具有 </s>
-0.3010 <s> 兼职 </s>
-0.3010 <s> 兼职教授 </s>
-0.3010 <s> 内 </s>
-0.3010 <s> 内容 </s>
-0.3010 <s> 再 </s>
-0.3010 <s> 军官证 </s>
-0.3010 <s> 军界 </s>
-0.3010 <s> 冯建华 </s>
-0.3010 <s> 决定 </s>
-0.3010 <s> 冷 </s>
-0.3010 <s> 准备 </s>
-0.3010 <s> 准考证 </s>
-0.3010 <s> 凝聚态物理 </s>
-0.3010 <s> 几十年 </s>
-0.3010 <s> 凡 </s>
-0.3010 <s> 凡未 </s>
-0.3010 <s> 凸显 </s>
-0.3010 <s> 出 </s>
-0.3010 <s> 出国 </s>
-0.3010 <s> 出版 </s>
-0.3010 <s> 出现 </s>
-0.3010 <s> 出示 </s>
-0.3010 <s> 出较 </s>
-0.3010 <s> 分 </s>
-0.3010 <s> 分别 </s>
-0.3010 <s> 分发 </s>
-0.3010 <s> 分后 </s>
-0.3010 <s> 分布式系统 </s>
-0.3010 <s> 分布式计算 </s>
-0.3010 <s> 分数 </s>
-0.3010 <s> 分析 </s>
-0.3010 <s> 分校 </s>
-0.3010 <s> 分者 </s>
-0.3010 <s> 分钟 </s>
-0.3010 <s> 刊物 </s>
-0.3010 <s> 刘可 </s>
-0.3010 <s> 刘宇 </s>
-0.3010 <s> 刘思学 </s>
-0.3010 <s> 刘政哲 </s>
-0.3010 <s> 刘智伟 </s>
-0.3010 <s> 刘艺成 </s>
-0.3010 <s> 则 </s>
-0.3010 <s> 刚 </s>
-0.3010 <s> 创 </s>
-0.3010 <s> 创新 </s>
-0.3010 <s> 创新能力 </s>
-0.3010 <s> 初探 </s>
-0.3010 <s> 初试 </s>
-0.3010 <s> 初选 </s>
-0.3010 <s> 到 </s>
-0.3010 <s> 制定 </s>
-0.3010 <s> 前 </s>
-0.3010 <s> 前沿 </s>
-0.3010 <s> 副研究员 </s>
-0.3010 <s> 剽窃 </s>
-0.3010 <s> 办 </s>
-0.3010 <s> 办公 </s>
-0.3010 <s> 办公室 </s>
-0.3010 <s> 办对 </s>
-0.3010 <s> 办法 </s>
-0.3010 <s> 办理 </s>
-0.3010 <s> 加以 </s>
-0.3010 <s> 加入 </s>
-0.3010 <s> 加强 </s>
-0.3010 <s> 加拿大 </s>
-0.3010 <s> 加盖 </s>
-0.3010 <s> 加试 </s>
-0.3010 <s> 助教 </s>
-0.3010 <s> 助理 </s>
-0.3010 <s> 助理教授 </s>
-0.3010 <s> 助理研究员 </s>
-0.3010 <s> 勒布 </s>
-0.3010 <s> 包含 </s>
-0.3010 <s> 包括 </s>
-0.3010 <s> 北京大学 </s>
-0.3010 <s> 区 </s>
-0.3010 <s> 千人 </s>
-0.3010 <s> 华 </s>
-0.3010 <s> 华强胜 </s>
-0.3010 <s> 协会 </s>
-0.3010 <s> 协商 </s>
-0.3010 <s> 卓越 </s>
-0.3010 <s> 单 </s>
-0.3010 <s> 单位 </s>
-0.3010 <s> 单向 </s>
-0.3010 <s> 单证 </s>
-0.3010 <s> 南加州 </s>
-0.3010 <s> 博士 </s>
-0.3010 <s> 博士后 </s>
-0.3010 <s> 博士学位 </s>
-0.3010 <s> 博士生 </s>
-0.3010 <s> 博士论文 </s>
-0.3010 <s> 博导 </s>
-0.3010 <s> 博弈论 </s>
-0.3010 <s> 卡斯 </s>
-0.3010 <s> 卡斯特 </s>
-0.3010 <s> 即 </s>
-0.3010 <s> 压缩感知 </s>
-0.3010 <s> 原件 </s>
-0.3010 <s> 原则 </s>
-0.3010 <s> 原子物理 </s>
-0.3010 <s> 原理 </s>
-0.3010 <s> 去掉 </s>
-0.3010 <s> 参与 </s>
-0.3010 <s> 参加 </s>
-0.3010 <s> 参照 </s>
-0.3010 <s> 参考 </s>
-0.3010 <s> 参见 </s>
-0.3010 <s> 及 </s>
-0.3010 <s> 及其 </s>
-0.3010 <s> 及格 </s>
-0.3010 <s> 及限选 </s>
-0.3010 <s> 双证 </s>
-0.3010 <s> 反映 </s>
-0.3010 <s> 发展 </s>
-0.3010 <s> 发展潜力 </s>
-0.3010 <s> 发明 </s>
-0.3010 <s> 发现 </s>
-0.3010 <s> 发表 </s>
-0.3010 <s> 发送至 </s>
-0.3010 <s> 取 </s>
-0.3010 <s> 取得 </s>
-0.3010 <s> 取消 </s>
-0.3010 <s> 受 </s>
-0.3010 <s> 受到 </s>
-0.3010 <s> 另发 </s>
-0.3010 <s> 另外 </s>
-0.3010 <s> 另行通知 </s>
-0.3010 <s> 只 </s>
-0.3010 <s> 只能 </s>
-0.3010 <s> 召开 </s>
-0.3010 <s> 可 </s>
-0.3010 <s> 可不 </s>
-0.3010 <s> 可以 </s>
-0.3010 <s> 右上角 </s>
-0.3010 <s> 号 </s>
-0.3010 <s> 各 </s>
-0.3010 <s> 各位 </s>
-0.3010 <s> 各类 </s>
-0.3010 <s> 合格 </s>
-0.3010 <s> 同学 </s>
-0.3010 <s> 同时 </s>
-0.3010 <s> 同等学力 </s>
-0.3010 <s> 名 </s>
-0.3010 <s> 名单 </s>
-0.3010 <s> 名额 </s>
-0.3010 <s> 后 </s>
-0.3010 <s> 后果 </s>
-0.3010 <s> 向 </s>
-0.3010 <s> 向勇 </s>
-0.3010 <s> 吕定 </s>
-0.3010 <s> 吕曰洲 </s>
-0.3010 <s> 含 </s>
-0.3010 <s> 吴建平 </s>
-0.3010 <s> 吴成 </s>
-0.3010 <s> 吴浩铮 </s>
-0.3010 <s> 吴辰晔 </s>
-0.3010 <s> 周一 </s>
-0.3010 <s> 周三 </s>
-0.3010 <s> 周二 </s>
-0.3010 <s> 周五 </s>
-0.3010 <s> 周四 </s>
-0.3010 <s> 周忠军 </s>
-0.3010 <s> 周梦宇 </s>
-0.3010 <s> 周泓伊 </s>
-0.3010 <s> 周游 </s>
-0.3010 <s> 命名 </s>
-0.3010 <s> 和 </s>
-0.3010 <s> 咨询 </s>
-0.3010 <s> 咨询电话 </s>
-0.3010 <s> 品行 </s>
-0.3010 <s> 哈希 </s>
-0.3010 <s> 哪些 </s>
-0.3010 <s> 唐平 </s>
-0.3010 <s> 唐平中 </s>
-0.3010 <s> 唐邦晟 </s>
-0.3010 <s> 商业 </s>
-0.3010 <s> 商用 </s>
-0.3010 <s> 四 </s>
-0.3010 <s> 四年级 </s>
-0.3010 <s> 回答 </s>
-0.3010 <s> 因 </s>
-0.3010 <s> 因而 </s>
-0.3010 <s> 困难 </s>
-0.3010 <s> 国内外 </s>
-0.3010 <s> 国外 </s>
-0.3010 <s> 国家 </s>
-0.3010 <s> 国家科技部 </s>
-0.3010 <s> 国计民生 </s>
-0.3010 <s> 国际 </s>
-0.3010 <s> 图形学 </s>
-0.3010 <s> 图灵 </s>
-0.3010 <s> 在 </s>
-0.3010 <s> 在线学习与优化 </s>
-0.3010 <s> 在职 </s>
-0.3010 <s> 在职人员 </s>
-0.3010 <s> 在读 </s>
-0.3010 <s> 地址 </s>
-0.3010 <s> 地点 </s>
-0.3010 <s> 场合 </s>
-0.3010 <s> 均 </s>
-0.3010 <s> 坑易澎 </s>
-0.3010 <s> 坚持 </s>
-0.3010 <s> 坚阳 </s>
-0.3010 <s> 培养 </s>
-0.3010 <s> 基 </s>
-0.3010 <s> 基本 </s>
-0.3010 <s> 基础 </s>
-0.3010 <s> 基础知识 </s>
-0.3010 <s> 基金委 </s>
-0.3010 <s> 填写 </s>
-0.3010 <s> 填报 </s>
-0.3010 <s> 填表 </s>
-0.3010 <s> 境外 </s>
-0.3010 <s> 处分 </s>
-0.3010 <s> 处理 </s>
-0.3010 <s> 处理器 </s>
-0.3010 <s> 备查 </s>
-0.3010 <s> 复印件 </s>
-0.3010 <s> 复审 </s>
-0.3010 <s> 复杂 </s>
-0.3010 <s> 复试 </s>
-0.3010 <s> 夏令营 </s>
-0.3010 <s> 夏庆堂 </s>
-0.3010 <s> 外 </s>
-0.3010 <s> 外校 </s>
-0.3010 <s> 外语水平 </s>
-0.3010 <s> 多 </s>
-0.3010 <s> 多主体系统 </s>
-0.3010 <s> 多功能厅 </s>
-0.3010 <s> 多篇 </s>
-0.3010 <s> 大 </s>
-0.3010 <s> 大学 </s>
-0.3010 <s> 大学教授 </s>
-0.3010 <s> 大学生 </s>
-0.3010 <s> 大数据 </s>
-0.3010 <s> 天一 </s>
-0.3010 <s> 失效 </s>
-0.3010 <s> 奂 </s>
-0.3010 <s> 奖 </s>
-0.3010 <s> 奖励 </s>
-0.3010 <s> 女 </s>
-0.3010 <s> 好 </s>
-0.3010 <s> 好的 </s>
-0.3010 <s> 如 </s>
-0.3010 <s> 如下 </s>
-0.3010 <s> 妥存 </s>
-0.3010 <s> 姓名 </s>
-0.3010 <s> 委员会 </s>
-0.3010 <s> 姚 </s>
-0.3010 <s> 姚兆明 </s>
-0.3054 <s> 姚期智 </s>
-2.3054 <s> 姚期智 的
-0.3010 <s> 姚班 </s>
-0.3010 <s> 子 </s>
-0.3010 <s> 孙晓明 </s>
-0.3010 <s> 孙麓 </s>
-0.3010 <s> 孙麓岩 </s>
-0.3010 <s> 学 </s>
-0.3010 <s> 学习 </s>
-0.3010 <s> 学习成绩 </s>
-0.3010 <s> 学会 </s>
-0.3010 <s> 学位 </s>
-0.3010 <s> 学位证 </s>
-0.3010 <s> 学位证书 </s>
-0.3010 <s> 学分 </s>
-0.3010 <s> 学历 </s>
-0.3010 <s> 学士 </s>
-0.3010 <s> 学士学位 </s>
-0.3010 <s> 学期 </s>
-0.3010 <s> 学期末 </s>
-0.3010 <s> 学术 </s>
-0.3010 <s> 学术会议 </s>
-0.3010 <s> 学术期刊 </s>
-0.3010 <s> 学术论文 </s>
-0.3010 <s> 学校 </s>
-0.3010 <s> 学生 </s>
-0.3010 <s> 学生名单 </s>
-0.3010 <s> 学生证 </s>
-0.3010 <s> 学界 </s>
-0.3010 <s> 学科 </s>
-0.3010 <s> 学科专业 </s>
-0.3010 <s> 学籍 </s>
-0.3010 <s> 学院 </s>
-0.3010 <s> 学风 </s>
-0.3010 <s> 宁缺勿滥 </s>
-0.3010 <s> 守信 </s>
-0.3010 <s> 安徽 </s>
-0.3010 <s> 安徽省 </s>
-0.3010 <s> 安排 </s>
-0.3010 <s> 安波 </s>
-0.3010 <s> 安硕明 </s>
-0.3010 <s> 宋祎璞 </s>
-0.3010 <s> 完成 </s>
-0.3010 <s> 完成学业 </s>
-0.3010 <s> 实施办法 </s>
-0.3010 <s> 实现 </s>
-0.3010 <s> 实践 </s>
-0.3010 <s> 实验 </s>
-0.3010 <s> 实验室 </s>
-0.3010 <s> 实验班 </s>
-0.3010 <s> 审查 </s>
-0.3010 <s> 审核 </s>
-0.3010 <s> 审稿人 </s>
-0.3010 <s> 室 </s>
-0.3010 <s> 密码 </s>
-0.3010 <s> 密码协议 </s>
-0.3010 <s> 密码学 </s>
-0.3010 <s> 密码学基础 </s>
-0.3010 <s> 密码的基础学 </s>
-0.3010 <s> 密苏里 </s>
-0.3010 <s> 密钥 </s>
-0.3010 <s> 对 </s>
-0.3010 <s> 对于 </s>
-0.3010 <s> 对原 </s>
-0.3010 <s> 导师 </s>
-0.3010 <s> 将 </s>
-0.3010 <s> 小于 </s>
-0.3010 <s> 小组 </s>
-0.3010 <s> 小组会议 </s>
-0.3010 <s> 尚未 </s>
-0.3010 <s> 就是 </s>
-0.3010 <s> 尹璋 </s>
-0.3010 <s> 尹璋琦 </s>
-0.3010 <s> 尹璋琪 </s>
-0.3010 <s> 居民身份证 </s>
-0.3010 <s> 属于 </s>
-0.3010 <s> 履行 </s>
-0.3010 <s> 岩 </s>
-0.3010 <s> 工作 </s>
-0.3010 <s> 工作日 </s>
-0.3010 <s> 工作者 </s>
-0.3010 <s> 左斌 </s>
-0.3010 <s> 左淞 </s>
-0.3010 <s> 巨大 </s>
-0.3010 <s> 巩慧超 </s>
-0.3010 <s> 已 </s>
-0.3010 <s> 已修 </s>
-0.3010 <s> 已经 </s>
-0.3010 <s> 巴黎 </s>
-0.3010 <s> 师范学校 </s>
-0.3010 <s> 希望 </s>
-0.3010 <s> 帕帕 </s>
-0.3010 <s> 带 </s>
-0.3010 <s> 带头人 </s>
-0.3010 <s> 常 </s>
-0.3010 <s> 常炜 </s>
-0.3010 <s> 常秀英 </s>
-0.3010 <s> 干部 </s>
-0.3010 <s> 平均 </s>
-0.3010 <s> 平均分 </s>
-0.3010 <s> 平时 </s>
-0.3010 <s> 年 </s>
-0.3010 <s> 年会 </s>
-0.3010 <s> 并 </s>
-0.3010 <s> 序号 </s>
-0.3010 <s> 应 </s>
-0.3010 <s> 应对 </s>
-0.3010 <s> 应届 </s>
-0.3010 <s> 应届生 </s>
-0.3010 <s> 应用 </s>
-0.3010 <s> 廉茶铉 </s>
-0.3010 <s> 延庆 </s>
-0.3010 <s> 开 </s>
-0.3010 <s> 开具 </s>
-0.3010 <s> 开始 </s>
-0.3010 <s> 异议 </s>
-0.3010 <s> 引发 </s>
-0.3010 <s> 张 </s>
-0.3010 <s> 张伯威 </s>
-0.3010 <s> 张君华 </s>
-0.3010 <s> 张宽 </s>
-0.3010 <s> 张帅宁 </s>
-0.3010 <s> 张振 </s>
-0.3010 <s> 张捷 </s>
-0.3010 <s> 张文纲 </s>
-0.3010 <s> 张昆玮 </s>
-0.3010 <s> 张炀 </s>
-0.3010 <s> 张翔 </s>
-0.3010 <s> 张贴 </s>
-0.3010 <s> 张赛 </s>
-0.3010 <s> 张静宁 </s>
-0.3010 <s> 强 </s>
-0.3010 <s> 强胜 </s>
-0.3010 <s> 当前 </s>
-0.3010 <s> 当时 </s>
-0.3010 <s> 录取 </s>
-0.3010 <s> 录取名单 </s>
-0.3010 <s> 形式 </s>
-0.3010 <s> 彭 </s>
-0.3010 <s> 影响 </s>
-0.3010 <s> 待 </s>
-0.3010 <s> 徇私舞弊 </s>
-0.3010 <s> 徐佳 </s>
-0.3010 <s> 徐源 </s>
-0.3010 <s> 徐熙炜 </s>
-0.3010 <s> 徐葳 </s>
-0.3010 <s> 微腔 </s>
-0.3010 <s> 德智体 </s>
-0.3010 <s> 德梅洛 </s>
-0.3010 <s> 必修 </s>
-0.3010 <s> 必将 </s>
-0.3010 <s> 必须 </s>
-0.3010 <s> 志愿 </s>
-0.3010 <s> 快递 </s>
-0.3010 <s> 怎么样 </s>
-0.3010 <s> 思想 </s>
-0.3010 <s> 性别 </s>
-0.3010 <s> 总 </s>
-0.3010 <s> 总分 </s>
-0.3010 <s> 总学 </s>
-0.3010 <s> 总成绩 </s>
-0.3010 <s> 总数 </s>
-0.3010 <s> 情况 </s>
-0.3010 <s> 愈发 </s>
-0.3010 <s> 意大利 </s>
-0.3010 <s> 意见 </s>
-0.3010 <s> 意识 </s>
-0.3010 <s> 成 </s>
-0.3010 <s> 成为 </s>
-0.3010 <s> 成功 </s>
-0.3010 <s> 成员 </s>
-0.3010 <s> 成就奖 </s>
-0.3010 <s> 成果 </s>
-0.3010 <s> 成立 </s>
-0.3010 <s> 成绩 </s>
